<?xml version="1.0" encoding="UTF-8"?>
<!-- This network was created in GeNIe Academic, which can be used for academic teaching and research purposes only -->
<smile version="1.0" id="model2" numsamples="10000" discsamples="10000">
	<nodes>
		<cpt id="Gender_ego">
			<state id="State1" />
			<state id="State2" />
			<probabilities>0.4732046517204172 0.5267953482795827</probabilities>
		</cpt>
		<cpt id="Age_ego">
			<state id="State1" />
			<state id="State2" />
			<state id="State3" />
			<state id="State4" />
			<probabilities>0.333772928905407 0.282340246972785 0.2807217360028774 0.1031650881189306</probabilities>
		</cpt>
		<cpt id="Householdsize">
			<state id="State1" />
			<state id="State2" />
			<state id="State3" />
			<probabilities>0.1795348279582784 0.4204531830715741 0.4000119889701474</probabilities>
		</cpt>
		<cpt id="MaritalStatus">
			<state id="State1" />
			<state id="State2" />
			<state id="State3" />
			<state id="State4" />
			<probabilities>0.1806737801222875 0.3840666586740199 0.209087639371778 0.2261719218319146</probabilities>
		</cpt>
		<cpt id="Education_ego">
			<state id="State1" />
			<state id="State2" />
			<probabilities>0.5721136554369979 0.427886344563002</probabilities>
		</cpt>
		<cpt id="Income">
			<state id="State1" />
			<state id="State2" />
			<state id="State3" />
			<state id="State4" />
			<state id="State5" />
			<probabilities>0.1397314470686968 0.1897254525836231 0.2466730607840786 0.2804220117491907 0.1434480278144107</probabilities>
		</cpt>
		<cpt id="age_alter">
			<state id="State1" />
			<state id="State2" />
			<state id="State3" />
			<state id="State4" />
			<parents>Age_ego Householdsize MaritalStatus</parents>
			<probabilities>0.577889447236181 0.1758793969849246 0.1678391959798995 0.07839195979899498 0.25 0.25 0.25 0.25 0.25 0.25 0.25 0.25 0.25 0.25 0.25 0.25 0.25 0.25 0.25 0.25 0.5405558706749859 0.1798071469086784 0.1871809415768576 0.09245604083947817 0.4923076923076923 0.1692307692307692 0.2923076923076923 0.04615384615384616 0.660377358490566 0.09433962264150943 0.05660377358490566 0.1886792452830189 0.25 0.25 0.25 0.25 0.6542056074766355 0.09968847352024922 0.1838006230529595 0.06230529595015576 0.5726666666666667 0.1906666666666667 0.1586666666666667 0.078 0.6280137772675086 0.1343283582089552 0.1469575200918485 0.09070034443168772 0.2274459974587039 0.4027954256670903 0.2109275730622618 0.1588310038119441 0.25 0.25 0.25 0.25 0.25 0.25 0.25 0.25 0.25 0.25 0.25 0.25 0.25 0.25 0.25 0.25 0.2197696737044146 0.3761996161228407 0.2408829174664107 0.163147792706334 0.4031007751937984 0.3333333333333333 0.1782945736434108 0.08527131782945736 0.2105263157894737 0.4473684210526315 0.2368421052631579 0.1052631578947368 0.25 0.25 0.25 0.25 0.3928571428571428 0.25 0.0119047619047619 0.3452380952380952 0.2840632603406326 0.4464720194647202 0.1508515815085158 0.1186131386861314 0.2180952380952381 0.4304761904761905 0.2142857142857143 0.1371428571428571 0.1616161616161616 0.2222222222222222 0.4231200897867565 0.1930415263748597 0.25 0.25 0.25 0.25 0.25 0.25 0.25 0.25 0.25 0.25 0.25 0.25 0.03571428571428571 0.03571428571428571 0.75 0.1785714285714285 0.1915303176130895 0.1973051010587103 0.399422521655438 0.2117420596727623 0.4117647058823529 0.05882352941176471 0.1764705882352941 0.3529411764705882 0.2357723577235773 0.1605691056910569 0.3922764227642277 0.2113821138211382 0.3076923076923077 0.1538461538461539 0.3076923076923077 0.2307692307692308 0.2727272727272727 0.2727272727272727 0.1818181818181818 0.2727272727272727 0.25 0.2672413793103448 0.3103448275862069 0.1724137931034483 0.2256846081208688 0.19452313503305 0.4211520302171861 0.1586402266288952 0.1863354037267081 0.1645962732919254 0.2763975155279503 0.3726708074534161 0.25 0.25 0.25 0.25 0.25 0.25 0.25 0.25 0.25 0.25 0.25 0.25 0.25 0.25 0.25 0.25 0.1841652323580034 0.1721170395869191 0.2418244406196214 0.4018932874354561 0.1176470588235294 0.2352941176470588 0.2941176470588235 0.3529411764705882 0.1578947368421053 0.1842105263157895 0.2763157894736842 0.381578947368421 0.25 0.25 0.25 0.25 0.2 0.2 0.5 0.1 0.25 0.25 0.25 0.25 0.1379310344827586 0.1206896551724138 0.2758620689655172 0.4655172413793103</probabilities>
		</cpt>
		<cpt id="Age_diff">
			<state id="State_3" />
			<state id="State_2" />
			<state id="State_1" />
			<state id="State0" />
			<state id="State1" />
			<state id="State2" />
			<state id="State3" />
			<parents>Age_ego Householdsize MaritalStatus age_alter</parents>
			<probabilities>0.0002480158730158731 0.0002480158730158731 0.0002480158730158731 0.9985119047619049 0.0002480158730158731 0.0002480158730158731 0.0002480158730158731 0.0008116883116883117 0.0008116883116883117 0.9951298701298703 0.0008116883116883117 0.0008116883116883117 0.0008116883116883117 0.0008116883116883117 0.000850340136054422 0.9948979591836736 0.000850340136054422 0.000850340136054422 0.000850340136054422 0.000850340136054422 0.000850340136054422 0.9891500904159135 0.001808318264014467 0.001808318264014467 0.001808318264014467 0.001808318264014467 0.001808318264014467 0.001808318264014467 0.1428571428571429 0.1428571428571429 0.1428571428571429 0.1428571428571429 0.1428571428571429 0.1428571428571429 0.1428571428571429 0.1428571428571429 0.1428571428571429 0.1428571428571429 0.1428571428571429 0.1428571428571429 0.1428571428571429 0.1428571428571429 0.1428571428571429 0.1428571428571429 0.1428571428571429 0.1428571428571429 0.1428571428571429 0.1428571428571429 0.1428571428571429 0.1428571428571429 0.1428571428571429 0.1428571428571429 0.1428571428571429 0.1428571428571429 0.1428571428571429 0.1428571428571429 0.1428571428571429 0.1428571428571429 0.1428571428571429 0.1428571428571429 0.1428571428571429 0.1428571428571429 0.1428571428571429 0.1428571428571429 0.1428571428571429 0.1428571428571429 0.1428571428571429 0.1428571428571429 0.1428571428571429 0.1428571428571429 0.1428571428571429 0.1428571428571429 0.1428571428571429 0.1428571428571429 0.1428571428571429 0.1428571428571429 0.1428571428571429 0.1428571428571429 0.1428571428571429 0.1428571428571429 0.1428571428571429 0.1428571428571429 0.1428571428571429 0.1428571428571429 0.1428571428571429 0.1428571428571429 0.1428571428571429 0.1428571428571429 0.1428571428571429 0.1428571428571429 0.1428571428571429 0.1428571428571429 0.1428571428571429 0.1428571428571429 0.1428571428571429 0.1428571428571429 0.1428571428571429 0.1428571428571429 0.1428571428571429 0.1428571428571429 0.1428571428571429 0.1428571428571429 0.1428571428571429 0.1428571428571429 0.1428571428571429 0.1428571428571429 0.1428571428571429 0.1428571428571429 0.1428571428571429 0.1428571428571429 0.1428571428571429 0.1428571428571429 0.1428571428571429 0.1428571428571429 0.1428571428571429 0.1428571428571429 0.1428571428571429 0.1428571428571429 0.1428571428571429 0.1428571428571429 0.1428571428571429 0.1428571428571429 0.1428571428571429 0.1428571428571429 0.1428571428571429 0.1428571428571429 0.1428571428571429 0.1428571428571429 0.1428571428571429 0.1428571428571429 0.1428571428571429 0.1428571428571429 0.1428571428571429 0.1428571428571429 0.1428571428571429 0.1428571428571429 0.1428571428571429 0.1428571428571429 0.1428571428571429 0.1428571428571429 0.0001497454327643007 0.0001497454327643007 0.0001497454327643007 0.9991015274034142 0.0001497454327643007 0.0001497454327643007 0.0001497454327643007 0.0004492362982929019 0.0004492362982929019 0.9973045822102423 0.0004492362982929019 0.0004492362982929019 0.0004492362982929019 0.0004492362982929019 0.0004315925766076821 0.9974104445403534 0.0004315925766076821 0.0004315925766076821 0.0004315925766076821 0.0004315925766076821 0.0004315925766076821 0.9947735191637632 0.0008710801393728224 0.0008710801393728224 0.0008710801393728224 0.0008710801393728224 0.0008710801393728224 0.0008710801393728224 0.004329004329004327 0.004329004329004327 0.004329004329004327 0.9740259740259737 0.004329004329004327 0.004329004329004327 0.004329004329004327 0.01190476190476191 0.01190476190476191 0.9285714285714286 0.01190476190476191 0.01190476190476191 0.01190476190476191 0.01190476190476191 0.007142857142857144 0.9571428571428573 0.007142857142857144 0.007142857142857144 0.007142857142857144 0.007142857142857144 0.007142857142857144 0.7857142857142859 0.03571428571428572 0.03571428571428572 0.03571428571428572 0.03571428571428572 0.03571428571428572 0.03571428571428572 0.003968253968253966 0.003968253968253966 0.003968253968253966 0.9761904761904758 0.003968253968253966 0.003968253968253966 0.003968253968253966 0.0238095238095238 0.0238095238095238 0.857142857142857 0.0238095238095238 0.0238095238095238 0.0238095238095238 0.0238095238095238 0.03571428571428572 0.7857142857142859 0.03571428571428572 0.03571428571428572 0.03571428571428572 0.03571428571428572 0.03571428571428572 0.9220779220779224 0.01298701298701299 0.01298701298701299 0.01298701298701299 0.01298701298701299 0.01298701298701299 0.01298701298701299 0.1428571428571429 0.1428571428571429 0.1428571428571429 0.1428571428571429 0.1428571428571429 0.1428571428571429 0.1428571428571429 0.1428571428571429 0.1428571428571429 0.1428571428571429 0.1428571428571429 0.1428571428571429 0.1428571428571429 0.1428571428571429 0.1428571428571429 0.1428571428571429 0.1428571428571429 0.1428571428571429 0.1428571428571429 0.1428571428571429 0.1428571428571429 0.1428571428571429 0.1428571428571429 0.1428571428571429 0.1428571428571429 0.1428571428571429 0.1428571428571429 0.1428571428571429 0.0006770480704129993 0.0006770480704129993 0.0006770480704129993 0.9959377115775221 0.0006770480704129993 0.0006770480704129993 0.0006770480704129993 0.004329004329004327 0.004329004329004327 0.9740259740259737 0.004329004329004327 0.004329004329004327 0.004329004329004327 0.004329004329004327 0.00238095238095238 0.9857142857142853 0.00238095238095238 0.00238095238095238 0.00238095238095238 0.00238095238095238 0.00238095238095238 0.9591836734693879 0.006802721088435376 0.006802721088435376 0.006802721088435376 0.006802721088435376 0.006802721088435376 0.006802721088435376 0.0001661129568106312 0.0001661129568106312 0.0001661129568106312 0.9990033222591364 0.0001661129568106312 0.0001661129568106312 0.0001661129568106312 0.0004977600796416125 0.0004977600796416125 0.99701343952215 0.0004977600796416125 0.0004977600796416125 0.0004977600796416125 0.0004977600796416125 0.0005977286312014346 0.9964136282127914 0.0005977286312014346 0.0005977286312014346 0.0005977286312014346 0.0005977286312014346 0.0005977286312014346 0.9927360774818403 0.001210653753026635 0.001210653753026635 0.001210653753026635 0.001210653753026635 0.001210653753026635 0.001210653753026635 0.0002606882168925965 0.0002606882168925965 0.0002606882168925965 0.9984358706986446 0.0002606882168925965 0.0002606882168925965 0.0002606882168925965 0.001210653753026635 0.001210653753026635 0.9927360774818403 0.001210653753026635 0.001210653753026635 0.001210653753026635 0.001210653753026635 0.001107419712070875 0.9933554817275749 0.001107419712070875 0.001107419712070875 0.001107419712070875 0.001107419712070875 0.001107419712070875 0.9892857142857145 0.001785714285714286 0.001785714285714286 0.001785714285714286 0.001785714285714286 0.001785714285714286 0.001785714285714286 0.0007936507936507937 0.0007936507936507937 0.0007936507936507937 0.0007936507936507937 0.9952380952380953 0.0007936507936507937 0.0007936507936507937 0.0004492362982929019 0.0004492362982929019 0.0004492362982929019 0.9973045822102423 0.0004492362982929019 0.0004492362982929019 0.0004492362982929019 0.0008554319931565442 0.0008554319931565442 0.9948674080410609 0.0008554319931565442 0.0008554319931565442 0.0008554319931565442 0.0008554319931565442 0.001133786848072562 0.9931972789115647 0.001133786848072562 0.001133786848072562 0.001133786848072562 0.001133786848072562 0.001133786848072562 0.1428571428571429 0.1428571428571429 0.1428571428571429 0.1428571428571429 0.1428571428571429 0.1428571428571429 0.1428571428571429 0.1428571428571429 0.1428571428571429 0.1428571428571429 0.1428571428571429 0.1428571428571429 0.1428571428571429 0.1428571428571429 0.1428571428571429 0.1428571428571429 0.1428571428571429 0.1428571428571429 0.1428571428571429 0.1428571428571429 0.1428571428571429 0.1428571428571429 0.1428571428571429 0.1428571428571429 0.1428571428571429 0.1428571428571429 0.1428571428571429 0.1428571428571429 0.1428571428571429 0.1428571428571429 0.1428571428571429 0.1428571428571429 0.1428571428571429 0.1428571428571429 0.1428571428571429 0.1428571428571429 0.1428571428571429 0.1428571428571429 0.1428571428571429 0.1428571428571429 0.1428571428571429 0.1428571428571429 0.1428571428571429 0.1428571428571429 0.1428571428571429 0.1428571428571429 0.1428571428571429 0.1428571428571429 0.1428571428571429 0.1428571428571429 0.1428571428571429 0.1428571428571429 0.1428571428571429 0.1428571428571429 0.1428571428571429 0.1428571428571429 0.1428571428571429 0.1428571428571429 0.1428571428571429 0.1428571428571429 0.1428571428571429 0.1428571428571429 0.1428571428571429 0.1428571428571429 0.1428571428571429 0.1428571428571429 0.1428571428571429 0.1428571428571429 0.1428571428571429 0.1428571428571429 0.1428571428571429 0.1428571428571429 0.1428571428571429 0.1428571428571429 0.1428571428571429 0.1428571428571429 0.1428571428571429 0.1428571428571429 0.1428571428571429 0.1428571428571429 0.1428571428571429 0.1428571428571429 0.1428571428571429 0.1428571428571429 0.1428571428571429 0.1428571428571429 0.1428571428571429 0.1428571428571429 0.1428571428571429 0.1428571428571429 0.1428571428571429 0.1428571428571429 0.1428571428571429 0.1428571428571429 0.1428571428571429 0.1428571428571429 0.1428571428571429 0.1428571428571429 0.1428571428571429 0.1428571428571429 0.1428571428571429 0.1428571428571429 0.1428571428571429 0.1428571428571429 0.1428571428571429 0.1428571428571429 0.1428571428571429 0.1428571428571429 0.1428571428571429 0.1428571428571429 0.1428571428571429 0.1428571428571429 0.0006211180124223603 0.0006211180124223603 0.0006211180124223603 0.0006211180124223603 0.9962732919254659 0.0006211180124223603 0.0006211180124223603 0.0003635041802980733 0.0003635041802980733 0.0003635041802980733 0.9978189749182114 0.0003635041802980733 0.0003635041802980733 0.0003635041802980733 0.0005668934240362812 0.0005668934240362812 0.9965986394557824 0.0005668934240362812 0.0005668934240362812 0.0005668934240362812 0.0005668934240362812 0.0008354218880534671 0.9949874686716793 0.0008354218880534671 0.0008354218880534671 0.0008354218880534671 0.0008354218880534671 0.0008354218880534671 0.002695417789757412 0.002695417789757412 0.002695417789757412 0.002695417789757412 0.9838274932614554 0.002695417789757412 0.002695417789757412 0.003246753246753246 0.003246753246753246 0.003246753246753246 0.9805194805194803 0.003246753246753246 0.003246753246753246 0.003246753246753246 0.005952380952380953 0.005952380952380953 0.9642857142857144 0.005952380952380953 0.005952380952380953 0.005952380952380953 0.005952380952380953 0.01190476190476191 0.9285714285714288 0.01190476190476191 0.01190476190476191 0.01190476190476191 0.01190476190476191 0.01190476190476191 0.01587301587301588 0.01587301587301588 0.01587301587301588 0.01587301587301588 0.9047619047619049 0.01587301587301588 0.01587301587301588 0.007936507936507938 0.007936507936507938 0.007936507936507938 0.9523809523809526 0.007936507936507938 0.007936507936507938 0.007936507936507938 0.01428571428571429 0.01428571428571429 0.9142857142857144 0.01428571428571429 0.01428571428571429 0.01428571428571429 0.01428571428571429 0.02857142857142856 0.8285714285714282 0.02857142857142856 0.02857142857142856 0.02857142857142856 0.02857142857142856 0.02857142857142856 0.1428571428571429 0.1428571428571429 0.1428571428571429 0.1428571428571429 0.1428571428571429 0.1428571428571429 0.1428571428571429 0.1428571428571429 0.1428571428571429 0.1428571428571429 0.1428571428571429 0.1428571428571429 0.1428571428571429 0.1428571428571429 0.1428571428571429 0.1428571428571429 0.1428571428571429 0.1428571428571429 0.1428571428571429 0.1428571428571429 0.1428571428571429 0.1428571428571429 0.1428571428571429 0.1428571428571429 0.1428571428571429 0.1428571428571429 0.1428571428571429 0.1428571428571429 0.01587301587301588 0.01587301587301588 0.01587301587301588 0.01587301587301588 0.9047619047619049 0.01587301587301588 0.01587301587301588 0.0238095238095238 0.0238095238095238 0.0238095238095238 0.857142857142857 0.0238095238095238 0.0238095238095238 0.0238095238095238 0.1428571428571429 0.1428571428571429 0.1428571428571429 0.1428571428571429 0.1428571428571429 0.1428571428571429 0.1428571428571429 0.01785714285714285 0.8928571428571427 0.01785714285714285 0.01785714285714285 0.01785714285714285 0.01785714285714285 0.01785714285714285 0.0003052503052503052 0.0003052503052503052 0.0003052503052503052 0.0003052503052503052 0.9981684981684981 0.0003052503052503052 0.0003052503052503052 0.0001943634596695821 0.0001943634596695821 0.0001943634596695821 0.9988338192419826 0.0001943634596695821 0.0001943634596695821 0.0001943634596695821 0.0005737234652897304 0.0005737234652897304 0.9965576592082617 0.0005737234652897304 0.0005737234652897304 0.0005737234652897304 0.0005737234652897304 0.0007288629737609329 0.9956268221574345 0.0007288629737609329 0.0007288629737609329 0.0007288629737609329 0.0007288629737609329 0.0007288629737609329 0.0006211180124223603 0.0006211180124223603 0.0006211180124223603 0.0006211180124223603 0.9962732919254659 0.0006211180124223603 0.0006211180124223603 0.0003153579312519709 0.0003153579312519709 0.0003153579312519709 0.998107852412488 0.0003153579312519709 0.0003153579312519709 0.0003153579312519709 0.0006321112515802782 0.0006321112515802782 0.9962073324905185 0.0006321112515802782 0.0006321112515802782 0.0006321112515802782 0.0006321112515802782 0.0009852216748768474 0.9940886699507391 0.0009852216748768474 0.0009852216748768474 0.0009852216748768474 0.0009852216748768474 0.0009852216748768474 0.0009852216748768472 0.0009852216748768472 0.0009852216748768472 0.0009852216748768472 0.0009852216748768472 0.9940886699507389 0.0009852216748768472 0.0007178750897343861 0.0007178750897343861 0.0007178750897343861 0.0007178750897343861 0.9956927494615937 0.0007178750897343861 0.0007178750897343861 0.0003779289493575207 0.0003779289493575207 0.0003779289493575207 0.9977324263038547 0.0003779289493575207 0.0003779289493575207 0.0003779289493575207 0.0008257638315441784 0.0008257638315441784 0.995045417010735 0.0008257638315441784 0.0008257638315441784 0.0008257638315441784 0.0008257638315441784 0.1428571428571429 0.1428571428571429 0.1428571428571429 0.1428571428571429 0.1428571428571429 0.1428571428571429 0.1428571428571429 0.1428571428571429 0.1428571428571429 0.1428571428571429 0.1428571428571429 0.1428571428571429 0.1428571428571429 0.1428571428571429 0.1428571428571429 0.1428571428571429 0.1428571428571429 0.1428571428571429 0.1428571428571429 0.1428571428571429 0.1428571428571429 0.1428571428571429 0.1428571428571429 0.1428571428571429 0.1428571428571429 0.1428571428571429 0.1428571428571429 0.1428571428571429 0.1428571428571429 0.1428571428571429 0.1428571428571429 0.1428571428571429 0.1428571428571429 0.1428571428571429 0.1428571428571429 0.1428571428571429 0.1428571428571429 0.1428571428571429 0.1428571428571429 0.1428571428571429 0.1428571428571429 0.1428571428571429 0.1428571428571429 0.1428571428571429 0.1428571428571429 0.1428571428571429 0.1428571428571429 0.1428571428571429 0.1428571428571429 0.1428571428571429 0.1428571428571429 0.1428571428571429 0.1428571428571429 0.1428571428571429 0.1428571428571429 0.1428571428571429 0.1428571428571429 0.1428571428571429 0.1428571428571429 0.1428571428571429 0.1428571428571429 0.1428571428571429 0.1428571428571429 0.1428571428571429 0.1428571428571429 0.1428571428571429 0.1428571428571429 0.1428571428571429 0.1428571428571429 0.1428571428571429 0.1428571428571429 0.1428571428571429 0.1428571428571429 0.1428571428571429 0.1428571428571429 0.1428571428571429 0.1428571428571429 0.1428571428571429 0.1428571428571429 0.1428571428571429 0.1428571428571429 0.1428571428571429 0.1428571428571429 0.1428571428571429 0.1428571428571429 0.1428571428571429 0.1428571428571429 0.1428571428571429 0.1428571428571429 0.1428571428571429 0.1428571428571429 0.1428571428571429 0.1428571428571429 0.1428571428571429 0.1428571428571429 0.1428571428571429 0.1428571428571429 0.1428571428571429 0.0238095238095238 0.0238095238095238 0.0238095238095238 0.857142857142857 0.0238095238095238 0.0238095238095238 0.0238095238095238 0.07142857142857144 0.07142857142857144 0.5714285714285715 0.07142857142857144 0.07142857142857144 0.07142857142857144 0.07142857142857144 0.0003580379520229143 0.0003580379520229143 0.0003580379520229143 0.0003580379520229143 0.0003580379520229143 0.9978517722878624 0.0003580379520229143 0.0003475842891901286 0.0003475842891901286 0.0003475842891901286 0.0003475842891901286 0.9979144942648591 0.0003475842891901286 0.0003475842891901286 0.000171909919202338 0.000171909919202338 0.000171909919202338 0.9989685404847861 0.000171909919202338 0.000171909919202338 0.000171909919202338 0.0003239390994493035 0.0003239390994493035 0.9980563654033041 0.0003239390994493035 0.0003239390994493035 0.0003239390994493035 0.0003239390994493035 0.01785714285714286 0.01785714285714286 0.01785714285714286 0.01785714285714286 0.01785714285714286 0.8928571428571429 0.01785714285714286 0.07142857142857144 0.07142857142857144 0.07142857142857144 0.07142857142857144 0.5714285714285715 0.07142857142857144 0.07142857142857144 0.03571428571428572 0.03571428571428572 0.03571428571428572 0.7857142857142859 0.03571428571428572 0.03571428571428572 0.03571428571428572 0.02040816326530612 0.02040816326530612 0.8775510204081631 0.02040816326530612 0.02040816326530612 0.02040816326530612 0.02040816326530612 0.001221001221001221 0.001221001221001221 0.001221001221001221 0.001221001221001221 0.001221001221001221 0.9926739926739927 0.001221001221001221 0.001785714285714286 0.001785714285714286 0.001785714285714286 0.001785714285714286 0.9892857142857144 0.001785714285714286 0.001785714285714286 0.0007363770250368189 0.0007363770250368189 0.0007363770250368189 0.9955817378497792 0.0007363770250368189 0.0007363770250368189 0.0007363770250368189 0.001360544217687075 0.001360544217687075 0.9918367346938776 0.001360544217687075 0.001360544217687075 0.001360544217687075 0.001360544217687075 0.02857142857142856 0.02857142857142856 0.02857142857142856 0.02857142857142856 0.02857142857142856 0.8285714285714285 0.02857142857142856 0.04761904761904762 0.04761904761904762 0.04761904761904762 0.04761904761904762 0.7142857142857142 0.04761904761904762 0.04761904761904762 0.02857142857142856 0.02857142857142856 0.02857142857142856 0.8285714285714284 0.02857142857142856 0.02857142857142856 0.02857142857142856 0.03571428571428572 0.03571428571428572 0.7857142857142859 0.03571428571428572 0.03571428571428572 0.03571428571428572 0.03571428571428572 0.03571428571428572 0.03571428571428572 0.03571428571428572 0.03571428571428572 0.03571428571428572 0.7857142857142859 0.03571428571428572 0.03571428571428571 0.03571428571428571 0.03571428571428571 0.03571428571428571 0.7857142857142857 0.03571428571428571 0.03571428571428571 0.04761904761904762 0.04761904761904762 0.04761904761904762 0.7142857142857143 0.04761904761904762 0.04761904761904762 0.04761904761904762 0.03571428571428572 0.03571428571428572 0.7857142857142859 0.03571428571428572 0.03571428571428572 0.03571428571428572 0.03571428571428572 0.004761904761904761 0.004761904761904761 0.004761904761904761 0.004761904761904761 0.004761904761904761 0.9714285714285714 0.004761904761904761 0.004464285714285714 0.004464285714285714 0.004464285714285714 0.004464285714285714 0.9732142857142857 0.004464285714285714 0.004464285714285714 0.003861003861003859 0.003861003861003859 0.003861003861003859 0.9768339768339765 0.003861003861003859 0.003861003861003859 0.003861003861003859 0.006802721088435376 0.006802721088435376 0.9591836734693879 0.006802721088435376 0.006802721088435376 0.006802721088435376 0.006802721088435376 0.0005952380952380952 0.0005952380952380952 0.0005952380952380952 0.0005952380952380952 0.0005952380952380952 0.9964285714285714 0.0005952380952380952 0.0006901311249137335 0.0006901311249137335 0.0006901311249137335 0.0006901311249137335 0.9958592132505175 0.0006901311249137335 0.0006901311249137335 0.0003195909236177691 0.0003195909236177691 0.0003195909236177691 0.9980824544582932 0.0003195909236177691 0.0003195909236177691 0.0003195909236177691 0.00084530853761623 0.00084530853761623 0.9949281487743027 0.00084530853761623 0.00084530853761623 0.00084530853761623 0.00084530853761623 0.00234192037470726 0.00234192037470726 0.00234192037470726 0.00234192037470726 0.00234192037470726 0.00234192037470726 0.9859484777517565 0.002645502645502645 0.002645502645502645 0.002645502645502645 0.002645502645502645 0.002645502645502645 0.9841269841269842 0.002645502645502645 0.001587301587301588 0.001587301587301588 0.001587301587301588 0.001587301587301588 0.9904761904761906 0.001587301587301588 0.001587301587301588 0.001180637544273908 0.001180637544273908 0.001180637544273908 0.9929161747343566 0.001180637544273908 0.001180637544273908 0.001180637544273908 0.1428571428571429 0.1428571428571429 0.1428571428571429 0.1428571428571429 0.1428571428571429 0.1428571428571429 0.1428571428571429 0.1428571428571429 0.1428571428571429 0.1428571428571429 0.1428571428571429 0.1428571428571429 0.1428571428571429 0.1428571428571429 0.1428571428571429 0.1428571428571429 0.1428571428571429 0.1428571428571429 0.1428571428571429 0.1428571428571429 0.1428571428571429 0.1428571428571429 0.1428571428571429 0.1428571428571429 0.1428571428571429 0.1428571428571429 0.1428571428571429 0.1428571428571429 0.1428571428571429 0.1428571428571429 0.1428571428571429 0.1428571428571429 0.1428571428571429 0.1428571428571429 0.1428571428571429 0.1428571428571429 0.1428571428571429 0.1428571428571429 0.1428571428571429 0.1428571428571429 0.1428571428571429 0.1428571428571429 0.1428571428571429 0.1428571428571429 0.1428571428571429 0.1428571428571429 0.1428571428571429 0.1428571428571429 0.1428571428571429 0.1428571428571429 0.1428571428571429 0.1428571428571429 0.1428571428571429 0.1428571428571429 0.1428571428571429 0.1428571428571429 0.1428571428571429 0.1428571428571429 0.1428571428571429 0.1428571428571429 0.1428571428571429 0.1428571428571429 0.1428571428571429 0.1428571428571429 0.1428571428571429 0.1428571428571429 0.1428571428571429 0.1428571428571429 0.1428571428571429 0.1428571428571429 0.1428571428571429 0.1428571428571429 0.1428571428571429 0.1428571428571429 0.1428571428571429 0.1428571428571429 0.1428571428571429 0.1428571428571429 0.1428571428571429 0.1428571428571429 0.1428571428571429 0.1428571428571429 0.1428571428571429 0.1428571428571429 0.1428571428571429 0.1428571428571429 0.1428571428571429 0.1428571428571429 0.1428571428571429 0.1428571428571429 0.1428571428571429 0.1428571428571429 0.1428571428571429 0.1428571428571429 0.1428571428571429 0.1428571428571429 0.1428571428571429 0.1428571428571429 0.1428571428571429 0.1428571428571429 0.1428571428571429 0.1428571428571429 0.1428571428571429 0.1428571428571429 0.1428571428571429 0.1428571428571429 0.1428571428571429 0.1428571428571429 0.1428571428571429 0.1428571428571429 0.1428571428571429 0.1428571428571429 0.0006644518272425248 0.0006644518272425248 0.0006644518272425248 0.0006644518272425248 0.0006644518272425248 0.0006644518272425248 0.9960132890365448 0.0007107320540156361 0.0007107320540156361 0.0007107320540156361 0.0007107320540156361 0.0007107320540156361 0.9957356076759062 0.0007107320540156361 0.0005065856129685916 0.0005065856129685916 0.0005065856129685916 0.0005065856129685916 0.9969604863221884 0.0005065856129685916 0.0005065856129685916 0.0003052503052503051 0.0003052503052503051 0.0003052503052503051 0.998168498168498 0.0003052503052503051 0.0003052503052503051 0.0003052503052503051 0.04761904761904762 0.04761904761904762 0.04761904761904762 0.04761904761904762 0.04761904761904762 0.04761904761904762 0.7142857142857142 0.02857142857142856 0.02857142857142856 0.02857142857142856 0.02857142857142856 0.02857142857142856 0.8285714285714285 0.02857142857142856 0.0238095238095238 0.0238095238095238 0.0238095238095238 0.0238095238095238 0.857142857142857 0.0238095238095238 0.0238095238095238 0.02040816326530612 0.02040816326530612 0.02040816326530612 0.8775510204081631 0.02040816326530612 0.02040816326530612 0.02040816326530612 0.005714285714285714 0.005714285714285714 0.005714285714285714 0.005714285714285714 0.005714285714285714 0.005714285714285714 0.9657142857142857 0.004926108374384237 0.004926108374384237 0.004926108374384237 0.004926108374384237 0.004926108374384237 0.9704433497536945 0.004926108374384237 0.003322259136212624 0.003322259136212624 0.003322259136212624 0.003322259136212624 0.9800664451827241 0.003322259136212624 0.003322259136212624 0.002421307506053268 0.002421307506053268 0.002421307506053268 0.9854721549636802 0.002421307506053268 0.002421307506053268 0.002421307506053268 0.1428571428571429 0.1428571428571429 0.1428571428571429 0.1428571428571429 0.1428571428571429 0.1428571428571429 0.1428571428571429 0.1428571428571429 0.1428571428571429 0.1428571428571429 0.1428571428571429 0.1428571428571429 0.1428571428571429 0.1428571428571429 0.1428571428571429 0.1428571428571429 0.1428571428571429 0.1428571428571429 0.1428571428571429 0.1428571428571429 0.1428571428571429 0.1428571428571429 0.1428571428571429 0.1428571428571429 0.1428571428571429 0.1428571428571429 0.1428571428571429 0.1428571428571429 0.04761904761904762 0.04761904761904762 0.04761904761904762 0.04761904761904762 0.04761904761904762 0.04761904761904762 0.7142857142857142 0.04761904761904762 0.04761904761904762 0.04761904761904762 0.04761904761904762 0.04761904761904762 0.7142857142857143 0.04761904761904762 0.0238095238095238 0.0238095238095238 0.0238095238095238 0.0238095238095238 0.857142857142857 0.0238095238095238 0.0238095238095238 0.07142857142857144 0.07142857142857144 0.07142857142857144 0.5714285714285715 0.07142857142857144 0.07142857142857144 0.07142857142857144 0.1428571428571429 0.1428571428571429 0.1428571428571429 0.1428571428571429 0.1428571428571429 0.1428571428571429 0.1428571428571429 0.1428571428571429 0.1428571428571429 0.1428571428571429 0.1428571428571429 0.1428571428571429 0.1428571428571429 0.1428571428571429 0.1428571428571429 0.1428571428571429 0.1428571428571429 0.1428571428571429 0.1428571428571429 0.1428571428571429 0.1428571428571429 0.1428571428571429 0.1428571428571429 0.1428571428571429 0.1428571428571429 0.1428571428571429 0.1428571428571429 0.1428571428571429 0.01587301587301587 0.01587301587301587 0.01587301587301587 0.01587301587301587 0.01587301587301587 0.01587301587301587 0.9047619047619047 0.01785714285714286 0.01785714285714286 0.01785714285714286 0.01785714285714286 0.01785714285714286 0.8928571428571429 0.01785714285714286 0.008403361344537815 0.008403361344537815 0.008403361344537815 0.008403361344537815 0.9495798319327731 0.008403361344537815 0.008403361344537815 0.005102040816326531 0.005102040816326531 0.005102040816326531 0.9693877551020409 0.005102040816326531 0.005102040816326531 0.005102040816326531</probabilities>
		</cpt>
		<cpt id="education_alter">
			<state id="State1" />
			<state id="State2" />
			<parents>Age_ego MaritalStatus Education_ego Income</parents>
			<probabilities>0.5 0.5 0.496 0.504 0.5333333333333333 0.4666666666666667 0.5 0.5 0.6428571428571428 0.3571428571428571 0.416 0.584 0.2745098039215687 0.7254901960784313 0.2211538461538462 0.7788461538461539 0.2447916666666667 0.7552083333333333 0.5 0.5 0.9259259259259258 0.07407407407407407 0.45 0.55 0.5743801652892562 0.4256198347107438 0.6086956521739131 0.391304347826087 0.5 0.5 0.3157894736842105 0.6842105263157894 0.3712121212121212 0.6287878787878788 0.323943661971831 0.676056338028169 0.2450592885375494 0.7549407114624506 0.3469387755102041 0.6530612244897959 0.5804195804195804 0.4195804195804196 0.6352201257861636 0.3647798742138365 0.6073059360730593 0.3926940639269406 0.4740740740740741 0.5259259259259259 0.6896551724137931 0.3103448275862069 0.3846153846153846 0.6153846153846154 0.3333333333333333 0.6666666666666666 0.2527472527472528 0.7472527472527473 0.3717277486910995 0.6282722513089005 0.3636363636363636 0.6363636363636364 0.3691756272401434 0.6308243727598566 0.6071428571428571 0.3928571428571428 0.8571428571428571 0.1428571428571428 0.9444444444444444 0.05555555555555555 0.5 0.5 0.327485380116959 0.672514619883041 0.3617021276595744 0.6382978723404256 0.1304347826086956 0.8695652173913043 0.4264705882352941 0.5735294117647058 0.3269230769230769 0.6730769230769231 0.2702702702702703 0.7297297297297298 0.6967213114754098 0.3032786885245902 0.6462264150943396 0.3537735849056604 0.7468354430379747 0.2531645569620253 0.4444444444444444 0.5555555555555556 0.5 0.5 0.5040650406504066 0.4959349593495935 0.4117647058823529 0.5882352941176471 0.472 0.528 0.2857142857142857 0.7142857142857142 0.7714285714285714 0.2285714285714286 0.6885245901639344 0.3114754098360656 0.728395061728395 0.2716049382716049 0.6796875 0.3203125 0.6279069767441861 0.3720930232558139 0.1875 0.8125 0.2947368421052631 0.7052631578947368 0.358974358974359 0.641025641025641 0.4481327800829876 0.5518672199170125 0.2180094786729858 0.7819905213270143 0.7577319587628866 0.2422680412371134 0.6174496644295302 0.3825503355704698 0.5680000000000001 0.432 0.6905537459283388 0.3094462540716613 0.58 0.42 0.5632183908045977 0.4367816091954023 0.45 0.55 0.2631578947368421 0.7368421052631579 0.3583333333333333 0.6416666666666666 0.3905817174515235 0.6094182825484764 0.6363636363636364 0.3636363636363636 0.7087378640776698 0.2912621359223301 0.5071090047393365 0.4928909952606635 0.6611111111111111 0.3388888888888889 0.7978723404255319 0.2021276595744681 0.5 0.5 0.2444444444444445 0.7555555555555555 0.2909090909090909 0.7090909090909091 0.5070422535211268 0.4929577464788732 0.2666666666666667 0.7333333333333334 0.5 0.5 0.7633587786259541 0.2366412213740458 0.689922480620155 0.310077519379845 0.7865853658536586 0.2134146341463415 0.2727272727272727 0.7272727272727273 0.5 0.5 0.4782608695652174 0.5217391304347826 0.3698630136986301 0.6301369863013698 0.08333333333333333 0.9166666666666666 0.28125 0.71875 0.7846153846153847 0.2153846153846154 0.6829268292682927 0.3170731707317073 0.6935483870967742 0.3064516129032258 0.6845794392523364 0.3154205607476635 0.7398843930635838 0.2601156069364162 0.5 0.5 0.5876288659793815 0.4123711340206185 0.3797468354430379 0.620253164556962 0.3482142857142857 0.6517857142857143 0.5915492957746479 0.4084507042253521 0.75 0.25 0.5333333333333333 0.4666666666666667 0.625 0.375 0.4444444444444444 0.5555555555555556 0.7142857142857142 0.2857142857142857 0.5 0.5 0.07407407407407407 0.9259259259259258 0.1818181818181818 0.8181818181818182 0.2666666666666667 0.7333333333333333 0.8 0.2 0.7906976744186046 0.2093023255813953 0.6342412451361867 0.3657587548638133 0.5934065934065934 0.4065934065934066 0.6387665198237886 0.3612334801762115 0.7586206896551724 0.2413793103448276 0.5081967213114754 0.4918032786885246 0.4642857142857142 0.5357142857142857 0.4444444444444444 0.5555555555555556 0.3737373737373738 0.6262626262626263 0.4300518134715026 0.5699481865284974 0.75 0.25 0.8072289156626506 0.1927710843373494 0.7967479674796749 0.2032520325203252 0.5517241379310345 0.4482758620689655 0.5 0.5 0.5 0.5 0.4285714285714285 0.5714285714285714 0.7222222222222222 0.2777777777777778 0.2619047619047619 0.738095238095238 0.4736842105263158 0.5263157894736842 0.1944444444444444 0.8055555555555555 0.7559055118110236 0.2440944881889764 0.7162921348314607 0.2837078651685393 0.8618784530386741 0.1381215469613259 0.745945945945946 0.2540540540540541 0.5 0.5 0.5 0.5 0.2549019607843137 0.7450980392156863 0.5106382978723404 0.4893617021276596 0.471830985915493 0.528169014084507 0.5 0.5 0.5 0.5 0.75 0.25 0.8 0.2 0.5 0.5 0.5 0.5 0.5 0.5 0.5 0.5 0.5 0.5 0.5 0.5 0.5 0.5 0.851063829787234 0.148936170212766 0.5490196078431373 0.4509803921568628 0.875 0.125 0.6666666666666666 0.3333333333333333 0.5 0.5 0.8 0.2 0.2857142857142857 0.7142857142857142 0.4 0.6 0.75 0.25</probabilities>
		</cpt>
		<cpt id="Edu_diff">
			<state id="State_1" />
			<state id="State0" />
			<state id="State1" />
			<parents>Householdsize MaritalStatus Education_ego education_alter</parents>
			<probabilities>0.0002738975623116955 0.9994522048753768 0.0002738975623116955 0.9989567031820552 0.0005216484089723525 0.0005216484089723525 0.0008190008190008189 0.0008190008190008189 0.9983619983619982 0.0004528985507246376 0.9990942028985506 0.0004528985507246376 0.3333333333333333 0.3333333333333333 0.3333333333333333 0.3333333333333333 0.3333333333333333 0.3333333333333333 0.3333333333333333 0.3333333333333333 0.3333333333333333 0.3333333333333333 0.3333333333333333 0.3333333333333333 0.3333333333333333 0.3333333333333333 0.3333333333333333 0.3333333333333333 0.3333333333333333 0.3333333333333333 0.3333333333333333 0.3333333333333333 0.3333333333333333 0.3333333333333333 0.3333333333333333 0.3333333333333333 0.3333333333333333 0.3333333333333333 0.3333333333333333 0.3333333333333333 0.3333333333333333 0.3333333333333333 0.3333333333333333 0.3333333333333333 0.3333333333333333 0.3333333333333333 0.3333333333333333 0.3333333333333333 0.04761904761904762 0.9047619047619049 0.04761904761904762 0.3333333333333333 0.3333333333333333 0.3333333333333333 0.3333333333333333 0.3333333333333333 0.3333333333333333 0.3333333333333333 0.3333333333333333 0.3333333333333333 0.0001410636196924813 0.9997178727606149 0.0001410636196924813 0.9993955877908736 0.0003022061045633122 0.0003022061045633122 0.0003523608174770966 0.0003523608174770966 0.9992952783650458 0.0002036245163917736 0.9995927509672167 0.0002036245163917736 0.003333333333333334 0.9933333333333335 0.003333333333333334 0.9908675799086759 0.004566210045662101 0.004566210045662101 0.01282051282051282 0.01282051282051282 0.9743589743589743 0.0101010101010101 0.9797979797979797 0.0101010101010101 0.0008888888888888889 0.9982222222222223 0.0008888888888888889 0.9961464354527937 0.001926782273603082 0.001926782273603082 0.004629629629629629 0.004629629629629629 0.9907407407407406 0.002801120448179272 0.9943977591036416 0.002801120448179272 0.0303030303030303 0.9393939393939393 0.0303030303030303 0.8333333333333334 0.08333333333333333 0.08333333333333333 0.3333333333333333 0.3333333333333333 0.3333333333333333 0.3333333333333333 0.3333333333333333 0.3333333333333333 0.002469135802469135 0.9950617283950616 0.002469135802469135 0.982456140350877 0.008771929824561401 0.008771929824561401 0.006172839506172839 0.006172839506172839 0.9876543209876543 0.002398081534772182 0.9952038369304556 0.002398081534772182 0.0003217503217503218 0.9993564993564995 0.0003217503217503218 0.9989615784008307 0.0005192107995846312 0.0005192107995846312 0.0005899705014749262 0.0005899705014749262 0.9988200589970502 0.000326477309826967 0.9993470453803459 0.000326477309826967 0.0003306878306878307 0.9993386243386243 0.0003306878306878307 0.9989534275248559 0.0005232862375719517 0.0005232862375719517 0.0006161429451632778 0.0006161429451632778 0.9987677141096735 0.0003894080996884735 0.999221183800623 0.0003894080996884735</probabilities>
		</cpt>
		<cpt id="Paidwork">
			<state id="s1_below_8" />
			<state id="s2_8_36" />
			<state id="s3_36_up" />
			<probabilities>0.3048195659992807 0.349418534947848 0.3457618990528714</probabilities>
		</cpt>
		<cpt id="gender_alter">
			<state id="State1" />
			<state id="State2" />
			<parents>Gender_ego</parents>
			<probabilities>0.5496579680770206 0.4503420319229795 0.3627674101046882 0.6372325898953118</probabilities>
		</cpt>
		<cpt id="Gender_diff">
			<state id="State_1" />
			<state id="State0" />
			<state id="State1" />
			<parents>Gender_ego Income Paidwork gender_alter</parents>
			<probabilities>0.001915708812260536 0.9961685823754788 0.001915708812260536 0.9950617283950616 0.002469135802469135 0.002469135802469135 0.002873563218390805 0.9942528735632186 0.002873563218390805 0.9932659932659933 0.003367003367003367 0.003367003367003367 0.01149425287356322 0.9770114942528737 0.01149425287356322 0.9649122807017545 0.01754385964912281 0.01754385964912281 0.001610305958132045 0.9967793880837359 0.001610305958132045 0.9967793880837359 0.001610305958132045 0.001610305958132045 0.001821493624772313 0.9963570127504553 0.001821493624772313 0.996101364522417 0.001949317738791422 0.001949317738791422 0.01282051282051282 0.9743589743589743 0.01282051282051282 0.9696969696969698 0.01515151515151515 0.01515151515151515 0.0008503401360544218 0.9982993197278912 0.0008503401360544218 0.9982547993019198 0.0008726003490401397 0.0008726003490401397 0.0020703933747412 0.9958592132505174 0.0020703933747412 0.9948717948717948 0.002564102564102564 0.002564102564102564 0.0006761325219743071 0.9986477349560515 0.0006761325219743071 0.9981006647673316 0.0009496676163342832 0.0009496676163342832 0.002298850574712643 0.9954022988505746 0.002298850574712643 0.9949494949494948 0.002525252525252525 0.002525252525252525 0.00177304964539007 0.9964539007092197 0.00177304964539007 0.9951338199513381 0.0024330900243309 0.0024330900243309 0.0002643404705260376 0.999471319058948 0.0002643404705260376 0.9992900248491302 0.0003549875754348597 0.0003549875754348597 0.001872659176029962 0.99625468164794 0.001872659176029962 0.9943019943019944 0.002849002849002849 0.002849002849002849 0.002096436058700209 0.9958071278825994 0.002096436058700209 0.9950248756218903 0.002487562189054725 0.002487562189054725 0.0005192107995846312 0.9989615784008307 0.0005192107995846312 0.9988795518207282 0.0005602240896358542 0.0005602240896358542 0.000992063492063492 0.000992063492063492 0.9980158730158729 0.0005952380952380951 0.9988095238095237 0.0005952380952380951 0.001103752759381898 0.001103752759381898 0.9977924944812362 0.0006138735420503375 0.9987722529158992 0.0006138735420503375 0.05555555555555555 0.05555555555555555 0.8888888888888888 0.01388888888888889 0.9722222222222223 0.01388888888888889 0.0009182736455463728 0.0009182736455463728 0.9981634527089073 0.000541125541125541 0.9989177489177488 0.000541125541125541 0.0007230657989877079 0.0007230657989877079 0.9985538684020245 0.0003930817610062892 0.9992138364779872 0.0003930817610062892 0.009803921568627451 0.009803921568627451 0.9803921568627452 0.008547008547008544 0.9829059829059827 0.008547008547008544 0.00205761316872428 0.00205761316872428 0.9958847736625515 0.001186239620403322 0.9976275207591935 0.001186239620403322 0.000749063670411985 0.000749063670411985 0.9985018726591761 0.0003796507213363705 0.9992406985573272 0.0003796507213363705 0.00196078431372549 0.00196078431372549 0.996078431372549 0.001182033096926714 0.9976359338061467 0.001182033096926714 0.001344086021505376 0.001344086021505376 0.9973118279569892 0.0009442870632672334 0.9981114258734657 0.0009442870632672334 0.00140646976090014 0.00140646976090014 0.9971870604781997 0.0007575757575757577 0.9984848484848485 0.0007575757575757577 0.001515151515151515 0.001515151515151515 0.996969696969697 0.0008547008547008548 0.9982905982905984 0.0008547008547008548 0.009523809523809523 0.009523809523809523 0.980952380952381 0.004065040650406504 0.9918699186991871 0.004065040650406504 0.004219409282700422 0.004219409282700422 0.991561181434599 0.002415458937198067 0.9951690821256037 0.002415458937198067 0.003174603174603175 0.003174603174603175 0.9936507936507937 0.002364066193853427 0.995271867612293 0.002364066193853427</probabilities>
		</cpt>
		<cpt id="Duration">
			<state id="State1" />
			<state id="State2" />
			<state id="State3" />
			<parents>Age_ego Householdsize MaritalStatus age_alter</parents>
			<probabilities>0.4695652173913044 0.3060869565217391 0.2243478260869565 0.3942857142857143 0.2742857142857143 0.3314285714285714 0.2035928143712575 0.08982035928143713 0.7065868263473054 0.08974358974358974 0.08974358974358974 0.8205128205128205 0.3333333333333333 0.3333333333333333 0.3333333333333333 0.3333333333333333 0.3333333333333333 0.3333333333333333 0.3333333333333333 0.3333333333333333 0.3333333333333333 0.3333333333333333 0.3333333333333333 0.3333333333333333 0.3333333333333333 0.3333333333333333 0.3333333333333333 0.3333333333333333 0.3333333333333333 0.3333333333333333 0.3333333333333333 0.3333333333333333 0.3333333333333333 0.3333333333333333 0.3333333333333333 0.3333333333333333 0.3333333333333333 0.3333333333333333 0.3333333333333333 0.3333333333333333 0.3333333333333333 0.3333333333333333 0.3333333333333333 0.3333333333333333 0.3333333333333333 0.3333333333333333 0.3333333333333333 0.3333333333333333 0.3333333333333333 0.3333333333333333 0.3333333333333333 0.3333333333333333 0.3333333333333333 0.3333333333333333 0.3333333333333333 0.3333333333333333 0.3333333333333333 0.3333333333333333 0.3333333333333333 0.3333333333333333 0.4281217208814271 0.2738719832109129 0.29800629590766 0.4605678233438485 0.2807570977917981 0.2586750788643533 0.2212121212121212 0.2424242424242424 0.5363636363636364 0.1779141104294479 0.1533742331288344 0.6687116564417178 0.28125 0.34375 0.375 0.3636363636363636 0.2727272727272727 0.3636363636363636 0.2105263157894737 0.05263157894736842 0.7368421052631579 0.3333333333333333 0.08333333333333333 0.5833333333333334 0.2 0.3714285714285714 0.4285714285714285 0.05555555555555555 0.05555555555555555 0.8888888888888888 0.08333333333333333 0.08333333333333333 0.8333333333333334 0.0303030303030303 0.0303030303030303 0.9393939393939394 0.3333333333333333 0.3333333333333333 0.3333333333333333 0.3333333333333333 0.3333333333333333 0.3333333333333333 0.3333333333333333 0.3333333333333333 0.3333333333333333 0.3333333333333333 0.3333333333333333 0.3333333333333333 0.4095238095238096 0.2333333333333334 0.3571428571428572 0.3125 0.21875 0.46875 0.06779661016949153 0.1694915254237288 0.7627118644067796 0.01587301587301587 0.06349206349206349 0.9206349206349205 0.4039580908032596 0.3178114086146682 0.2782305005820722 0.3426573426573427 0.4125874125874126 0.2447552447552448 0.2142857142857143 0.2226890756302521 0.5630252100840336 0.07692307692307693 0.2307692307692308 0.6923076923076924 0.4881170018281535 0.2888482632541133 0.2230347349177331 0.4957264957264958 0.1367521367521368 0.3675213675213675 0.2265625 0.1328125 0.640625 0.06329113924050633 0.0759493670886076 0.8607594936708861 0.3687150837988827 0.3072625698324022 0.3240223463687151 0.2460567823343849 0.3028391167192429 0.4511041009463722 0.2349397590361446 0.2349397590361446 0.5301204819277109 0.176 0.08799999999999999 0.736 0.3333333333333333 0.3333333333333333 0.3333333333333333 0.3333333333333333 0.3333333333333333 0.3333333333333333 0.3333333333333333 0.3333333333333333 0.3333333333333333 0.3333333333333333 0.3333333333333333 0.3333333333333333 0.3333333333333333 0.3333333333333333 0.3333333333333333 0.3333333333333333 0.3333333333333333 0.3333333333333333 0.3333333333333333 0.3333333333333333 0.3333333333333333 0.3333333333333333 0.3333333333333333 0.3333333333333333 0.3333333333333333 0.3333333333333333 0.3333333333333333 0.3333333333333333 0.3333333333333333 0.3333333333333333 0.3333333333333333 0.3333333333333333 0.3333333333333333 0.3333333333333333 0.3333333333333333 0.3333333333333333 0.3333333333333333 0.3333333333333333 0.3333333333333333 0.3333333333333333 0.3333333333333333 0.3333333333333333 0.3333333333333333 0.3333333333333333 0.3333333333333333 0.3333333333333333 0.3333333333333333 0.3333333333333333 0.3231441048034934 0.4017467248908297 0.2751091703056768 0.2372448979591837 0.3724489795918367 0.3903061224489796 0.2071713147410358 0.3346613545816733 0.4581673306772908 0.07647058823529412 0.1588235294117647 0.7647058823529411 0.2884615384615385 0.4038461538461539 0.3076923076923077 0.3953488372093023 0.3255813953488372 0.2790697674418605 0.3913043478260869 0.2173913043478261 0.3913043478260869 0.1111111111111111 0.02777777777777778 0.8611111111111112 0.5 0.25 0.25 0.4117647058823529 0.1764705882352941 0.4117647058823529 0.1111111111111111 0.1111111111111111 0.7777777777777777 0.06666666666666667 0.06666666666666667 0.8666666666666667 0.3333333333333333 0.3333333333333333 0.3333333333333333 0.3333333333333333 0.3333333333333333 0.3333333333333333 0.3333333333333333 0.3333333333333333 0.3333333333333333 0.3333333333333333 0.3333333333333333 0.3333333333333333 0.03703703703703703 0.03703703703703703 0.9259259259259259 0.05555555555555555 0.05555555555555555 0.8888888888888888 0.3333333333333333 0.3333333333333333 0.3333333333333333 0.04166666666666666 0.04166666666666666 0.9166666666666666 0.3747323340471092 0.4282655246252677 0.1970021413276231 0.2329700272479564 0.337874659400545 0.4291553133514986 0.2459677419354839 0.3548387096774194 0.3991935483870968 0.06666666666666667 0.241025641025641 0.6923076923076923 0.37117903930131 0.3318777292576419 0.296943231441048 0.247787610619469 0.334070796460177 0.418141592920354 0.1155555555555556 0.3066666666666666 0.5777777777777777 0.0625 0.09722222222222221 0.8402777777777777 0.4027777777777777 0.2847222222222222 0.3125 0.2575757575757576 0.297979797979798 0.4444444444444445 0.2307692307692308 0.1618037135278514 0.6074270557029178 0.1453488372093023 0.1918604651162791 0.6627906976744186 0.3333333333333333 0.3333333333333333 0.3333333333333333 0.3333333333333333 0.3333333333333333 0.3333333333333333 0.3333333333333333 0.3333333333333333 0.3333333333333333 0.3333333333333333 0.3333333333333333 0.3333333333333333 0.3333333333333333 0.3333333333333333 0.3333333333333333 0.3333333333333333 0.3333333333333333 0.3333333333333333 0.3333333333333333 0.3333333333333333 0.3333333333333333 0.3333333333333333 0.3333333333333333 0.3333333333333333 0.3333333333333333 0.3333333333333333 0.3333333333333333 0.3333333333333333 0.3333333333333333 0.3333333333333333 0.3333333333333333 0.3333333333333333 0.3333333333333333 0.3333333333333333 0.3333333333333333 0.3333333333333333 0.3333333333333333 0.3333333333333333 0.3333333333333333 0.3333333333333333 0.3333333333333333 0.3333333333333333 0.05555555555555555 0.2222222222222222 0.7222222222222221 0.1666666666666667 0.1666666666666667 0.6666666666666666 0.3115577889447236 0.3366834170854272 0.3517587939698493 0.2560975609756098 0.3219512195121951 0.4219512195121951 0.1192771084337349 0.2024096385542169 0.6783132530120483 0.075 0.175 0.75 0.5416666666666666 0.04166666666666666 0.4166666666666667 0.1666666666666667 0.6666666666666667 0.1666666666666667 0.3333333333333333 0.3333333333333333 0.3333333333333333 0.04761904761904762 0.4761904761904762 0.4761904761904762 0.2068965517241379 0.1896551724137931 0.603448275862069 0.1518987341772152 0.2278481012658228 0.620253164556962 0.07772020725388601 0.1917098445595855 0.7305699481865285 0.03846153846153846 0.1634615384615385 0.7980769230769231 0.06666666666666667 0.06666666666666667 0.8666666666666667 0.1111111111111111 0.1111111111111111 0.7777777777777778 0.2666666666666667 0.06666666666666667 0.6666666666666667 0.08333333333333333 0.3333333333333333 0.5833333333333334 0.08333333333333333 0.5833333333333334 0.3333333333333333 0.3333333333333333 0.5833333333333334 0.08333333333333333 0.7777777777777777 0.1111111111111111 0.1111111111111111 0.08333333333333333 0.3333333333333333 0.5833333333333334 0.3103448275862069 0.3793103448275862 0.3103448275862069 0.2903225806451613 0.3870967741935484 0.3225806451612903 0.08333333333333333 0.1944444444444444 0.7222222222222222 0.15 0.05 0.8 0.2133891213389121 0.2384937238493724 0.5481171548117154 0.174757281553398 0.3592233009708737 0.4660194174757281 0.08071748878923767 0.195067264573991 0.7242152466367713 0.03571428571428571 0.1011904761904762 0.863095238095238 0.2166666666666667 0.4333333333333333 0.35 0.2075471698113207 0.1509433962264151 0.6415094339622641 0.1910112359550562 0.247191011235955 0.5617977528089888 0.1 0.225 0.675 0.3333333333333333 0.3333333333333333 0.3333333333333333 0.3333333333333333 0.3333333333333333 0.3333333333333333 0.3333333333333333 0.3333333333333333 0.3333333333333333 0.3333333333333333 0.3333333333333333 0.3333333333333333 0.3333333333333333 0.3333333333333333 0.3333333333333333 0.3333333333333333 0.3333333333333333 0.3333333333333333 0.3333333333333333 0.3333333333333333 0.3333333333333333 0.3333333333333333 0.3333333333333333 0.3333333333333333 0.3333333333333333 0.3333333333333333 0.3333333333333333 0.3333333333333333 0.3333333333333333 0.3333333333333333 0.3333333333333333 0.3333333333333333 0.3333333333333333 0.3333333333333333 0.3333333333333333 0.3333333333333333 0.3333333333333333 0.3333333333333333 0.3333333333333333 0.3333333333333333 0.3333333333333333 0.3333333333333333 0.3333333333333333 0.3333333333333333 0.3333333333333333 0.3333333333333333 0.3333333333333333 0.3333333333333333 0.2383177570093458 0.3317757009345794 0.4299065420560748 0.15 0.28 0.5700000000000001 0.1672597864768683 0.2135231316725978 0.6192170818505338 0.1092077087794433 0.2419700214132763 0.6488222698072805 0.1111111111111111 0.4444444444444444 0.4444444444444444 0.06666666666666667 0.06666666666666667 0.8666666666666667 0.2 0.2 0.6000000000000001 0.04761904761904762 0.3333333333333333 0.619047619047619 0.2916666666666666 0.4166666666666666 0.2916666666666666 0.2142857142857143 0.1428571428571428 0.6428571428571428 0.119047619047619 0.09523809523809523 0.7857142857142857 0.1896551724137931 0.08620689655172414 0.7241379310344828 0.3333333333333333 0.3333333333333333 0.3333333333333333 0.3333333333333333 0.3333333333333333 0.3333333333333333 0.3333333333333333 0.3333333333333333 0.3333333333333333 0.3333333333333333 0.3333333333333333 0.3333333333333333 0.1111111111111111 0.4444444444444444 0.4444444444444444 0.1111111111111111 0.7777777777777777 0.1111111111111111 0.05555555555555556 0.888888888888889 0.05555555555555556 0.1666666666666667 0.1666666666666667 0.6666666666666666 0.3333333333333333 0.3333333333333333 0.3333333333333333 0.3333333333333333 0.3333333333333333 0.3333333333333333 0.3333333333333333 0.3333333333333333 0.3333333333333333 0.3333333333333333 0.3333333333333333 0.3333333333333333 0.25 0.375 0.375 0.04166666666666666 0.1666666666666667 0.7916666666666666 0.1875 0.125 0.6875 0.07407407407407407 0.2592592592592592 0.6666666666666666</probabilities>
		</cpt>
		<cpt id="Distance">
			<state id="State1" />
			<state id="State2" />
			<state id="State3" />
			<state id="State4" />
			<state id="State5" />
			<parents>Age_ego Householdsize Paidwork education_alter</parents>
			<probabilities>0.2209302325581395 0.2441860465116279 0.1279069767441861 0.2441860465116279 0.1627906976744186 0.1879699248120301 0.2857142857142857 0.06766917293233082 0.3909774436090225 0.06766917293233082 0.3937007874015748 0.2834645669291339 0.09448818897637795 0.1889763779527559 0.03937007874015748 0.233502538071066 0.3401015228426396 0.2893401015228426 0.1218274111675127 0.01522842639593909 0.335195530726257 0.2849162011173185 0.2122905027932961 0.09497206703910614 0.07262569832402235 0.1062271062271062 0.3516483516483516 0.3003663003663004 0.1355311355311355 0.1062271062271062 0.3272727272727273 0.3363636363636364 0.1727272727272727 0.1545454545454545 0.00909090909090909 0.1046511627906977 0.186046511627907 0.3023255813953488 0.3604651162790697 0.04651162790697674 0.271356783919598 0.3115577889447236 0.1959798994974875 0.1708542713567839 0.05025125628140704 0.145 0.3625 0.21 0.1975 0.08500000000000001 0.2776572668112798 0.2603036876355748 0.3015184381778742 0.1540130151843818 0.006507592190889372 0.1344 0.304 0.296 0.2208 0.0448 0.3812709030100334 0.2173913043478261 0.1872909698996655 0.1939799331103679 0.02006688963210702 0.1984924623115578 0.278894472361809 0.2261306532663317 0.221105527638191 0.07537688442211056 0.3547854785478548 0.268976897689769 0.1963696369636964 0.1633663366336634 0.0165016501650165 0.221183800623053 0.3489096573208723 0.2928348909657321 0.1246105919003115 0.01246105919003115 0.3231292517006802 0.3639455782312925 0.2210884353741497 0.07482993197278912 0.01700680272108843 0.2428256070640177 0.4105960264900662 0.1898454746136865 0.1434878587196468 0.01324503311258278 0.3389830508474576 0.2457627118644068 0.1864406779661017 0.1355932203389831 0.09322033898305085 0.125 0.3333333333333333 0.3472222222222222 0.1527777777777778 0.04166666666666666 0.1863354037267081 0.3726708074534161 0.2298136645962733 0.1614906832298137 0.04968944099378882 0.2293577981651376 0.4128440366972477 0.2568807339449541 0.09174311926605505 0.009174311926605505 0.3765432098765432 0.2345679012345679 0.2716049382716049 0.09876543209876543 0.01851851851851852 0.1818181818181818 0.3939393939393939 0.296969696969697 0.08484848484848485 0.04242424242424243 0.2481203007518797 0.4210526315789473 0.1428571428571428 0.1729323308270677 0.01503759398496241 0.1818181818181818 0.393939393939394 0.2121212121212121 0.1717171717171717 0.04040404040404041 0.3376623376623377 0.3506493506493507 0.2012987012987013 0.07792207792207792 0.03246753246753247 0.1363636363636364 0.2355371900826446 0.359504132231405 0.2396694214876033 0.02892561983471074 0.3344051446945338 0.3376205787781351 0.2315112540192926 0.07395498392282958 0.022508038585209 0.2148148148148148 0.2333333333333333 0.3074074074074074 0.1925925925925926 0.05185185185185186 0.296875 0.34765625 0.09375 0.2109375 0.05078125 0.2893081761006289 0.3836477987421384 0.1635220125786164 0.1509433962264151 0.01257861635220126 0.3976435935198822 0.3313696612665685 0.1620029455081002 0.1030927835051546 0.005891016200294551 0.2934973637961336 0.3057996485061511 0.2601054481546573 0.124780316344464 0.01581722319859402 0.4415094339622642 0.2415094339622642 0.1981132075471698 0.09622641509433963 0.02264150943396227 0.2034548944337812 0.3224568138195777 0.2975047984644913 0.1324376199616123 0.04414587332053743 0.359504132231405 0.3181818181818182 0.1735537190082645 0.09917355371900827 0.04958677685950413 0.2905982905982906 0.2991452991452992 0.1623931623931624 0.1282051282051282 0.1196581196581197 0.3741935483870968 0.2645161290322581 0.07096774193548387 0.2387096774193548 0.05161290322580645 0.19 0.32 0.22 0.24 0.03 0.2126436781609195 0.4022988505747127 0.2183908045977012 0.1551724137931035 0.01149425287356322 0.1553398058252427 0.3300970873786407 0.2621359223300971 0.2330097087378641 0.01941747572815534 0.3323308270676692 0.2992481203007519 0.168421052631579 0.1879699248120301 0.01203007518796993 0.2169491525423729 0.3220338983050847 0.2542372881355932 0.1864406779661017 0.02033898305084746 0.2725563909774436 0.2706766917293233 0.2650375939849624 0.1710526315789473 0.02067669172932331 0.1486810551558753 0.2517985611510791 0.342925659472422 0.2134292565947242 0.04316546762589928 0.2273781902552204 0.3619489559164733 0.222737819025522 0.122969837587007 0.06496519721577726 0.2094861660079051 0.2766798418972332 0.2608695652173913 0.1462450592885375 0.1067193675889328 0.4117647058823529 0.2823529411764706 0.1411764705882353 0.1588235294117647 0.005882352941176471 0.4586206896551723 0.2258620689655172 0.1396551724137931 0.1741379310344827 0.001724137931034483 0.4248704663212435 0.2694300518134715 0.1398963730569948 0.1450777202072539 0.02072538860103627 0.1977401129943503 0.3220338983050847 0.2711864406779661 0.1807909604519774 0.02824858757062147 0.325925925925926 0.2777777777777778 0.2444444444444445 0.1444444444444445 0.007407407407407408 0.1970802919708029 0.2408759124087591 0.2299270072992701 0.2627737226277372 0.06934306569343066 0.423963133640553 0.2258064516129032 0.1935483870967742 0.1244239631336406 0.03225806451612903 0.2115384615384616 0.1826923076923077 0.3557692307692308 0.1826923076923077 0.06730769230769232 0.6000000000000001 0.1 0.1 0.1 0.1 0.2 0.2 0.2 0.2 0.2 0.2 0.2 0.2 0.2 0.2 0.2 0.2 0.2 0.2 0.2 0.2963446475195822 0.2415143603133159 0.2362924281984334 0.2023498694516971 0.02349869451697128 0.1989795918367347 0.298469387755102 0.211734693877551 0.2244897959183673 0.06632653061224489 0.2389380530973451 0.3716814159292036 0.1946902654867257 0.1504424778761062 0.04424778761061947 0.1818181818181818 0.3409090909090909 0.1590909090909091 0.1818181818181818 0.1363636363636364 0.525 0.15 0.15 0.15 0.025 0.5200000000000001 0.4200000000000001 0.02 0.02 0.02 0.2439024390243902 0.1951219512195122 0.2439024390243902 0.2682926829268293 0.04878048780487805 0.7076923076923078 0.09230769230769233 0.01538461538461539 0.1692307692307693 0.01538461538461539 0.2 0.2 0.3666666666666667 0.2 0.03333333333333333 0.15 0.15 0.275 0.025 0.4 0.2 0.2 0.2 0.2 0.2 0.05 0.05 0.05 0.05 0.8</probabilities>
		</cpt>
		<cpt id="Socialcategory">
			<state id="State1" />
			<state id="State2" />
			<state id="State3" />
			<state id="State4" />
			<state id="State5" />
			<state id="State6" />
			<state id="State7" />
			<state id="State8" />
			<parents>Age_ego Duration Distance age_alter</parents>
			<probabilities>0.3388888888888889 0.08333333333333334 0.4222222222222222 0.01111111111111111 0.002777777777777778 0.01666666666666667 0.1027777777777778 0.02222222222222222 0.1031021897810219 0.0666058394160584 0.7454379562043796 0.008211678832116789 0.05930656934306569 0.008211678832116789 0.0009124087591240876 0.008211678832116789 0.06009615384615385 0.1370192307692308 0.6177884615384616 0.06009615384615385 0.1177884615384616 0.002403846153846154 0.002403846153846154 0.002403846153846154 0.007352941176470588 0.007352941176470588 0.6544117647058824 0.2426470588235294 0.007352941176470588 0.007352941176470588 0.007352941176470588 0.06617647058823529 0.5505836575875487 0.3171206225680934 0.02723735408560311 0.02334630350194553 0.003891050583657588 0.05447470817120623 0.01361867704280156 0.009727626459143969 0.2633495145631068 0.5643203883495145 0.001213592233009709 0.02063106796116505 0.07888349514563106 0.04004854368932038 0.001213592233009709 0.03033980582524272 0.1840909090909091 0.275 0.02045454545454545 0.02045454545454545 0.4568181818181818 0.002272727272727273 0.02045454545454545 0.02045454545454545 0.140625 0.140625 0.265625 0.390625 0.015625 0.015625 0.015625 0.015625 0.4137453874538745 0.4801660516605166 0.007841328413284132 0.007841328413284132 0.007841328413284132 0.06688191881918819 0.0004612546125461254 0.01522140221402214 0.0625 0.7993421052631579 0.009868421052631578 0.03618421052631579 0.03618421052631579 0.04495614035087719 0.001096491228070175 0.009868421052631578 0.06991525423728813 0.4766949152542373 0.03601694915254237 0.06991525423728813 0.3241525423728814 0.01906779661016949 0.00211864406779661 0.00211864406779661 0.125 0.01388888888888889 0.01388888888888889 0.7916666666666666 0.01388888888888889 0.01388888888888889 0.01388888888888889 0.01388888888888889 0.4326923076923077 0.3125 0.02403846153846154 0.009615384615384616 0.004807692307692308 0.1538461538461539 0.004807692307692308 0.0576923076923077 0.1975806451612903 0.5524193548387096 0.004032258064516129 0.004032258064516129 0.1008064516129032 0.03629032258064516 0.004032258064516129 0.1008064516129032 0.04166666666666666 0.2638888888888889 0.004629629629629629 0.004629629629629629 0.6712962962962963 0.004629629629629629 0.004629629629629629 0.004629629629629629 0.00625 0.05625 0.00625 0.65625 0.25625 0.00625 0.00625 0.00625 0.5377906976744186 0.1424418604651163 0.002906976744186046 0.002906976744186046 0.02616279069767442 0.1424418604651163 0.002906976744186046 0.1424418604651163 0.425 0.225 0.025 0.025 0.225 0.025 0.025 0.025 0.01785714285714286 0.01785714285714286 0.01785714285714286 0.01785714285714286 0.7321428571428571 0.01785714285714286 0.01785714285714286 0.1607142857142857 0.0625 0.0625 0.0625 0.5625 0.0625 0.0625 0.0625 0.0625 0.5081300813008131 0.04065040650406505 0.2357723577235773 0.02032520325203252 0.008130081300813009 0.05691056910569106 0.08536585365853659 0.04471544715447155 0.1356707317073171 0.05030487804878049 0.6966463414634146 0.05030487804878049 0.03810975609756097 0.01371951219512195 0.001524390243902439 0.01371951219512195 0.04086538461538462 0.002403846153846154 0.7524038461538461 0.002403846153846154 0.1370192307692308 0.06009615384615385 0.002403846153846154 0.002403846153846154 0.005434782608695652 0.005434782608695652 0.7445652173913043 0.09239130434782608 0.1358695652173913 0.005434782608695652 0.005434782608695652 0.005434782608695652 0.6279761904761905 0.09523809523809523 0.0625 0.03869047619047619 0.02678571428571428 0.08928571428571427 0.005952380952380952 0.05357142857142857 0.2839673913043478 0.3165760869565217 0.05570652173913043 0.1861413043478261 0.07744565217391304 0.04483695652173913 0.001358695652173913 0.03396739130434782 0.03601694915254237 0.2563559322033898 0.05296610169491525 0.05296610169491525 0.510593220338983 0.03601694915254237 0.00211864406779661 0.05296610169491525 0.005952380952380952 0.1011904761904762 0.1011904761904762 0.4821428571428571 0.244047619047619 0.005952380952380952 0.005952380952380952 0.05357142857142857 0.5340314136125655 0.1570680628272251 0.05235602094240838 0.05235602094240838 0.02617801047120419 0.09947643979057592 0.01047120418848168 0.06806282722513089 0.2449324324324325 0.3530405405405406 0.0152027027027027 0.1233108108108108 0.06925675675675676 0.1773648648648649 0.001689189189189189 0.0152027027027027 0.028125 0.103125 0.078125 0.153125 0.5281250000000001 0.103125 0.003125 0.003125 0.008333333333333333 0.008333333333333333 0.075 0.4083333333333333 0.4083333333333333 0.008333333333333333 0.008333333333333333 0.075 0.5160984848484849 0.0615530303030303 0.008522727272727272 0.01609848484848485 0.008522727272727272 0.2206439393939394 0.000946969696969697 0.1676136363636364 0.2708333333333333 0.07083333333333333 0.004166666666666667 0.0375 0.0375 0.4375 0.004166666666666667 0.1375 0.005208333333333333 0.1302083333333333 0.005208333333333333 0.005208333333333333 0.7135416666666666 0.046875 0.005208333333333333 0.08854166666666666 0.01136363636363636 0.01136363636363636 0.01136363636363636 0.4659090909090909 0.2840909090909091 0.01136363636363636 0.1022727272727273 0.1022727272727273 0.6611842105263157 0.05592105263157894 0.003289473684210526 0.003289473684210526 0.003289473684210526 0.1611842105263158 0.003289473684210526 0.1085526315789474 0.390625 0.140625 0.015625 0.015625 0.015625 0.265625 0.015625 0.140625 0.02083333333333333 0.02083333333333333 0.02083333333333333 0.02083333333333333 0.5208333333333333 0.02083333333333333 0.02083333333333333 0.3541666666666666 0.125 0.125 0.125 0.125 0.125 0.125 0.125 0.125 0.3466666666666667 0.006666666666666667 0.02666666666666667 0.006666666666666667 0.006666666666666667 0.44 0.02 0.1466666666666667 0.04427083333333333 0.04427083333333333 0.1067708333333333 0.0234375 0.5442708333333333 0.06510416666666666 0.002604166666666667 0.1692708333333333 0.0009057971014492754 0.008152173913043478 0.0588768115942029 0.02264492753623188 0.776268115942029 0.008152173913043478 0.0009057971014492754 0.1240942028985507 0.002192982456140351 0.002192982456140351 0.125 0.6688596491228069 0.1074561403508772 0.002192982456140351 0.002192982456140351 0.08991228070175439 0.349468085106383 0.0005319148936170213 0.02606382978723404 0.009042553191489363 0.004787234042553191 0.2686170212765958 0.009042553191489363 0.3324468085106383 0.06487341772151899 0.01424050632911392 0.001582278481012658 0.05221518987341772 0.1914556962025316 0.2294303797468354 0.001582278481012658 0.4446202531645569 0.0008802816901408451 0.02904929577464789 0.0008802816901408451 0.02904929577464789 0.5008802816901409 0.007922535211267605 0.0008802816901408451 0.4304577464788732 0.001237623762376238 0.001237623762376238 0.01113861386138614 0.5556930693069307 0.1497524752475247 0.02103960396039604 0.001237623762376238 0.2586633663366337 0.2641213389121339 0.0005230125523012552 0.01725941422594142 0.008891213389121338 0.01307531380753138 0.2934100418410042 0.008891213389121338 0.3938284518828452 0.02992957746478873 0.01584507042253521 0.01584507042253521 0.01584507042253521 0.02992957746478873 0.2411971830985916 0.00176056338028169 0.6496478873239436 0.0009328358208955224 0.0009328358208955224 0.01585820895522388 0.02332089552238806 0.4561567164179104 0.03824626865671642 0.008395522388059701 0.4561567164179104 0.001262626262626263 0.001262626262626263 0.001262626262626263 0.5164141414141414 0.1830808080808081 0.01136363636363636 0.001262626262626263 0.2840909090909091 0.1551932367149758 0.0006038647342995169 0.01509661835748792 0.0006038647342995169 0.005434782608695652 0.2856280193236715 0.005434782608695652 0.5320048309178743 0.001865671641791045 0.001865671641791045 0.001865671641791045 0.03171641791044776 0.07649253731343283 0.3152985074626866 0.001865671641791045 0.5690298507462687 0.000925925925925926 0.000925925925925926 0.000925925925925926 0.01574074074074074 0.3712962962962963 0.008333333333333333 0.000925925925925926 0.600925925925926 0.001644736842105263 0.001644736842105263 0.001644736842105263 0.6595394736842105 0.06743421052631579 0.01480263157894737 0.001644736842105263 0.2516447368421053 0.2066326530612245 0.002551020408163265 0.002551020408163265 0.002551020408163265 0.002551020408163265 0.4107142857142857 0.002551020408163265 0.3698979591836735 0.007352941176470588 0.007352941176470588 0.007352941176470588 0.007352941176470588 0.1838235294117647 0.3014705882352941 0.007352941176470588 0.4779411764705882 0.004310344827586207 0.004310344827586207 0.004310344827586207 0.004310344827586207 0.3491379310344828 0.004310344827586207 0.004310344827586207 0.625 0.005 0.045 0.005 0.765 0.165 0.005 0.005 0.005 0.1666666666666667 0.1770833333333333 0.4947916666666666 0.005208333333333333 0.005208333333333333 0.02604166666666666 0.1145833333333333 0.01041666666666667 0.2125 0.2536764705882353 0.5301470588235294 0.0007352941176470588 0.0007352941176470588 0.0007352941176470588 0.0007352941176470588 0.0007352941176470588 0.0625 0.2576219512195122 0.6478658536585367 0.001524390243902439 0.01371951219512195 0.01371951219512195 0.001524390243902439 0.001524390243902439 0.06071428571428571 0.1464285714285714 0.6607142857142857 0.03214285714285714 0.08928571428571429 0.003571428571428571 0.003571428571428571 0.003571428571428571 0.3316115702479339 0.4638429752066116 0.009297520661157025 0.009297520661157025 0.001033057851239669 0.05888429752066116 0.05888429752066116 0.06714876033057851 0.3825757575757576 0.5098484848484849 0.03712121212121212 0.03106060606060606 0.006818181818181818 0.01893939393939394 0.0007575757575757576 0.01287878787878788 0.1295454545454545 0.7477272727272727 0.05681818181818182 0.02045454545454545 0.03863636363636364 0.002272727272727273 0.002272727272727273 0.002272727272727273 0.2403846153846154 0.3173076923076923 0.1634615384615385 0.08653846153846154 0.1634615384615385 0.009615384615384616 0.009615384615384616 0.009615384615384616 0.1722560975609756 0.7576219512195123 0.001524390243902439 0.01371951219512195 0.001524390243902439 0.02591463414634147 0.01371951219512195 0.01371951219512195 0.3344907407407407 0.630787037037037 0.01041666666666667 0.01041666666666667 0.001157407407407407 0.01041666666666667 0.001157407407407407 0.001157407407407407 0.149390243902439 0.7347560975609756 0.0274390243902439 0.003048780487804878 0.0274390243902439 0.0274390243902439 0.0274390243902439 0.003048780487804878 0.1125 0.3125 0.0125 0.2125 0.2125 0.0125 0.0125 0.1125 0.3392857142857142 0.005952380952380952 0.005952380952380952 0.005952380952380952 0.005952380952380952 0.1488095238095238 0.1011904761904762 0.3869047619047619 0.5919117647058824 0.2683823529411765 0.003676470588235294 0.003676470588235294 0.003676470588235294 0.09191176470588235 0.003676470588235294 0.03308823529411765 0.1634615384615385 0.4711538461538462 0.009615384615384616 0.009615384615384616 0.08653846153846154 0.08653846153846154 0.009615384615384616 0.1634615384615385 0.03125 0.03125 0.03125 0.03125 0.78125 0.03125 0.03125 0.03125 0.5892857142857143 0.01785714285714286 0.01785714285714286 0.01785714285714286 0.01785714285714286 0.01785714285714286 0.01785714285714286 0.3035714285714285 0.5208333333333333 0.02083333333333333 0.02083333333333333 0.02083333333333333 0.02083333333333333 0.1875 0.02083333333333333 0.1875 0.0625 0.0625 0.0625 0.0625 0.0625 0.0625 0.0625 0.5625 0.125 0.125 0.125 0.125 0.125 0.125 0.125 0.125 0.09708737864077668 0.06796116504854369 0.3495145631067961 0.01941747572815534 0.004854368932038835 0.02912621359223301 0.3689320388349514 0.06310679611650485 0.2764778325123153 0.1336206896551724 0.5129310344827587 0.03509852216748768 0.02524630541871921 0.0104679802955665 0.0006157635467980296 0.005541871921182266 0.1542338709677419 0.1381048387096774 0.6300403225806451 0.009072580645161289 0.01713709677419355 0.04939516129032258 0.001008064516129032 0.001008064516129032 0.002777777777777778 0.002777777777777778 0.8250000000000001 0.04722222222222222 0.1138888888888889 0.002777777777777778 0.002777777777777778 0.002777777777777778 0.3669724770642202 0.1467889908256881 0.01834862385321101 0.05504587155963303 0.01834862385321101 0.1192660550458716 0.06422018348623854 0.2110091743119266 0.5372706422018348 0.2069954128440367 0.06479357798165138 0.04644495412844037 0.02809633027522936 0.1106651376146789 0.0005733944954128441 0.005160550458715597 0.3154069767441861 0.3619186046511628 0.03633720930232558 0.1177325581395349 0.1409883720930233 0.02470930232558139 0.001453488372093023 0.001453488372093023 0.21875 0.04017857142857142 0.1473214285714286 0.2544642857142857 0.1830357142857143 0.1116071428571428 0.004464285714285714 0.04017857142857142 0.2916666666666666 0.4166666666666666 0.02777777777777778 0.02777777777777778 0.01388888888888889 0.02777777777777778 0.05555555555555555 0.1388888888888889 0.4444444444444444 0.3395061728395061 0.02469135802469136 0.06790123456790123 0.02469135802469136 0.05555555555555555 0.006172839506172839 0.03703703703703703 0.3231132075471698 0.4174528301886792 0.002358490566037736 0.02122641509433962 0.09669811320754716 0.0589622641509434 0.002358490566037736 0.07783018867924528 0.1420454545454546 0.005681818181818182 0.05113636363636364 0.1420454545454546 0.3693181818181818 0.05113636363636364 0.005681818181818182 0.2329545454545455 0.3608490566037736 0.07783018867924528 0.002358490566037736 0.002358490566037736 0.002358490566037736 0.1155660377358491 0.0589622641509434 0.3797169811320755 0.4623015873015873 0.2083333333333333 0.001984126984126984 0.0496031746031746 0.001984126984126984 0.1607142857142857 0.001984126984126984 0.1130952380952381 0.245 0.205 0.005 0.005 0.165 0.205 0.005 0.165 0.015625 0.140625 0.015625 0.140625 0.515625 0.140625 0.015625 0.015625 0.265625 0.015625 0.015625 0.015625 0.015625 0.015625 0.015625 0.640625 0.8828125 0.0078125 0.0078125 0.0078125 0.0078125 0.0703125 0.0078125 0.0078125 0.375 0.04166666666666666 0.04166666666666666 0.04166666666666666 0.375 0.04166666666666666 0.04166666666666666 0.04166666666666666 0.125 0.125 0.125 0.125 0.125 0.125 0.125 0.125 0.06377551020408163 0.02295918367346939 0.1045918367346939 0.02295918367346939 0.002551020408163265 0.1045918367346939 0.635204081632653 0.04336734693877551 0.3819444444444444 0.07242063492063491 0.2787698412698413 0.008928571428571428 0.01686507936507936 0.2073412698412698 0.000992063492063492 0.03273809523809523 0.2032828282828283 0.05176767676767677 0.4255050505050506 0.02146464646464647 0.2032828282828283 0.05176767676767677 0.001262626262626263 0.04166666666666667 0.01584507042253521 0.01584507042253521 0.2552816901408451 0.1426056338028169 0.551056338028169 0.01584507042253521 0.00176056338028169 0.00176056338028169 0.1041666666666667 0.01041666666666667 0.01041666666666667 0.01041666666666667 0.01041666666666667 0.2916666666666666 0.1770833333333333 0.3854166666666666 0.4946236559139785 0.05734767025089606 0.01433691756272401 0.02150537634408602 0.01792114695340502 0.2616487455197133 0.02150537634408602 0.1111111111111111 0.2444444444444445 0.1037037037037037 0.007407407407407408 0.02222222222222222 0.1555555555555556 0.237037037037037 0.007407407407407408 0.2222222222222222 0.02254098360655738 0.0116120218579235 0.006147540983606557 0.2629781420765027 0.4542349726775956 0.04439890710382514 0.0006830601092896175 0.1974043715846995 0.2100694444444444 0.001736111111111111 0.001736111111111111 0.02951388888888889 0.015625 0.1545138888888889 0.1961805555555556 0.390625 0.4666666666666667 0.05833333333333333 0.0125 0.02083333333333333 0.004166666666666667 0.2583333333333333 0.0125 0.1666666666666667 0.2177835051546392 0.1146907216494845 0.001288659793814433 0.04252577319587629 0.1765463917525773 0.259020618556701 0.001288659793814433 0.1868556701030928 0.03033088235294118 0.0009191176470588235 0.008272058823529412 0.1994485294117647 0.3759191176470588 0.03033088235294118 0.008272058823529412 0.3465073529411765 0.1200657894736842 0.001644736842105263 0.001644736842105263 0.001644736842105263 0.001644736842105263 0.09375 0.1069078947368421 0.6726973684210525 0.3732758620689655 0.06293103448275862 0.0008620689655172414 0.0008620689655172414 0.0008620689655172414 0.2905172413793103 0.007758620689655172 0.2629310344827586 0.03255208333333333 0.06380208333333333 0.001302083333333333 0.01171875 0.1471354166666667 0.2096354166666667 0.03255208333333333 0.5013020833333333 0.02335164835164835 0.01236263736263736 0.01236263736263736 0.08928571428571429 0.429945054945055 0.01236263736263736 0.001373626373626374 0.418956043956044 0.1736111111111111 0.006944444444444444 0.006944444444444444 0.006944444444444444 0.006944444444444444 0.5069444444444444 0.006944444444444444 0.2847222222222222 0.7331081081081081 0.03040540540540541 0.003378378378378379 0.003378378378378379 0.003378378378378379 0.1655405405405405 0.003378378378378379 0.05743243243243244 0.165 0.005 0.005 0.005 0.205 0.445 0.005 0.165 0.04891304347826086 0.005434782608695652 0.04891304347826086 0.1793478260869565 0.5271739130434783 0.005434782608695652 0.005434782608695652 0.1793478260869565 0.1373456790123457 0.1003086419753086 0.6188271604938271 0.00154320987654321 0.00154320987654321 0.00154320987654321 0.125 0.01388888888888889 0.227112676056338 0.1566901408450704 0.6073943661971831 0.00176056338028169 0.00176056338028169 0.00176056338028169 0.00176056338028169 0.00176056338028169 0.2179054054054054 0.08277027027027027 0.6503378378378378 0.001689189189189189 0.0152027027027027 0.001689189189189189 0.001689189189189189 0.02871621621621622 0.2462121212121212 0.03409090909090909 0.6401515151515151 0.06439393939393939 0.003787878787878788 0.003787878787878788 0.003787878787878788 0.003787878787878788 0.1946022727272727 0.4446022727272728 0.001420454545454545 0.03551136363636364 0.001420454545454545 0.001420454545454545 0.3082386363636364 0.01278409090909091 0.4407894736842105 0.5109649122807017 0.002192982456140351 0.002192982456140351 0.002192982456140351 0.002192982456140351 0.002192982456140351 0.03728070175438596 0.5073529411764706 0.4014705882352941 0.01323529411764706 0.03676470588235294 0.001470588235294118 0.025 0.001470588235294118 0.01323529411764706 0.3693181818181818 0.2329545454545455 0.09659090909090909 0.1875 0.005681818181818182 0.05113636363636364 0.005681818181818182 0.05113636363636364 0.285377358490566 0.3985849056603774 0.002358490566037736 0.02122641509433962 0.002358490566037736 0.002358490566037736 0.2287735849056604 0.0589622641509434 0.3113636363636363 0.6022727272727273 0.02045454545454545 0.03863636363636364 0.002272727272727273 0.002272727272727273 0.002272727272727273 0.02045454545454545 0.5208333333333333 0.4282407407407407 0.002314814814814815 0.002314814814814815 0.002314814814814815 0.02083333333333333 0.002314814814814815 0.02083333333333333 0.6477272727272727 0.01136363636363636 0.01136363636363636 0.1022727272727273 0.01136363636363636 0.01136363636363636 0.01136363636363636 0.1931818181818182 0.103125 0.178125 0.003125 0.028125 0.003125 0.028125 0.578125 0.078125 0.4330357142857142 0.5401785714285714 0.004464285714285714 0.004464285714285714 0.004464285714285714 0.004464285714285714 0.004464285714285714 0.004464285714285714 0.5044642857142857 0.3616071428571428 0.004464285714285714 0.004464285714285714 0.004464285714285714 0.04017857142857142 0.004464285714285714 0.07589285714285714 0.515625 0.015625 0.015625 0.015625 0.265625 0.015625 0.015625 0.140625 0.3173076923076923 0.2403846153846154 0.009615384615384616 0.009615384615384616 0.009615384615384616 0.08653846153846154 0.009615384615384616 0.3173076923076923 0.640625 0.140625 0.015625 0.015625 0.015625 0.015625 0.015625 0.140625 0.765625 0.015625 0.015625 0.015625 0.140625 0.015625 0.015625 0.015625 0.0625 0.0625 0.0625 0.5625 0.0625 0.0625 0.0625 0.0625 0.08235294117647059 0.08235294117647059 0.4352941176470588 0.02352941176470588 0.02352941176470588 0.02352941176470588 0.3058823529411765 0.02352941176470588 0.1957964601769911 0.08075221238938053 0.709070796460177 0.001106194690265487 0.001106194690265487 0.00995575221238938 0.001106194690265487 0.001106194690265487 0.2604961832061068 0.1154580152671756 0.5276717557251909 0.02385496183206107 0.03912213740458015 0.03148854961832061 0.0009541984732824427 0.0009541984732824427 0.1426282051282051 0.04006410256410256 0.7451923076923077 0.01442307692307692 0.04006410256410256 0.001602564102564103 0.001602564102564103 0.01442307692307692 0.05650684931506849 0.1523972602739726 0.125 0.0702054794520548 0.01541095890410959 0.001712328767123288 0.4674657534246575 0.1113013698630137 0.3333333333333333 0.4375 0.05208333333333333 0.05208333333333333 0.05208333333333333 0.03125 0.02083333333333333 0.02083333333333333 0.3994140625 0.4150390625 0.0478515625 0.0869140625 0.0244140625 0.0166015625 0.0009765625 0.0087890625 0.3911290322580645 0.2620967741935484 0.03629032258064516 0.1653225806451613 0.03629032258064516 0.1008064516129032 0.004032258064516129 0.004032258064516129 0.1228070175438596 0.3333333333333333 0.01754385964912281 0.03508771929824561 0.1052631578947368 0.07017543859649122 0.2982456140350877 0.01754385964912281 0.367063492063492 0.4146825396825397 0.001984126984126984 0.0496031746031746 0.001984126984126984 0.06547619047619047 0.01785714285714286 0.08134920634920634 0.2746212121212122 0.456439393939394 0.01704545454545454 0.0321969696969697 0.04734848484848485 0.0625 0.001893939393939394 0.1079545454545455 0.2847222222222222 0.1736111111111111 0.1180555555555556 0.1180555555555556 0.2291666666666667 0.006944444444444444 0.006944444444444444 0.0625 0.04941860465116279 0.1424418604651163 0.002906976744186046 0.09593023255813954 0.02616279069767442 0.02616279069767442 0.5843023255813954 0.07267441860465117 0.3802083333333333 0.421875 0.005208333333333333 0.005208333333333333 0.046875 0.1302083333333333 0.005208333333333333 0.005208333333333333 0.6704545454545455 0.2462121212121212 0.003787878787878788 0.003787878787878788 0.003787878787878788 0.06439393939393939 0.003787878787878788 0.003787878787878788 0.4802631578947368 0.006578947368421052 0.006578947368421052 0.05921052631578947 0.1118421052631579 0.2171052631578947 0.05921052631578947 0.05921052631578947 0.1770833333333333 0.01041666666666667 0.01041666666666667 0.01041666666666667 0.01041666666666667 0.09375 0.5104166666666666 0.1770833333333333 0.5208333333333333 0.02083333333333333 0.02083333333333333 0.02083333333333333 0.02083333333333333 0.1875 0.02083333333333333 0.1875 0.7916666666666666 0.01388888888888889 0.01388888888888889 0.01388888888888889 0.125 0.01388888888888889 0.01388888888888889 0.01388888888888889 0.4583333333333333 0.125 0.01388888888888889 0.125 0.2361111111111111 0.01388888888888889 0.01388888888888889 0.01388888888888889 0.02893518518518518 0.02893518518518518 0.2048611111111111 0.001157407407407407 0.001157407407407407 0.01041666666666667 0.6215277777777778 0.1030092592592593 0.189873417721519 0.02531645569620253 0.569620253164557 0.0379746835443038 0.01265822784810127 0.0379746835443038 0.1012658227848101 0.02531645569620253 0.3250932835820896 0.04897388059701492 0.4444962686567164 0.02658582089552239 0.01539179104477612 0.1273320895522388 0.0004664179104477612 0.01166044776119403 0.1340909090909091 0.025 0.5583333333333333 0.025 0.1522727272727273 0.06742424242424243 0.0007575757575757576 0.03712121212121212 0.0400390625 0.0478515625 0.0009765625 0.0087890625 0.0634765625 0.0556640625 0.5712890625 0.2119140625 0.251008064516129 0.1542338709677419 0.001008064516129032 0.04939516129032258 0.0252016129032258 0.2268145161290323 0.1622983870967742 0.1300403225806452 0.4525 0.11 0.005 0.0225 0.0225 0.285 0.005 0.0975 0.20703125 0.04453125 0.00078125 0.10703125 0.23203125 0.27578125 0.01328125 0.11953125 0.0625 0.01041666666666667 0.01041666666666667 0.05208333333333333 0.0625 0.04166666666666666 0.3854166666666666 0.375 0.19 0.12 0.02 0.02 0.02 0.33 0.08 0.22 0.3531353135313531 0.06930693069306931 0.009900990099009901 0.006600660066006601 0.0198019801980198 0.3696369636963697 0.006600660066006601 0.165016501650165 0.1616766467065868 0.01796407185628743 0.01796407185628743 0.02994011976047904 0.2035928143712575 0.2335329341317365 0.02395209580838323 0.311377245508982 0.07112068965517242 0.002155172413793103 0.01939655172413793 0.01939655172413793 0.03663793103448276 0.01939655172413793 0.415948275862069 0.415948275862069 0.13671875 0.01171875 0.02213541666666666 0.001302083333333333 0.001302083333333333 0.44921875 0.10546875 0.2721354166666666 0.2856498194945848 0.02211191335740072 0.0004512635379061372 0.01128158844765343 0.0004512635379061372 0.4733754512635379 0.01128158844765343 0.1953971119133574 0.07415254237288135 0.006355932203389831 0.006355932203389831 0.06850282485875706 0.1871468926553672 0.2888418079096045 0.0007062146892655367 0.3679378531073446 0.06617647058823529 0.007352941176470588 0.007352941176470588 0.007352941176470588 0.007352941176470588 0.06617647058823529 0.5955882352941176 0.2426470588235294 0.05113636363636364 0.005681818181818182 0.005681818181818182 0.005681818181818182 0.005681818181818182 0.4602272727272728 0.05113636363636364 0.4147727272727273 0.2472222222222222 0.002777777777777778 0.002777777777777778 0.002777777777777778 0.002777777777777778 0.4916666666666667 0.002777777777777778 0.2472222222222222 0.2298387096774193 0.004032258064516129 0.004032258064516129 0.03629032258064516 0.2620967741935484 0.1653225806451613 0.03629032258064516 0.2620967741935484 0.2041666666666667 0.0375 0.6708333333333333 0.004166666666666667 0.004166666666666667 0.004166666666666667 0.07083333333333333 0.004166666666666667 0.15625 0.10625 0.70625 0.00625 0.00625 0.00625 0.00625 0.00625 0.3041666666666666 0.1708333333333333 0.4708333333333333 0.0375 0.004166666666666667 0.004166666666666667 0.004166666666666667 0.004166666666666667 0.3006756756756757 0.003378378378378379 0.6520270270270271 0.003378378378378379 0.003378378378378379 0.03040540540540541 0.003378378378378379 0.003378378378378379 0.0703125 0.3203125 0.0078125 0.0078125 0.0703125 0.0078125 0.5078125 0.0078125 0.5125000000000001 0.2125 0.1125 0.0125 0.0125 0.0125 0.0125 0.1125 0.6850000000000001 0.205 0.045 0.005 0.005 0.005 0.005 0.045 0.6180555555555555 0.2291666666666667 0.006944444444444444 0.006944444444444444 0.0625 0.0625 0.006944444444444444 0.006944444444444444 0.08653846153846154 0.2403846153846154 0.009615384615384616 0.009615384615384616 0.009615384615384616 0.009615384615384616 0.5480769230769231 0.08653846153846154 0.265625 0.265625 0.015625 0.015625 0.015625 0.015625 0.015625 0.390625 0.4659090909090909 0.375 0.01136363636363636 0.1022727272727273 0.01136363636363636 0.01136363636363636 0.01136363636363636 0.01136363636363636 0.4464285714285714 0.3035714285714285 0.01785714285714286 0.1607142857142857 0.01785714285714286 0.01785714285714286 0.01785714285714286 0.01785714285714286 0.4375 0.008928571428571428 0.008928571428571428 0.008928571428571428 0.008928571428571428 0.008928571428571428 0.5089285714285714 0.008928571428571428 0.6477272727272727 0.01136363636363636 0.01136363636363636 0.01136363636363636 0.01136363636363636 0.01136363636363636 0.01136363636363636 0.2840909090909091 0.4659090909090909 0.1022727272727273 0.01136363636363636 0.01136363636363636 0.01136363636363636 0.1022727272727273 0.01136363636363636 0.2840909090909091 0.5416666666666666 0.075 0.008333333333333333 0.075 0.008333333333333333 0.2083333333333333 0.008333333333333333 0.075 0.225 0.025 0.025 0.025 0.025 0.025 0.625 0.025 0.375 0.04166666666666666 0.04166666666666666 0.04166666666666666 0.04166666666666666 0.04166666666666666 0.04166666666666666 0.375 0.125 0.125 0.125 0.125 0.125 0.125 0.125 0.125 0.78125 0.03125 0.03125 0.03125 0.03125 0.03125 0.03125 0.03125 0.004464285714285714 0.04017857142857142 0.6116071428571428 0.004464285714285714 0.004464285714285714 0.004464285714285714 0.2901785714285714 0.04017857142857142 0.1696428571428571 0.02678571428571428 0.7886904761904762 0.002976190476190476 0.002976190476190476 0.002976190476190476 0.002976190476190476 0.002976190476190476 0.151595744680851 0.1090425531914894 0.726063829787234 0.002659574468085106 0.002659574468085106 0.002659574468085106 0.002659574468085106 0.002659574468085106 0.2552816901408451 0.1285211267605634 0.6073943661971831 0.00176056338028169 0.00176056338028169 0.00176056338028169 0.00176056338028169 0.00176056338028169 0.02884615384615384 0.003205128205128205 0.003205128205128205 0.08012820512820512 0.003205128205128205 0.003205128205128205 0.7211538461538461 0.157051282051282 0.5625 0.1180555555555556 0.006944444444444444 0.1736111111111111 0.0625 0.006944444444444444 0.006944444444444444 0.0625 0.5056818181818182 0.2329545454545455 0.005681818181818182 0.1420454545454546 0.05113636363636364 0.05113636363636364 0.005681818181818182 0.005681818181818182 0.2615740740740741 0.4467592592592592 0.002314814814814815 0.1319444444444444 0.03935185185185185 0.0949074074074074 0.002314814814814815 0.02083333333333333 0.04166666666666666 0.07870370370370369 0.004629629629629629 0.004629629629629629 0.004629629629629629 0.04166666666666666 0.7824074074074073 0.04166666666666666 0.265625 0.515625 0.015625 0.015625 0.015625 0.015625 0.015625 0.140625 0.3967391304347826 0.266304347826087 0.09239130434782608 0.1358695652173913 0.005434782608695652 0.005434782608695652 0.04891304347826086 0.04891304347826086 0.5703125 0.1328125 0.0078125 0.0078125 0.0078125 0.1953125 0.0078125 0.0703125 0.005681818181818182 0.005681818181818182 0.005681818181818182 0.005681818181818182 0.005681818181818182 0.005681818181818182 0.8693181818181819 0.09659090909090909 0.3035714285714285 0.3035714285714285 0.01785714285714286 0.01785714285714286 0.01785714285714286 0.01785714285714286 0.1607142857142857 0.1607142857142857 0.5208333333333333 0.02083333333333333 0.02083333333333333 0.02083333333333333 0.3541666666666666 0.02083333333333333 0.02083333333333333 0.02083333333333333 0.6517857142857143 0.08035714285714285 0.008928571428571428 0.008928571428571428 0.008928571428571428 0.08035714285714285 0.008928571428571428 0.1517857142857143 0.125 0.125 0.125 0.125 0.125 0.125 0.125 0.125 0.125 0.125 0.125 0.125 0.125 0.125 0.125 0.125 0.125 0.125 0.125 0.125 0.125 0.125 0.125 0.125 0.78125 0.03125 0.03125 0.03125 0.03125 0.03125 0.03125 0.03125 0.1736111111111111 0.006944444444444444 0.5069444444444444 0.006944444444444444 0.006944444444444444 0.006944444444444444 0.1736111111111111 0.1180555555555556 0.0625 0.003676470588235294 0.4154411764705882 0.003676470588235294 0.003676470588235294 0.0625 0.3566176470588235 0.09191176470588235 0.2986111111111111 0.05787037037037036 0.4652777777777777 0.002314814814814815 0.002314814814814815 0.07638888888888888 0.03935185185185185 0.05787037037037036 0.2921511627906977 0.09447674418604651 0.4200581395348837 0.03633720930232558 0.02470930232558139 0.1177325581395349 0.001453488372093023 0.01308139534883721 0.003571428571428571 0.003571428571428571 0.003571428571428571 0.06071428571428571 0.06071428571428571 0.003571428571428571 0.8035714285714285 0.06071428571428571 0.04829545454545454 0.002840909090909091 0.002840909090909091 0.02556818181818182 0.04829545454545454 0.04829545454545454 0.6619318181818182 0.1619318181818182 0.28125 0.171875 0.046875 0.0625 0.03125 0.296875 0.03125 0.078125 0.4629629629629629 0.1111111111111111 0.01851851851851852 0.06481481481481481 0.01851851851851852 0.2037037037037037 0.02777777777777778 0.09259259259259259 0.003378378378378379 0.003378378378378379 0.003378378378378379 0.003378378378378379 0.003378378378378379 0.05743243243243244 0.8412162162162162 0.08445945945945946 0.06009615384615385 0.07932692307692309 0.002403846153846154 0.04086538461538462 0.04086538461538462 0.04086538461538462 0.4447115384615385 0.2908653846153846 0.2702702702702703 0.06756756756756757 0.01351351351351351 0.02702702702702703 0.04054054054054054 0.4594594594594595 0.08108108108108109 0.04054054054054054 0.2879098360655738 0.06659836065573771 0.01741803278688525 0.05020491803278689 0.01741803278688525 0.4846311475409836 0.001024590163934426 0.07479508196721311 0.004310344827586207 0.004310344827586207 0.004310344827586207 0.004310344827586207 0.004310344827586207 0.004310344827586207 0.5560344827586207 0.418103448275862 0.002840909090909091 0.002840909090909091 0.002840909090909091 0.02556818181818182 0.002840909090909091 0.2073863636363636 0.4801136363636364 0.2755681818181818 0.126953125 0.001953125 0.001953125 0.048828125 0.001953125 0.501953125 0.080078125 0.236328125 0.2608173076923077 0.01081730769230769 0.001201923076923077 0.03004807692307692 0.03966346153846154 0.4435096153846154 0.001201923076923077 0.2127403846153846 0.1022727272727273 0.01136363636363636 0.01136363636363636 0.01136363636363636 0.01136363636363636 0.01136363636363636 0.01136363636363636 0.8295454545454546 0.01785714285714286 0.01785714285714286 0.01785714285714286 0.01785714285714286 0.01785714285714286 0.1607142857142857 0.4464285714285714 0.3035714285714285 0.1736111111111111 0.006944444444444444 0.006944444444444444 0.006944444444444444 0.006944444444444444 0.3402777777777777 0.0625 0.3958333333333333 0.0946969696969697 0.003787878787878788 0.003787878787878788 0.003787878787878788 0.06439393939393939 0.5189393939393939 0.003787878787878788 0.3068181818181818</probabilities>
		</cpt>
		<cpt id="Visit">
			<state id="never" />
			<state id="very_high" />
			<state id="high" />
			<state id="low" />
			<state id="very_low" />
			<parents>Gender_diff Distance Socialcategory gender_alter</parents>
