<?xml version="1.0" encoding="UTF-8"?>
<!-- This network was created in GeNIe Academic, which can be used for academic teaching and research purposes only -->
<smile version="1.0" id="model2" numsamples="10000" discsamples="10000">
	<nodes>
		<cpt id="Gender_ego">
			<state id="State1" />
			<state id="State2" />
			<probabilities>0.4732046517204172 0.5267953482795827</probabilities>
		</cpt>
		<cpt id="Age_ego">
			<state id="State1" />
			<state id="State2" />
			<state id="State3" />
			<state id="State4" />
			<probabilities>0.333772928905407 0.282340246972785 0.2807217360028774 0.1031650881189306</probabilities>
		</cpt>
		<cpt id="Householdsize">
			<state id="State1" />
			<state id="State2" />
			<state id="State3" />
			<probabilities>0.1795348279582784 0.4204531830715741 0.4000119889701474</probabilities>
		</cpt>
		<cpt id="MaritalStatus">
			<state id="State1" />
			<state id="State2" />
			<state id="State3" />
			<state id="State4" />
			<probabilities>0.1806737801222875 0.3840666586740199 0.209087639371778 0.2261719218319146</probabilities>
		</cpt>
		<cpt id="Education_ego">
			<state id="State1" />
			<state id="State2" />
			<probabilities>0.5721136554369979 0.427886344563002</probabilities>
		</cpt>
		<cpt id="Income">
			<state id="State1" />
			<state id="State2" />
			<state id="State3" />
			<state id="State4" />
			<state id="State5" />
			<probabilities>0.1397314470686968 0.1897254525836231 0.2466730607840786 0.2804220117491907 0.1434480278144107</probabilities>
		</cpt>
		<cpt id="age_alter">
			<state id="State1" />
			<state id="State2" />
			<state id="State3" />
			<state id="State4" />
			<parents>Age_ego MaritalStatus</parents>
			<probabilities>0.577889447236181 0.1758793969849246 0.1678391959798995 0.07839195979899498 0.5580614203454894 0.1674664107485604 0.1866602687140115 0.08781190019193857 0.5693290734824281 0.189776357827476 0.1642172523961661 0.07667731629392971 0.6298701298701299 0.132034632034632 0.1417748917748918 0.09632034632034632 0.2274459974587039 0.4027954256670903 0.2109275730622618 0.1588310038119441 0.2231638418079096 0.3738229755178907 0.236346516007533 0.1666666666666667 0.2927241962774958 0.4382402707275804 0.1528482797518331 0.1161872532430908 0.2178308823529412 0.4310661764705882 0.2150735294117647 0.1360294117647059 0.1626373626373626 0.2197802197802198 0.4241758241758242 0.1934065934065934 0.1919578745811393 0.1977022498803255 0.3982766874102441 0.2120631881282911 0.2706766917293233 0.2406015037593985 0.2932330827067669 0.1954887218045113 0.2288845905867183 0.183752417794971 0.4119922630560928 0.1753707285622179 0.1863354037267081 0.1645962732919254 0.2763975155279503 0.3726708074534161 0.1843003412969283 0.1723549488054608 0.2440273037542662 0.3993174061433447 0.1176470588235294 0.2352941176470588 0.2941176470588235 0.3529411764705882 0.1523809523809524 0.1666666666666667 0.2761904761904762 0.4047619047619048</probabilities>
		</cpt>
		<cpt id="Age_diff">
			<state id="State_3" />
			<state id="State_2" />
			<state id="State_1" />
			<state id="State0" />
			<state id="State1" />
			<state id="State2" />
			<state id="State3" />
			<parents>Age_ego age_alter</parents>
			<probabilities>4.447607187333213e-05 4.447607187333213e-05 4.447607187333213e-05 0.9997331435687598 4.447607187333213e-05 4.447607187333213e-05 4.447607187333213e-05 0.0001513317191283293 0.0001513317191283293 0.9990920096852302 0.0001513317191283293 0.0001513317191283293 0.0001513317191283293 0.0001513317191283293 0.0001511715797430083 0.9990929705215422 0.0001511715797430083 0.0001511715797430083 0.0001511715797430083 0.0001511715797430083 0.0001511715797430083 0.998180163785259 0.0003033060357901121 0.0003033060357901121 0.0003033060357901121 0.0003033060357901121 0.0003033060357901121 0.0003033060357901121 0.0001217878455730118 0.0001217878455730118 0.0001217878455730118 0.0001217878455730118 0.9992692729265619 0.0001217878455730118 0.0001217878455730118 7.284912945290303e-05 7.284912945290303e-05 7.284912945290303e-05 0.9995629052232826 7.284912945290303e-05 7.284912945290303e-05 7.284912945290303e-05 0.0001547748026621266 0.0001547748026621266 0.9990713511840273 0.0001547748026621266 0.0001547748026621266 0.0001547748026621266 0.0001547748026621266 0.0002174385736029572 0.9986953685583826 0.0002174385736029572 0.0002174385736029572 0.0002174385736029572 0.0002174385736029572 0.0002174385736029572 0.0001518141794443601 0.0001518141794443601 0.0001518141794443601 0.0001518141794443601 0.0001518141794443601 0.999089114923334 0.0001518141794443601 0.000153444836581249 0.000153444836581249 0.000153444836581249 0.000153444836581249 0.9990793309805126 0.000153444836581249 0.000153444836581249 7.530687551773477e-05 7.530687551773477e-05 7.530687551773477e-05 0.9995481587468936 7.530687551773477e-05 7.530687551773477e-05 7.530687551773477e-05 0.0001556178026766262 0.0001556178026766262 0.9990662931839404 0.0001556178026766262 0.0001556178026766262 0.0001556178026766262 0.0001556178026766262 0.0004593477262287551 0.0004593477262287551 0.0004593477262287551 0.0004593477262287551 0.0004593477262287551 0.0004593477262287551 0.9972439136426275 0.0004842615012106536 0.0004842615012106536 0.0004842615012106536 0.0004842615012106536 0.0004842615012106536 0.997094430992736 0.0004842615012106536 0.0003254149040026033 0.0003254149040026033 0.0003254149040026033 0.0003254149040026033 0.9980475105759844 0.0003254149040026033 0.0003254149040026033 0.0002100840336134454 0.0002100840336134454 0.0002100840336134454 0.9987394957983194 0.0002100840336134454 0.0002100840336134454 0.0002100840336134454</probabilities>
		</cpt>
		<cpt id="education_alter">
			<state id="State1" />
			<state id="State2" />
			<parents>Age_ego Education_ego</parents>
			<probabilities>0.5522560740455071 0.4477439259544929 0.3122689075630252 0.6877310924369748 0.6579453636013852 0.3420546363986149 0.3761250592136428 0.6238749407863572 0.6989212160836875 0.3010787839163125 0.4273399014778325 0.5726600985221675 0.7447795823665894 0.2552204176334107 0.4369158878504673 0.5630841121495327</probabilities>
		</cpt>
		<cpt id="Edu_diff">
			<state id="State_1" />
			<state id="State0" />
			<state id="State1" />
			<parents>Education_ego education_alter</parents>
			<probabilities>5.33845825325646e-05 0.999893230834935 5.33845825325646e-05 0.9997981021603067 0.0001009489198465576 0.0001009489198465576 0.000127959053103007 0.000127959053103007 0.999744081893794 7.350238882763691e-05 0.9998529952223448 7.350238882763691e-05</probabilities>
		</cpt>
		<cpt id="gender_alter">
			<state id="State1" />
			<state id="State2" />
			<parents>Gender_ego</parents>
			<probabilities>0.5496579680770206 0.4503420319229795 0.3627674101046882 0.6372325898953118</probabilities>
		</cpt>
		<cpt id="Gender_diff">
			<state id="State_1" />
			<state id="State0" />
			<state id="State1" />
			<parents>Gender_ego gender_alter</parents>
			<probabilities>7.680491551459295e-05 0.999846390168971 7.680491551459295e-05 0.9998125234345706 9.373828271466066e-05 9.373828271466066e-05 0.0001045259747047141 0.0001045259747047141 0.9997909480505905 5.951318216985063e-05 0.9998809736356605 5.951318216985063e-05</probabilities>
		</cpt>
		<cpt id="Duration">
			<state id="State1" />
			<state id="State2" />
			<state id="State3" />
			<parents>Age_ego age_alter</parents>
			<probabilities>0.4341326689504827 0.2930551230146372 0.2728122080348801 0.408271474019088 0.2979851537645812 0.2937433722163309 0.2065677966101695 0.1864406779661017 0.6069915254237288 0.1085106382978723 0.1404255319148936 0.7510638297872341 0.3575085324232082 0.3805460750853242 0.2619453924914676 0.2438775510204082 0.3357142857142857 0.4204081632653062 0.2039045553145336 0.3101952277657267 0.4859002169197397 0.08841463414634147 0.1509146341463415 0.7606707317073171 0.2872340425531915 0.2840425531914894 0.4287234042553191 0.2301075268817204 0.3204301075268817 0.4494623655913978 0.1286919831223629 0.1909282700421941 0.680379746835443 0.07742639040348964 0.163576881134133 0.7589967284623773 0.2354838709677419 0.3612903225806451 0.4032258064516129 0.1598639455782313 0.2414965986394558 0.5986394557823129 0.1666666666666667 0.2146118721461187 0.6187214611872146 0.1119293078055965 0.2268041237113402 0.6612665684830633</probabilities>
		</cpt>
		<cpt id="Distance">
			<state id="State1" />
			<state id="State2" />
			<state id="State3" />
			<state id="State4" />
			<state id="State5" />
			<parents>Householdsize education_alter</parents>
			<probabilities>0.3298397040690506 0.2909987669543773 0.1831072749691739 0.1448828606658446 0.05117139334155364 0.1857246904588492 0.3313911143481428 0.258557902403496 0.1675163874726875 0.05680990531682448 0.2908294693456981 0.2990726429675425 0.2246264811952602 0.1602266872746007 0.02524471921689851 0.1692209450830141 0.2924648786717752 0.2745849297573436 0.2081736909323116 0.05555555555555556 0.3754113072090937 0.2874663475919833 0.1818725695483099 0.1376009572240502 0.01764881842656297 0.2408408408408408 0.3228228228228228 0.2468468468468468 0.1570570570570571 0.03243243243243243</probabilities>
		</cpt>
		<cpt id="Socialcategory">
			<state id="State1" />
			<state id="State2" />
			<state id="State3" />
			<state id="State4" />
			<state id="State5" />
			<state id="State6" />
			<state id="State7" />
			<state id="State8" />
			<parents>Duration Distance</parents>
			<probabilities>0.208955223880597 0.1300639658848614 0.5628997867803838 0.01208244491826581 0.01492537313432836 0.009950248756218905 0.05046197583511016 0.01066098081023454 0.4186567164179105 0.4067164179104478 0.02537313432835821 0.02686567164179104 0.03134328358208955 0.03432835820895522 0.0373134328358209 0.01940298507462686 0.2910112359550562 0.5617977528089888 0.008988764044943821 0.0303370786516854 0.03146067415730337 0.03258426966292135 0.02359550561797753 0.0202247191011236 0.3734939759036144 0.2791164658634538 0.01004016064257028 0.03413654618473895 0.06626506024096385 0.09236947791164658 0.06626506024096385 0.07831325301204818 0.5110294117647058 0.1090686274509804 0.001225490196078431 0.02083333333333333 0.07965686274509803 0.07965686274509803 0.03063725490196078 0.1678921568627451 0.2168905950095969 0.07805502239283429 0.5329494561740243 0.01983365323096609 0.02431222008957134 0.02495201535508637 0.0838131797824696 0.01919385796545105 0.4037222619899785 0.2261989978525412 0.05368647100930565 0.08446671438797422 0.06442376521116679 0.06585540443808161 0.05225483178239083 0.0493915533285612 0.3441340782122905 0.2893854748603352 0.03128491620111731 0.0670391061452514 0.07597765363128491 0.07486033519553072 0.05251396648044692 0.06480446927374302 0.3734939759036144 0.1265060240963855 0.002008032128514056 0.03413654618473895 0.07228915662650602 0.1526104417670683 0.1004016064257028 0.1385542168674699 0.588302752293578 0.03784403669724771 0.001146788990825688 0.01032110091743119 0.06536697247706422 0.1020642201834862 0.05619266055045872 0.1387614678899083 0.1946614583333333 0.03450520833333333 0.31640625 0.04817708333333333 0.1516927083333333 0.1119791666666667 0.08203125 0.060546875 0.2570560138949197 0.05948762483716891 0.00911854103343465 0.0742509769865393 0.1202778983933999 0.2001736864958749 0.08033000434216241 0.1993052540165002 0.2138984721537703 0.03942828979793002 0.01133563331690488 0.0586495810744209 0.1030064070970922 0.2365697387875801 0.06505667816658453 0.2720551996057171 0.1413673232908459 0.01448435689455388 0.004634994206257242 0.04982618771726535 0.08864426419466975 0.2694090382387022 0.05330243337195829 0.3783314020857474 0.1841432225063939 0.005115089514066497 0.002557544757033248 0.06138107416879796 0.1125319693094629 0.2890025575447571 0.04092071611253197 0.3043478260869565</probabilities>
		</cpt>
		<cpt id="Visit">
			<state id="never" />
			<state id="very_high" />
			<state id="high" />
			<state id="low" />
			<state id="very_low" />
			<parents>Distance Socialcategory</parents>
			<probabilities>0.1062231759656652 0.1309012875536481 0.2939914163090129 0.2746781115879828 0.194206008583691 0.4245810055865922 0.05865921787709497 0.1536312849162011 0.1508379888268156 0.2122905027932961 0.2913311226906679 0.01894836570345808 0.1051634296541923 0.1695878730459498 0.4149692089057319 0.1065573770491803 0.1065573770491803 0.4672131147540984 0.1967213114754098 0.1229508196721312 0.1301369863013699 0.2808219178082192 0.3698630136986301 0.1780821917808219 0.0410958904109589 0.1377777777777778 0.1733333333333333 0.1911111111111111 0.2977777777777778 0.2 0.3323170731707317 0.3902439024390244 0.1737804878048781 0.0701219512195122 0.03353658536585366 0.1521739130434783 0.02173913043478261 0.1594202898550725 0.3333333333333333 0.3333333333333333 0.1525917297612114 0.009318578916715201 0.1683168316831683 0.3517763541059988 0.3179965055329063 0.4589178356713426 0.02104208416833667 0.07915831663326653 0.1062124248496994 0.3346693386773547 0.07692307692307693 0.04615384615384616 0.3461538461538461 0.2923076923076923 0.2384615384615385 0.03692307692307692 0.01846153846153846 0.2892307692307692 0.4646153846153846 0.1907692307692308 0.02200488997555012 0.03667481662591687 0.5207823960880196 0.3447432762836186 0.07579462102689487 0.06033333333333334 0.0003333333333333334 0.1936666666666667 0.3686666666666667 0.377 0.07792207792207792 0.03571428571428572 0.4318181818181818 0.3214285714285715 0.1331168831168831 0.1606498194945848 0.001805054151624549 0.06137184115523466 0.1732851985559567 0.6028880866425993 0.1738261738261738 0.01198801198801199 0.08791208791208791 0.2707292707292707 0.4555444555444556 0.5196662693682955 0.005959475566150178 0.02145411203814064 0.07508939213349225 0.3778307508939213 0.0847457627118644 0.03389830508474576 0.1525423728813559 0.5254237288135594 0.2033898305084746 0.02912621359223301 0.0145631067961165 0.1359223300970874 0.4271844660194175 0.3932038834951456 0.02950819672131148 0.006557377049180328 0.2163934426229508 0.521311475409836 0.2262295081967213 0.09375 0.003472222222222222 0.05208333333333333 0.2864583333333333 0.564236111111111 0.08 0.005 0.23 0.36 0.325 0.2165341812400636 0.0003179650238473768 0.01462639109697933 0.09411764705882354 0.6744038155802862 0.189935064935065 0.01136363636363636 0.05194805194805195 0.1607142857142857 0.586038961038961 0.6456140350877194 0.0008771929824561407 0.02719298245614036 0.05789473684210528 0.2684210526315791 0.1466666666666667 0.08 0.01333333333333333 0.6799999999999999 0.08 0.06776859504132231 0.001652892561983471 0.08429752066115702 0.3983471074380165 0.4479338842975207 0.04573991031390134 0.0008968609865470852 0.08161434977578474 0.6421524663677129 0.2295964125560538 0.06496598639455782 0.0003401360544217687 0.02755102040816326 0.1636054421768708 0.7435374149659864 0.1545454545454545 0.001136363636363637 0.05795454545454545 0.4102272727272728 0.3761363636363637 0.2706036745406824 0.0002624671916010499 0.002887139107611549 0.03832020997375328 0.6879265091863518 0.2872340425531915 0.01063829787234043 0.03191489361702127 0.06914893617021277 0.601063829787234 0.3444444444444444 0.01111111111111111 0.06666666666666667 0.06666666666666667 0.5111111111111111 0.1 0.1 0.1 0.1 0.6 0.03703703703703703 0.03703703703703703 0.03703703703703703 0.1111111111111111 0.7777777777777777 0.1694915254237288 0.01694915254237288 0.01694915254237288 0.1016949152542373 0.6949152542372882 0.1293233082706767 0.009022556390977442 0.001503759398496241 0.06165413533834586 0.7984962406015037 0.08461538461538462 0.04615384615384616 0.04615384615384616 0.007692307692307693 0.8153846153846154 0.2315789473684211 0.00131578947368421 0.007894736842105262 0.01447368421052632 0.7447368421052631</probabilities>
		</cpt>
		<cpt id="Hosting">
			<state id="never" />
			<state id="very_high" />
			<state id="high" />
			<state id="low" />
			<state id="very_low" />
			<parents>Distance Socialcategory</parents>
			<probabilities>0.2263948497854077 0.1137339055793991 0.2274678111587983 0.2317596566523605 0.2006437768240343 0.4776536312849162 0.06145251396648045 0.1843575418994413 0.1284916201117318 0.1480446927374302 0.4059687351965893 0.02084320227380388 0.083846518237802 0.1335859782093795 0.3557555660824254 0.278688524590164 0.08196721311475411 0.2377049180327869 0.2622950819672131 0.139344262295082 0.2945205479452054 0.1815068493150685 0.2191780821917808 0.1917808219178082 0.113013698630137 0.2533333333333334 0.1333333333333333 0.1688888888888889 0.2488888888888889 0.1955555555555556 0.3810975609756098 0.3658536585365854 0.1798780487804878 0.05182926829268293 0.02134146341463415 0.2826086956521739 0.01449275362318841 0.1521739130434783 0.3043478260869565 0.2463768115942029 0.2655794991263832 0.008736167734420501 0.128130460104834 0.2772277227722773 0.3203261502620851 0.5511022044088176 0.01903807615230461 0.05811623246492986 0.07715430861723446 0.2945891783567134 0.2076923076923077 0.06923076923076923 0.3153846153846154 0.2230769230769231 0.1846153846153846 0.1846153846153846 0.04 0.2584615384615385 0.2923076923076923 0.2246153846153846 0.1540342298288508 0.019559902200489 0.2591687041564792 0.3447432762836186 0.2224938875305623 0.1502504173622705 0.008347245409015025 0.1502504173622705 0.2821368948247078 0.4090150250417363 0.1038961038961039 0.03896103896103896 0.4577922077922078 0.2922077922077922 0.1071428571428572 0.3429602888086642 0.003610108303249098 0.01805054151624549 0.1407942238267148 0.4945848375451264 0.3176823176823177 0.00999000999000999 0.05894105894105894 0.1948051948051948 0.4185814185814186 0.5792610250297974 0.004767580452920143 0.02383790226460071 0.05601907032181168 0.33611442193087 0.1355932203389831 0.06779661016949153 0.2542372881355932 0.3559322033898305 0.1864406779661017 0.2135922330097087 0.009708737864077669 0.1699029126213592 0.2572815533980582 0.3495145631067961 0.1901639344262295 0.003278688524590164 0.1147540983606557 0.3049180327868852 0.3868852459016394 0.1909722222222222 0.001736111111111111 0.04340277777777778 0.2100694444444444 0.5538194444444444 0.105 0.01 0.195 0.345 0.345 0.4248012718600954 0.0003179650238473768 0.01621621621621622 0.04801271860095389 0.5106518282988871 0.2613636363636364 0.00974025974025974 0.03571428571428572 0.1185064935064935 0.5746753246753247 0.682819383259912 0.004405286343612335 0.02643171806167401 0.03964757709251102 0.2466960352422908 0.48 0.01333333333333333 0.08 0.2133333333333333 0.2133333333333333 0.4479338842975206 0.001652892561983471 0.04297520661157024 0.1173553719008264 0.3900826446280991 0.1623318385650224 0.0008968609865470852 0.02780269058295964 0.3013452914798206 0.5076233183856502 0.1993197278911565 0.0003401360544217687 0.02074829931972789 0.1193877551020408 0.660204081632653 0.1772727272727273 0.001136363636363637 0.06363636363636363 0.3420454545454546 0.415909090909091 0.4700787401574803 0.0002624671916010499 0.004199475065616798 0.01863517060367454 0.5068241469816273 0.398936170212766 0.005319148936170213 0.02659574468085106 0.04787234042553191 0.5212765957446809 0.4 0.01111111111111111 0.01111111111111111 0.01111111111111111 0.5666666666666665 0.1 0.1 0.1 0.1 0.6 0.4357142857142858 0.007142857142857144 0.007142857142857144 0.04285714285714286 0.5071428571428572 0.2542372881355932 0.03389830508474576 0.03389830508474576 0.03389830508474576 0.6440677966101694 0.2646616541353384 0.01654135338345865 0.001503759398496241 0.02406015037593985 0.6932330827067669 0.2769230769230769 0.007692307692307693 0.1230769230769231 0.08461538461538462 0.5076923076923077 0.5802631578947368 0.00131578947368421 0.00131578947368421 0.01447368421052632 0.4026315789473684</probabilities>
		</cpt>
		<cpt id="Dining">
			<state id="never" />
			<state id="very_high" />
			<state id="high" />
			<state id="low" />
			<state id="very_low" />
			<parents>Age_diff Socialcategory</parents>
			<probabilities>0.06666666666666667 0.06666666666666667 0.06666666666666667 0.06666666666666667 0.7333333333333334 0.6999999999999998 0.03333333333333333 0.03333333333333333 0.03333333333333333 0.2 0.8142857142857141 0.004761904761904761 0.05238095238095237 0.07619047619047617 0.05238095238095237 0.6641509433962264 0.003773584905660377 0.02641509433962264 0.01509433962264151 0.290566037735849 0.4253521126760563 0.002816901408450704 0.01690140845070422 0.1014084507042254 0.4535211267605634 0.8399999999999999 0.03999999999999999 0.03999999999999999 0.03999999999999999 0.03999999999999999 0.1 0.1 0.1 0.1 0.6 0.942168674698795 0.002409638554216867 0.002409638554216867 0.0144578313253012 0.03855421686746988 0.5725490196078431 0.00392156862745098 0.00392156862745098 0.1215686274509804 0.2980392156862745 0.603883495145631 0.001941747572815534 0.02135922330097087 0.07961165048543688 0.2932038834951456 0.8044692737430168 0.00558659217877095 0.0223463687150838 0.0335195530726257 0.1340782122905028 0.5874125874125874 0.02097902097902098 0.04895104895104895 0.04195804195804196 0.3006993006993007 0.4575070821529745 0.0056657223796034 0.01274787535410765 0.0509915014164306 0.4730878186968839 0.5948717948717949 0.005128205128205128 0.05641025641025641 0.1846153846153846 0.158974358974359 0.7999999999999998 0.04999999999999999 0.04999999999999999 0.04999999999999999 0.04999999999999999 0.7794736842105264 0.0005263157894736843 0.003157894736842106 0.01368421052631579 0.2031578947368421 0.5190677966101694 0.006355932203389831 0.01271186440677966 0.05932203389830509 0.4025423728813559 0.5975359342915811 0.002053388090349076 0.02464065708418891 0.04517453798767967 0.3305954825462012 0.8592870544090057 0.00375234521575985 0.001876172607879925 0.01125703564727955 0.123827392120075 0.3874015748031496 0.001574803149606299 0.1354330708661417 0.1984251968503937 0.2771653543307087 0.5603448275862069 0.01436781609195402 0.02586206896551724 0.06321839080459771 0.3362068965517241 0.6232189973614777 0.0005277044854881267 0.008443271767810028 0.02691292875989446 0.3408970976253298 0.5142857142857142 0.0857142857142857 0.01428571428571429 0.0857142857142857 0.3 0.7798122065727701 0.0004694835680751175 0.0004694835680751175 0.01220657276995306 0.2070422535211268 0.4876504116529449 0.0117162761241292 0.01836605446485117 0.07948068397720076 0.402786573780874 0.5991701244813278 0.005809128630705394 0.03402489626556016 0.05228215767634855 0.3087136929460581 0.7736900780379041 0.002229654403567447 0.03121516164994426 0.03121516164994426 0.1616499442586399 0.4883720930232558 0.01162790697674419 0.2151162790697674 0.1686046511627907 0.1162790697674419 0.4901960784313725 0.05882352941176471 0.2058823529411765 0.09803921568627451 0.1470588235294118 0.6410256410256411 0.00301659125188537 0.01432880844645551 0.03092006033182504 0.3107088989441931 0.6060606060606061 0.07070707070707072 0.0202020202020202 0.08080808080808081 0.2222222222222222 0.8132147395171538 0.001270648030495553 0.002541296060991106 0.008894536213468869 0.1740787801778907 0.5758564437194128 0.02936378466557912 0.02283849918433932 0.07177814029363785 0.300163132137031 0.612970711297071 0.006276150627615062 0.02092050209205021 0.0397489539748954 0.3200836820083682 0.8119266055045872 0.009174311926605505 0.02064220183486239 0.03211009174311927 0.1261467889908257 0.4210526315789473 0.05263157894736842 0.1929824561403509 0.2456140350877193 0.08771929824561403 0.2928571428571429 0.007142857142857144 0.2928571428571429 0.2928571428571429 0.1142857142857143 0.6303030303030303 0.006060606060606061 0.0303030303030303 0.01515151515151515 0.3181818181818182 0.4131274131274131 0.01158301158301158 0.04633204633204634 0.1698841698841699 0.3590733590733591 0.6809384164222875 0.0005865102639296189 0.01524926686217009 0.006451612903225808 0.2967741935483871 0.7536231884057971 0.007246376811594203 0.02173913043478261 0.04347826086956522 0.1739130434782609 0.6437086092715232 0.001324503311258278 0.01456953642384106 0.03443708609271523 0.3059602649006622 0.7891304347826089 0.001086956521739131 0.01195652173913044 0.03369565217391306 0.1641304347826087 0.375 0.03125 0.15625 0.25 0.1875 0.3225806451612903 0.06451612903225806 0.1290322580645161 0.3225806451612903 0.1612903225806452 0.65 0.05 0.07500000000000001 0.07500000000000001 0.15 0.4645833333333333 0.008333333333333333 0.008333333333333333 0.09791666666666667 0.4208333333333333 0.8740331491712708 0.001104972375690608 0.006629834254143648 0.006629834254143648 0.1116022099447514 0.6000000000000001 0.009090909090909092 0.05454545454545456 0.05454545454545456 0.2818181818181819 0.5538461538461539 0.1692307692307692 0.09230769230769231 0.01538461538461539 0.1692307692307692 0.9191489361702125 0.004255319148936169 0.004255319148936169 0.004255319148936169 0.0680851063829787 0.2 0.03333333333333333 0.2 0.5333333333333333 0.03333333333333333 0.05 0.3 0.3 0.05 0.3 0.5499999999999999 0.04999999999999999 0.2999999999999999 0.04999999999999999 0.04999999999999999 0.4956043956043957 0.001098901098901099 0.001098901098901099 0.04505494505494505 0.4571428571428572 0.73 0.005000000000000001 0.005000000000000001 0.005000000000000001 0.255</probabilities>
		</cpt>
		<cpt id="Bar">
			<state id="never" />
			<state id="very_high" />
			<state id="high" />
			<state id="low" />
			<state id="very_low" />
			<parents>Age_diff Socialcategory</parents>
			<probabilities>0.4 0.06666666666666667 0.06666666666666667 0.06666666666666667 0.4 0.6999999999999998 0.03333333333333333 0.03333333333333333 0.03333333333333333 0.2 0.8619047619047616 0.02857142857142856 0.05238095238095237 0.004761904761904761 0.05238095238095237 0.8679245283018868 0.01132075471698113 0.003773584905660377 0.01132075471698113 0.1056603773584906 0.8197183098591548 0.002816901408450704 0.002816901408450704 0.002816901408450704 0.1718309859154929 0.8399999999999999 0.03999999999999999 0.03999999999999999 0.03999999999999999 0.03999999999999999 0.6000000000000001 0.1 0.1 0.1 0.1 0.9662650602409637 0.002409638554216867 0.002409638554216867 0.002409638554216867 0.02650602409638554 0.6901960784313724 0.003921568627450979 0.02352941176470588 0.04313725490196078 0.2392156862745097 0.7352941176470588 0.0196078431372549 0.0196078431372549 0.04901960784313725 0.1764705882352941 0.8511111111111114 0.001111111111111112 0.01222222222222223 0.03444444444444446 0.1011111111111111 0.7832167832167832 0.01398601398601399 0.04195804195804196 0.01398601398601399 0.1468531468531468 0.8456090651558074 0.00424929178470255 0.0056657223796034 0.0056657223796034 0.1388101983002833 0.8769230769230767 0.005128205128205127 0.03076923076923076 0.03076923076923076 0.0564102564102564 0.7999999999999998 0.04999999999999999 0.04999999999999999 0.04999999999999999 0.04999999999999999 0.8531578947368422 0.0005263157894736843 0.0005263157894736843 0.005789473684210527 0.14 0.7044397463002114 0.0004228329809725159 0.02156448202959831 0.02790697674418605 0.2456659619450317 0.7954918032786885 0.0004098360655737705 0.0209016393442623 0.03319672131147541 0.15 0.8893058161350844 0.005628517823639775 0.005628517823639775 0.009380863039399626 0.0900562851782364 0.6587301587301587 0.04761904761904762 0.05555555555555555 0.07936507936507936 0.1587301587301587 0.8591954022988506 0.005747126436781609 0.01436781609195402 0.01724137931034483 0.103448275862069 0.8817941952506597 0.00316622691292876 0.0005277044854881267 0.0005277044854881267 0.1139841688654354 0.6571428571428574 0.01428571428571429 0.01428571428571429 0.01428571428571429 0.3000000000000001 0.9042253521126762 0.0004694835680751175 0.002816901408450705 0.0004694835680751175 0.09201877934272303 0.6545281823939202 0.01139962001266624 0.02279924002533249 0.07156428119062698 0.2397086763774541 0.7551867219917012 0.004979253112033195 0.02323651452282158 0.05228215767634855 0.1643153526970954 0.8472686733556298 0.005574136008918618 0.02675585284280936 0.01672240802675585 0.1036789297658863 0.7906976744186046 0.02325581395348837 0.1104651162790698 0.04069767441860465 0.03488372093023256 0.803921568627451 0.02941176470588235 0.06862745098039216 0.02941176470588235 0.06862745098039216 0.880844645550528 0.00301659125188537 0.006033182503770739 0.01282051282051282 0.09728506787330317 0.9191919191919192 0.0303030303030303 0.0101010101010101 0.0101010101010101 0.0303030303030303 0.8796954314720811 0.001522842639593908 0.0002538071065989847 0.009137055837563449 0.1093908629441624 0.7683523654159869 0.02936378466557912 0.009787928221859707 0.01957585644371941 0.1729200652528548 0.811715481171548 0.002092050209205021 0.01673640167364017 0.01255230125523012 0.1569037656903766 0.8853211009174312 0.004587155963302753 0.01146788990825688 0.002293577981651376 0.0963302752293578 0.8421052631578947 0.01754385964912281 0.1052631578947368 0.01754385964912281 0.01754385964912281 0.6857142857142858 0.007142857142857144 0.1142857142857143 0.1142857142857143 0.07857142857142858 0.9009063444108762 0.003625377643504532 0.0006042296072507554 0.0006042296072507554 0.09425981873111784 0.8764478764478765 0.003861003861003861 0.003861003861003861 0.007722007722007722 0.1081081081081081 0.8891495601173022 0.0005865102639296189 0.0005865102639296189 0.003519061583577713 0.106158357771261 0.8719424460431655 0.00143884892086331 0.01582733812949641 0.00143884892086331 0.1093525179856115 0.809271523178808 0.001324503311258278 0.007947019867549669 0.01456953642384106 0.1668874172185431 0.8597826086956524 0.001086956521739131 0.006521739130434784 0.006521739130434784 0.1260869565217392 0.6121212121212121 0.006060606060606061 0.09696969696969698 0.09696969696969698 0.1878787878787879 0.7562500000000002 0.006250000000000002 0.06875000000000002 0.06875000000000002 0.1 0.9317073170731704 0.004878048780487803 0.004878048780487803 0.02926829268292682 0.02926829268292682 0.8923076923076924 0.0004158004158004158 0.002494802494802495 0.0004158004158004158 0.1043659043659044 0.9679558011049726 0.001104972375690608 0.001104972375690608 0.001104972375690608 0.02872928176795581 0.9181818181818183 0.009090909090909092 0.009090909090909092 0.009090909090909092 0.05454545454545456 0.8615384615384617 0.01538461538461539 0.01538461538461539 0.01538461538461539 0.09230769230769233 0.9191489361702125 0.004255319148936169 0.004255319148936169 0.004255319148936169 0.0680851063829787 0.8666666666666665 0.03333333333333333 0.03333333333333333 0.03333333333333333 0.03333333333333333 0.7999999999999998 0.04999999999999999 0.04999999999999999 0.04999999999999999 0.04999999999999999 0.7999999999999998 0.04999999999999999 0.04999999999999999 0.04999999999999999 0.04999999999999999 0.7923076923076924 0.001098901098901099 0.001098901098901099 0.001098901098901099 0.2043956043956044 0.9799999999999998 0.004999999999999998 0.004999999999999998 0.004999999999999998 0.004999999999999998</probabilities>
		</cpt>
		<cpt id="Cinema">
			<state id="never" />
			<state id="very_high" />
			<state id="high" />
			<state id="low" />
			<state id="very_low" />
			<parents>Age_diff age_alter</parents>
			<probabilities>0.2 0.2 0.2 0.2 0.2 0.2 0.2 0.2 0.2 0.2 0.2 0.2 0.2 0.2 0.2 0.8531914893617022 0.01276595744680851 0.006382978723404256 0.008510638297872341 0.1191489361702128 0.2 0.2 0.2 0.2 0.2 0.2 0.2 0.2 0.2 0.2 0.788135593220339 0.001059322033898305 0.008474576271186441 0.02436440677966102 0.1779661016949153 0.8323170731707318 0.009146341463414635 0.003048780487804878 0.01524390243902439 0.1402439024390244 0.2 0.2 0.2 0.2 0.2 0.8282078472958644 0.005302226935312832 0.0159066808059385 0.02439024390243903 0.1261930010604454 0.8156182212581345 0.003253796095444686 0.001084598698481562 0.02060737527114968 0.1594360086767896 0.8593238822246456 0.00109051254089422 0.006543075245365322 0.009814612868047983 0.1232279171210469 0.7452507007162879 0.01526004360012457 0.01681719090625973 0.0330115228900654 0.1896605418872626 0.7974489795918368 0.003571428571428572 0.00816326530612245 0.01479591836734694 0.1760204081632653 0.8391350210970463 0.003691983122362869 0.005274261603375527 0.01476793248945148 0.1371308016877637 0.8885294117647057 0.0002941176470588234 0.004705882352941175 0.00764705882352941 0.09882352941176469 0.7935153583617748 0.02303754266211604 0.008532423208191127 0.01621160409556314 0.158703071672355 0.8591397849462366 0.002150537634408602 0.004301075268817204 0.01075268817204301 0.1236559139784946 0.8979498861047837 0.0004555808656036447 0.007289293849658316 0.01640091116173121 0.07790432801822325 0.2 0.2 0.2 0.2 0.2 0.8265957446808511 0.001063829787234043 0.01382978723404255 0.01914893617021277 0.1393617021276596 0.836734693877551 0.003401360544217687 0.003401360544217687 0.0272108843537415 0.1292517006802721 0.2 0.2 0.2 0.2 0.2 0.2 0.2 0.2 0.2 0.2 0.8077170418006432 0.0006430868167202574 0.003858520900321544 0.01672025723472669 0.1710610932475884 0.2 0.2 0.2 0.2 0.2 0.2 0.2 0.2 0.2 0.2 0.2 0.2 0.2 0.2 0.2</probabilities>
		</cpt>
		<cpt id="Recreation">
			<state id="never" />
			<state id="very_high" />
			<state id="high" />
			<state id="low" />
			<state id="very_low" />
			<parents>Age_diff Socialcategory</parents>
			<probabilities>0.06666666666666667 0.06666666666666667 0.06666666666666667 0.4 0.4 0.6999999999999998 0.03333333333333333 0.03333333333333333 0.03333333333333333 0.2 0.8142857142857141 0.05238095238095237 0.05238095238095237 0.004761904761904761 0.07619047619047617 0.8466165413533836 0.0007518796992481205 0.01203007518796993 0.01203007518796993 0.1285714285714286 0.7070422535211266 0.002816901408450704 0.03098591549295774 0.08732394366197181 0.1718309859154929 0.8399999999999999 0.03999999999999999 0.03999999999999999 0.03999999999999999 0.03999999999999999 0.1 0.1 0.1 0.1 0.6 0.9301204819277107 0.002409638554216867 0.002409638554216867 0.0144578313253012 0.05060240963855421 0.6509803921568627 0.003921568627450979 0.1215686274509804 0.1411764705882353 0.08235294117647057 0.7450980392156863 0.009803921568627451 0.0196078431372549 0.07843137254901961 0.1470588235294118 0.8379888268156425 0.00558659217877095 0.0223463687150838 0.0223463687150838 0.111731843575419 0.7762237762237763 0.03496503496503497 0.02097902097902098 0.006993006993006993 0.1608391608391608 0.7393767705382437 0.00424929178470255 0.0113314447592068 0.0424929178470255 0.2025495750708216 0.7999999999999998 0.005128205128205127 0.08205128205128204 0.03076923076923076 0.08205128205128204 0.5499999999999999 0.04999999999999999 0.04999999999999999 0.2999999999999999 0.04999999999999999 0.8400000000000001 0.0005263157894736843 0.0005263157894736843 0.01368421052631579 0.1452631578947369 0.6779661016949152 0.00423728813559322 0.02754237288135593 0.0614406779661017 0.2288135593220339 0.811088295687885 0.004106776180698152 0.01232032854209446 0.03080082135523614 0.1416837782340863 0.8705440900562852 0.001876172607879925 0.0225140712945591 0.02063789868667917 0.08442776735459662 0.5634920634920635 0.01587301587301587 0.126984126984127 0.09523809523809523 0.1984126984126984 0.7844827586206896 0.01149425287356322 0.02873563218390805 0.03448275862068965 0.1408045977011494 0.8448548812664909 0.0005277044854881267 0.005804749340369395 0.005804749340369395 0.1430079155672823 0.5857142857142859 0.01428571428571429 0.01428571428571429 0.08571428571428574 0.3000000000000001 0.8643192488262912 0.0004694835680751175 0.002816901408450705 0.0004694835680751175 0.131924882629108 0.6646611779607347 0.01266624445851805 0.03609879670677644 0.05889803673210893 0.227675744141862 0.7975103734439833 0.009128630705394191 0.02240663900414938 0.03900414937759336 0.1319502074688797 0.8383500557413601 0.01003344481605351 0.03901895206243032 0.02118171683389075 0.09141583054626533 0.7732558139534884 0.03488372093023256 0.06395348837209303 0.08139534883720931 0.04651162790697674 0.6862745098039216 0.06862745098039216 0.107843137254902 0.05882352941176471 0.07843137254901961 0.8144796380090498 0.00301659125188537 0.01131221719457014 0.0248868778280543 0.1463046757164404 0.696969696969697 0.0303030303030303 0.07070707070707072 0.09090909090909091 0.1111111111111111 0.8606598984771572 0.001522842639593908 0.002791878172588832 0.0002538071065989847 0.1347715736040609 0.7324632952691681 0.03099510603588907 0.03588907014681893 0.05546492659053834 0.1451876019575856 0.8389121338912133 0.0104602510460251 0.01464435146443514 0.01255230125523012 0.1234309623430962 0.8807339449541285 0.004587155963302753 0.009174311926605505 0.02522935779816514 0.08027522935779817 0.631578947368421 0.07017543859649122 0.1754385964912281 0.08771929824561403 0.03508771929824561 0.6296296296296295 0.03703703703703703 0.1111111111111111 0.1481481481481481 0.07407407407407407 0.8363636363636363 0.00303030303030303 0.00303030303030303 0.00303030303030303 0.1545454545454545 0.6602316602316602 0.03088803088803089 0.03088803088803089 0.09652509652509653 0.1814671814671815 0.8480938416422288 0.0005865102639296189 0.003519061583577713 0.006451612903225808 0.1413489736070382 0.7536231884057971 0.01449275362318841 0.108695652173913 0.02173913043478261 0.1014492753623188 0.8357615894039736 0.001324503311258278 0.01456953642384106 0.02119205298013245 0.1271523178807947 0.8543478260869567 0.001086956521739131 0.01195652173913044 0.01739130434782609 0.1152173913043479 0.5515151515151515 0.006060606060606061 0.1272727272727273 0.1878787878787879 0.1272727272727273 0.7096774193548387 0.03225806451612903 0.03225806451612903 0.1612903225806452 0.06451612903225806 0.9317073170731704 0.004878048780487803 0.004878048780487803 0.004878048780487803 0.05365853658536584 0.7729166666666667 0.004166666666666667 0.00625 0.04791666666666666 0.16875 0.9624309392265196 0.001104972375690608 0.001104972375690608 0.001104972375690608 0.03425414364640885 0.8727272727272729 0.009090909090909092 0.009090909090909092 0.05454545454545456 0.05454545454545456 0.8615384615384617 0.01538461538461539 0.01538461538461539 0.01538461538461539 0.09230769230769233 0.9191489361702125 0.004255319148936169 0.02553191489361701 0.004255319148936169 0.04680851063829786 0.6999999999999998 0.03333333333333333 0.2 0.03333333333333333 0.03333333333333333 0.5499999999999999 0.04999999999999999 0.04999999999999999 0.2999999999999999 0.04999999999999999 0.7999999999999998 0.04999999999999999 0.04999999999999999 0.04999999999999999 0.04999999999999999 0.7263736263736265 0.001098901098901099 0.01208791208791209 0.02857142857142858 0.2318681318681319 0.8049999999999998 0.004999999999999998 0.004999999999999998 0.004999999999999998 0.1799999999999999</probabilities>
		</cpt>
		<cpt id="Vacation">
			<state id="never" />
			<state id="very_high" />
			<state id="high" />
			<state id="low" />
			<state id="very_low" />
			<parents>Age_diff Socialcategory</parents>
			<probabilities>0.7333333333333333 0.06666666666666665 0.06666666666666665 0.06666666666666665 0.06666666666666665 0.6999999999999998 0.03333333333333333 0.03333333333333333 0.03333333333333333 0.2 0.8619047619047616 0.02857142857142856 0.05238095238095237 0.004761904761904761 0.05238095238095237 0.8528301886792453 0.007547169811320755 0.01132075471698113 0.007547169811320755 0.1207547169811321 0.6788732394366196 0.002816901408450704 0.03098591549295774 0.002816901408450704 0.2845070422535211 0.8399999999999999 0.03999999999999999 0.03999999999999999 0.03999999999999999 0.03999999999999999 0.6000000000000001 0.1 0.1 0.1 0.1 0.978313253012048 0.002409638554216867 0.002409638554216867 0.002409638554216867 0.0144578313253012 0.8078431372549019 0.003921568627450979 0.003921568627450979 0.02352941176470588 0.1607843137254902 0.7786407766990291 0.001941747572815534 0.03106796116504854 0.03106796116504854 0.1572815533980582 0.8566666666666669 0.001111111111111112 0.001111111111111112 0.03444444444444446 0.1066666666666667 0.7552447552447552 0.02797202797202797 0.01398601398601399 0.01398601398601399 0.1888111888111888 0.7011331444759207 0.007082152974504249 0.0028328611898017 0.0028328611898017 0.2861189801699717 0.7743589743589743 0.005128205128205128 0.03076923076923077 0.05641025641025641 0.1333333333333333 0.5499999999999999 0.04999999999999999 0.04999999999999999 0.2999999999999999 0.04999999999999999 0.8557894736842107 0.0005263157894736843 0.0005263157894736843 0.008421052631578949 0.1347368421052632 0.731923890063425 0.0004228329809725159 0.0004228329809725159 0.008879492600422834 0.2583509513742072 0.8405737704918033 0.0004098360655737705 0.006557377049180329 0.025 0.1274590163934426 0.8930581613508443 0.005628517823639775 0.001876172607879925 0.0075046904315197 0.09193245778611632 0.6190476190476191 0.01587301587301587 0.03968253968253968 0.1507936507936508 0.1746031746031746 0.7701149425287356 0.005747126436781609 0.01724137931034483 0.01436781609195402 0.1925287356321839 0.8343007915567283 0.0005277044854881267 0.005804749340369395 0.01108179419525066 0.1482849604221636 0.5857142857142859 0.01428571428571429 0.01428571428571429 0.08571428571428574 0.3000000000000001 0.8924882629107983 0.0004694835680751175 0.002816901408450705 0.0004694835680751175 0.103755868544601 0.7181760607979734 0.009816339455351488 0.006966434452184927 0.005699810006333122 0.259341355288157 0.84149377593361 0.006639004149377593 0.006639004149377593 0.01908713692946058 0.1261410788381743 0.8595317725752508 0.004459308807134894 0.02118171683389075 0.01337792642140468 0.1014492753623188 0.7790697674418604 0.02906976744186046 0.08139534883720931 0.06976744186046512 0.04069767441860465 0.6666666666666666 0.05882352941176471 0.07843137254901961 0.08823529411764705 0.107843137254902 0.82579185520362 0.004524886877828055 0.005279034690799397 0.004524886877828055 0.1598793363499246 0.5858585858585859 0.0202020202020202 0.04040404040404041 0.0303030303030303 0.3232323232323233 0.8831003811944091 0.001270648030495553 0.001270648030495553 0.002541296060991106 0.1118170266836086 0.7771986970684039 0.02964169381107492 0.0003257328990228013 0.001954397394136808 0.1908794788273616 0.8577405857740585 0.004184100418410041 0.006276150627615062 0.01464435146443514 0.1171548117154812 0.8967889908256881 0.006880733944954129 0.009174311926605505 0.004587155963302753 0.08256880733944955 0.7894736842105263 0.07017543859649122 0.05263157894736842 0.07017543859649122 0.01754385964912281 0.5925925925925926 0.07407407407407407 0.03703703703703703 0.1481481481481481 0.1481481481481481 0.8363636363636363 0.00303030303030303 0.01818181818181818 0.006060606060606061 0.1363636363636364 0.5405405405405406 0.01158301158301158 0.02316602316602317 0.01158301158301158 0.4131274131274131 0.8774193548387098 0.0005865102639296189 0.0005865102639296189 0.003519061583577713 0.1178885630498534 0.8359712230215828 0.00143884892086331 0.008633093525179856 0.008633093525179856 0.1453237410071943 0.8423841059602649 0.001324503311258278 0.001324503311258278 0.02119205298013245 0.1337748344370861 0.8380434782608698 0.001086956521739131 0.006521739130434784 0.01195652173913044 0.1423913043478261 0.5515151515151515 0.006060606060606061 0.1272727272727273 0.1272727272727273 0.1878787878787879 0.7562500000000002 0.006250000000000002 0.006250000000000002 0.06875000000000002 0.1625 0.8585365853658534 0.004878048780487803 0.004878048780487803 0.004878048780487803 0.1268292682926829 0.7051975051975052 0.0004158004158004158 0.002494802494802495 0.01288981288981289 0.279002079002079 0.9624309392265196 0.001104972375690608 0.001104972375690608 0.001104972375690608 0.03425414364640885 0.8727272727272729 0.009090909090909092 0.009090909090909092 0.009090909090909092 0.1 0.8615384615384617 0.01538461538461539 0.01538461538461539 0.01538461538461539 0.09230769230769233 0.9191489361702125 0.004255319148936169 0.004255319148936169 0.004255319148936169 0.0680851063829787 0.8666666666666665 0.03333333333333333 0.03333333333333333 0.03333333333333333 0.03333333333333333 0.5499999999999999 0.04999999999999999 0.04999999999999999 0.2999999999999999 0.04999999999999999 0.7999999999999998 0.04999999999999999 0.04999999999999999 0.04999999999999999 0.04999999999999999 0.676923076923077 0.001098901098901099 0.001098901098901099 0.006593406593406593 0.3142857142857143 0.9799999999999998 0.004999999999999998 0.004999999999999998 0.004999999999999998 0.004999999999999998</probabilities>
		</cpt>
		<cpt id="Shopping">
			<state id="never" />
			<state id="very_high" />
			<state id="high" />
			<state id="low" />
			<state id="very_low" />
			<parents>Age_diff Socialcategory</parents>
			<probabilities>0.7333333333333333 0.06666666666666665 0.06666666666666665 0.06666666666666665 0.06666666666666665 0.6999999999999998 0.03333333333333333 0.03333333333333333 0.03333333333333333 0.2 0.8857142857142855 0.02857142857142856 0.02857142857142856 0.004761904761904761 0.05238095238095237 0.8339622641509434 0.01132075471698113 0.007547169811320755 0.02264150943396227 0.1245283018867925 0.7211267605633802 0.002816901408450704 0.01690140845070422 0.0732394366197183 0.1859154929577464 0.8399999999999999 0.03999999999999999 0.03999999999999999 0.03999999999999999 0.03999999999999999 0.6000000000000001 0.1 0.1 0.1 0.1 0.978313253012048 0.002409638554216867 0.002409638554216867 0.002409638554216867 0.0144578313253012 0.8078431372549019 0.003921568627450979 0.04313725490196078 0.06274509803921567 0.08235294117647057 0.7689320388349514 0.001941747572815534 0.04077669902912621 0.04077669902912621 0.1475728155339806 0.8400000000000002 0.001111111111111112 0.03444444444444446 0.01777777777777778 0.1066666666666667 0.7552447552447552 0.02797202797202797 0.04195804195804196 0.02797202797202797 0.1468531468531468 0.708215297450425 0.00424929178470255 0.0198300283286119 0.05382436260623229 0.2138810198300283 0.763157894736842 0.02631578947368421 0.02631578947368421 0.07894736842105263 0.1052631578947368 0.7999999999999998 0.04999999999999999 0.04999999999999999 0.04999999999999999 0.04999999999999999 0.8663157894736843 0.0005263157894736843 0.0005263157894736843 0.003157894736842106 0.1294736842105264 0.721353065539112 0.0004228329809725159 0.02367864693446089 0.0321353065539112 0.2224101479915433 0.8139344262295082 0.0004098360655737705 0.01270491803278689 0.02704918032786885 0.1459016393442623 0.8911819887429644 0.005628517823639775 0.001876172607879925 0.01688555347091933 0.08442776735459662 0.5952380952380952 0.007936507936507936 0.1031746031746032 0.1349206349206349 0.1587301587301587 0.7040229885057471 0.008620689655172414 0.04022988505747126 0.08333333333333333 0.1637931034482759 0.8465608465608465 0.002645502645502645 0.002645502645502645 0.007936507936507936 0.1402116402116402 0.5857142857142859 0.01428571428571429 0.08571428571428574 0.01428571428571429 0.3000000000000001 0.9042253521126762 0.0004694835680751175 0.002816901408450705 0.002816901408450705 0.08967136150234745 0.7115262824572515 0.01139962001266624 0.01804939835338822 0.0525649145028499 0.2064597846738442 0.8282157676348547 0.004979253112033195 0.01410788381742739 0.02821576763485477 0.1244813278008299 0.8394648829431438 0.01449275362318841 0.0189520624303233 0.02452619843924192 0.1025641025641026 0.7790697674418604 0.04069767441860465 0.09302325581395349 0.06395348837209303 0.02325581395348837 0.6666666666666666 0.04901960784313725 0.1176470588235294 0.09803921568627451 0.06862745098039216 0.830316742081448 0.00301659125188537 0.007541478129713424 0.02413273001508296 0.1349924585218703 0.696969696969697 0.0202020202020202 0.101010101010101 0.101010101010101 0.08080808080808081 0.8907242693773825 0.001270648030495553 0.003811944091486658 0.002541296060991106 0.1016518424396442 0.766721044045677 0.02936378466557912 0.01957585644371941 0.03588907014681893 0.1484502446982056 0.8472803347280334 0.002092050209205021 0.006276150627615062 0.02301255230125523 0.1213389121338912 0.8830275229357799 0.006880733944954129 0.009174311926605505 0.01376146788990826 0.0871559633027523 0.7543859649122806 0.07017543859649122 0.1228070175438596 0.03508771929824561 0.01754385964912281 0.6857142857142858 0.007142857142857144 0.07857142857142858 0.1142857142857143 0.1142857142857143 0.8333333333333334 0.00303030303030303 0.01212121212121212 0.01515151515151515 0.1363636363636364 0.5444015444015444 0.01158301158301158 0.08108108108108109 0.138996138996139 0.2239382239382239 0.8891495601173022 0.0005865102639296189 0.003519061583577713 0.0005865102639296189 0.106158357771261 0.8478260869565217 0.007246376811594203 0.02173913043478261 0.03623188405797102 0.08695652173913043 0.842384105960265 0.001324503311258278 0.02119205298013245 0.01456953642384106 0.1205298013245033 0.8326086956521741 0.001086956521739131 0.006521739130434784 0.04456521739130435 0.1152173913043479 0.5 0.0625 0.15625 0.15625 0.125 0.6129032258064516 0.03225806451612903 0.06451612903225806 0.1612903225806452 0.1290322580645161 0.8585365853658534 0.05365853658536584 0.004878048780487803 0.004878048780487803 0.07804878048780485 0.6875 0.002083333333333333 0.02708333333333333 0.08333333333333333 0.2 0.9513812154696134 0.001104972375690608 0.001104972375690608 0.001104972375690608 0.04530386740331493 0.8272727272727274 0.009090909090909092 0.05454545454545456 0.05454545454545456 0.05454545454545456 0.8615384615384617 0.01538461538461539 0.01538461538461539 0.01538461538461539 0.09230769230769233 0.8978723404255317 0.004255319148936169 0.02553191489361701 0.004255319148936169 0.0680851063829787 0.8666666666666665 0.03333333333333333 0.03333333333333333 0.03333333333333333 0.03333333333333333 0.3 0.3 0.3 0.05 0.05 0.5499999999999999 0.04999999999999999 0.2999999999999999 0.04999999999999999 0.04999999999999999 0.7318681318681319 0.001098901098901099 0.006593406593406595 0.03956043956043957 0.220879120879121 0.9799999999999998 0.004999999999999998 0.004999999999999998 0.004999999999999998 0.004999999999999998</probabilities>
		</cpt>
		<cpt id="Paidwork">
			<state id="s1_below_8" />
			<state id="s2_8_36" />
			<state id="s3_36_up" />
			<probabilities>0.3048195659992807 0.349418534947848 0.3457618990528714</probabilities>
		</cpt>
	</nodes>
	<extensions>
		<genie version="1.0" app="GeNIe 5.0.4722.0 ACADEMIC" name="model2">
			<node id="Gender_ego">
				<name>Gender_ego</name>
				<interior color="e5f6f7" />
				<outline color="000080" />
				<font color="000000" name="Arial" size="8" />
				<position>298 86 371 131</position>
			</node>
			<node id="Age_ego">
				<name>Age_ego</name>
				<interior color="e5f6f7" />
				<outline color="000080" />
				<font color="000000" name="Arial" size="8" />
				<position>559 54 616 89</position>
			</node>
			<node id="Householdsize">
				<name>Householdsize</name>
				<interior color="e5f6f7" />
				<outline color="000080" />
				<font color="000000" name="Arial" size="8" />
				<position>421 467 505 519</position>
			</node>
			<node id="MaritalStatus">
				<name>MaritalStatus</name>
				<interior color="e5f6f7" />
				<outline color="000080" />
				<font color="000000" name="Arial" size="8" />
				<position>649 25 724 71</position>
			</node>
			<node id="Education_ego">
				<name>Education_ego</name>
				<interior color="e5f6f7" />
				<outline color="000080" />
				<font color="000000" name="Arial" size="8" />
				<position>305 194 389 246</position>
			</node>
			<node id="Income">
				<name>Income</name>
				<interior color="e5f6f7" />
				<outline color="000080" />
				<font color="000000" name="Arial" size="8" />
				<position>304 317 356 349</position>
			</node>
			<node id="Age_diff">
				<name>Age_diff</name>
				<interior color="e5f6f7" />
				<outline color="000080" />
				<font color="000000" name="Arial" size="8" />
				<position>631 219 685 252</position>
			</node>
			<node id="Edu_diff">
				<name>Edu_diff</name>
				<interior color="e5f6f7" />
				<outline color="000080" />
				<font color="000000" name="Arial" size="8" />
				<position>408 393 462 426</position>
			</node>
			<node id="Gender_diff">
				<name>Gender_diff</name>
				<interior color="e5f6f7" />
				<outline color="000080" />
				<font color="000000" name="Arial" size="8" />
				<position>421 160 490 203</position>
			</node>
			<node id="Duration">
				<name>Duration</name>
				<interior color="e5f6f7" />
				<outline color="000080" />
				<font color="000000" name="Arial" size="8" />
				<position>546 215 602 250</position>
			</node>
			<node id="Distance">
				<name>Distance</name>
				<interior color="e5f6f7" />
				<outline color="000080" />
				<font color="000000" name="Arial" size="8" />
				<position>516 397 573 432</position>
			</node>
			<node id="Socialcategory">
				<name>Socialcategory</name>
				<interior color="e5f6f7" />
				<outline color="000080" />
				<font color="000000" name="Arial" size="8" />
				<position>553 300 637 352</position>
			</node>
			<node id="Visit">
				<name>Visit</name>
				<interior color="e5f6f7" />
				<outline color="000080" />
				<font color="000000" name="Arial" size="8" />
				<position>586 502 627 527</position>
			</node>
			<node id="Hosting">
				<name>Hosting</name>
				<interior color="e5f6f7" />
				<outline color="000080" />
				<font color="000000" name="Arial" size="8" />
				<position>651 469 703 501</position>
			</node>
			<node id="Dining">
				<name>Dining</name>
				<interior color="e5f6f7" />
				<outline color="000080" />
				<font color="000000" name="Arial" size="8" />
				<position>774 221 822 251</position>
			</node>
			<node id="Bar">
				<name>Bar</name>
				<interior color="e5f6f7" />
				<outline color="000080" />
				<font color="000000" name="Arial" size="8" />
				<position>784 298 822 321</position>
			</node>
			<node id="Cinema">
				<name>Cinema</name>
				<interior color="e5f6f7" />
				<outline color="000080" />
				<font color="000000" name="Arial" size="8" />
				<position>762 75 814 107</position>
			</node>
			<node id="Recreation">
				<name>Recreation</name>
				<interior color="e5f6f7" />
				<outline color="000080" />
				<font color="000000" name="Arial" size="8" />
				<position>775 361 841 402</position>
			</node>
			<node id="Vacation">
				<name>Vacation</name>
				<interior color="e5f6f7" />
				<outline color="000080" />
				<font color="000000" name="Arial" size="8" />
				<position>778 434 835 469</position>
			</node>
			<node id="Shopping">
				<name>Shopping</name>
				<interior color="e5f6f7" />
				<outline color="000080" />
				<font color="000000" name="Arial" size="8" />
				<position>665 403 724 439</position>
			</node>
			<node id="Paidwork">
				<name>Paidwork</name>
				<interior color="e5f6f7" />
				<outline color="000080" />
				<font color="000000" name="Arial" size="8" />
				<position>270 415 329 451</position>
			</node>
			<node id="gender_alter">
				<name>gender_alter</name>
				<interior color="e5f6f7" />
				<outline color="000080" />
				<font color="000000" name="Arial" size="8" />
				<position>435 47 508 92</position>
			</node>
			<node id="age_alter">
				<name>age_alter</name>
				<interior color="e5f6f7" />
				<outline color="000080" />
				<font color="000000" name="Arial" size="8" />
				<position>650 115 709 151</position>
			</node>
			<node id="education_alter">
				<name>education_alter</name>
				<interior color="e5f6f7" />
				<outline color="000080" />
				<font color="000000" name="Arial" size="8" />
				<position>453 246 539 299</position>
			</node>
			<textbox>
				<caption>Input file: model2.csv\nData rows: 16682\nElapsed time: 2.668s\n\nLearning algorithm: Bayesian Search\nAlgorithm parameters:\nIterations: 100\nMax parent count: 2\nSample size: 2000\nLink probability: 0.1\nPrior link probability: 0.001\nSeed: 1\nMax search time: 0\nBackground knowledge was provided:\n  forbidden arcs: 341\n\nBest score in iteration 77: -373020\nEM Log Likelihood: -346429</caption>
				<font color="000000" name="Arial" size="8" />
				<position>9 11 194 263</position>
			</textbox>
		</genie>
	</extensions>
</smile>
