<?xml version="1.0" encoding="UTF-8"?>
<!-- This network was created in GeNIe Academic, which can be used for academic teaching and research purposes only -->
<smile version="1.0" id="model2" numsamples="10000" discsamples="10000">
	<nodes>
		<cpt id="Gender_ego">
			<state id="State1" />
			<state id="State2" />
			<probabilities>0.4732046517204172 0.5267953482795827</probabilities>
		</cpt>
		<cpt id="Age_ego">
			<state id="State1" />
			<state id="State2" />
			<state id="State3" />
			<state id="State4" />
			<probabilities>0.333772928905407 0.282340246972785 0.2807217360028774 0.1031650881189306</probabilities>
		</cpt>
		<cpt id="Householdsize">
			<state id="State1" />
			<state id="State2" />
			<state id="State3" />
			<probabilities>0.1795348279582784 0.4204531830715741 0.4000119889701474</probabilities>
		</cpt>
		<cpt id="MaritalStatus">
			<state id="State1" />
			<state id="State2" />
			<state id="State3" />
			<state id="State4" />
			<probabilities>0.1806737801222875 0.3840666586740199 0.209087639371778 0.2261719218319146</probabilities>
		</cpt>
		<cpt id="Education_ego">
			<state id="State1" />
			<state id="State2" />
			<probabilities>0.5721136554369979 0.427886344563002</probabilities>
		</cpt>
		<cpt id="Income">
			<state id="State1" />
			<state id="State2" />
			<state id="State3" />
			<state id="State4" />
			<state id="State5" />
			<probabilities>0.1397314470686968 0.1897254525836231 0.2466730607840786 0.2804220117491907 0.1434480278144107</probabilities>
		</cpt>
		<cpt id="age_alter">
			<state id="State1" />
			<state id="State2" />
			<state id="State3" />
			<state id="State4" />
			<parents>Age_ego MaritalStatus</parents>
			<probabilities>0.577889447236181 0.1758793969849246 0.1678391959798995 0.07839195979899498 0.5580614203454894 0.1674664107485604 0.1866602687140115 0.08781190019193857 0.5693290734824281 0.189776357827476 0.1642172523961661 0.07667731629392971 0.6298701298701299 0.132034632034632 0.1417748917748918 0.09632034632034632 0.2274459974587039 0.4027954256670903 0.2109275730622618 0.1588310038119441 0.2231638418079096 0.3738229755178907 0.236346516007533 0.1666666666666667 0.2927241962774958 0.4382402707275804 0.1528482797518331 0.1161872532430908 0.2178308823529412 0.4310661764705882 0.2150735294117647 0.1360294117647059 0.1626373626373626 0.2197802197802198 0.4241758241758242 0.1934065934065934 0.1919578745811393 0.1977022498803255 0.3982766874102441 0.2120631881282911 0.2706766917293233 0.2406015037593985 0.2932330827067669 0.1954887218045113 0.2288845905867183 0.183752417794971 0.4119922630560928 0.1753707285622179 0.1863354037267081 0.1645962732919254 0.2763975155279503 0.3726708074534161 0.1843003412969283 0.1723549488054608 0.2440273037542662 0.3993174061433447 0.1176470588235294 0.2352941176470588 0.2941176470588235 0.3529411764705882 0.1523809523809524 0.1666666666666667 0.2761904761904762 0.4047619047619048</probabilities>
		</cpt>
		<cpt id="Age_diff">
			<state id="State_3" />
			<state id="State_2" />
			<state id="State_1" />
			<state id="State0" />
			<state id="State1" />
			<state id="State2" />
			<state id="State3" />
			<parents>Age_ego age_alter</parents>
			<probabilities>4.447607187333213e-05 4.447607187333213e-05 4.447607187333213e-05 0.9997331435687598 4.447607187333213e-05 4.447607187333213e-05 4.447607187333213e-05 0.0001513317191283293 0.0001513317191283293 0.9990920096852302 0.0001513317191283293 0.0001513317191283293 0.0001513317191283293 0.0001513317191283293 0.0001511715797430083 0.9990929705215422 0.0001511715797430083 0.0001511715797430083 0.0001511715797430083 0.0001511715797430083 0.0001511715797430083 0.998180163785259 0.0003033060357901121 0.0003033060357901121 0.0003033060357901121 0.0003033060357901121 0.0003033060357901121 0.0003033060357901121 0.0001217878455730118 0.0001217878455730118 0.0001217878455730118 0.0001217878455730118 0.9992692729265619 0.0001217878455730118 0.0001217878455730118 7.284912945290303e-05 7.284912945290303e-05 7.284912945290303e-05 0.9995629052232826 7.284912945290303e-05 7.284912945290303e-05 7.284912945290303e-05 0.0001547748026621266 0.0001547748026621266 0.9990713511840273 0.0001547748026621266 0.0001547748026621266 0.0001547748026621266 0.0001547748026621266 0.0002174385736029572 0.9986953685583826 0.0002174385736029572 0.0002174385736029572 0.0002174385736029572 0.0002174385736029572 0.0002174385736029572 0.0001518141794443601 0.0001518141794443601 0.0001518141794443601 0.0001518141794443601 0.0001518141794443601 0.999089114923334 0.0001518141794443601 0.000153444836581249 0.000153444836581249 0.000153444836581249 0.000153444836581249 0.9990793309805126 0.000153444836581249 0.000153444836581249 7.530687551773477e-05 7.530687551773477e-05 7.530687551773477e-05 0.9995481587468936 7.530687551773477e-05 7.530687551773477e-05 7.530687551773477e-05 0.0001556178026766262 0.0001556178026766262 0.9990662931839404 0.0001556178026766262 0.0001556178026766262 0.0001556178026766262 0.0001556178026766262 0.0004593477262287551 0.0004593477262287551 0.0004593477262287551 0.0004593477262287551 0.0004593477262287551 0.0004593477262287551 0.9972439136426275 0.0004842615012106536 0.0004842615012106536 0.0004842615012106536 0.0004842615012106536 0.0004842615012106536 0.997094430992736 0.0004842615012106536 0.0003254149040026033 0.0003254149040026033 0.0003254149040026033 0.0003254149040026033 0.9980475105759844 0.0003254149040026033 0.0003254149040026033 0.0002100840336134454 0.0002100840336134454 0.0002100840336134454 0.9987394957983194 0.0002100840336134454 0.0002100840336134454 0.0002100840336134454</probabilities>
		</cpt>
		<cpt id="education_alter">
			<state id="State1" />
			<state id="State2" />
			<parents>Age_ego Education_ego</parents>
			<probabilities>0.5522560740455071 0.4477439259544929 0.3122689075630252 0.6877310924369748 0.6579453636013852 0.3420546363986149 0.3761250592136428 0.6238749407863572 0.6989212160836875 0.3010787839163125 0.4273399014778325 0.5726600985221675 0.7447795823665894 0.2552204176334107 0.4369158878504673 0.5630841121495327</probabilities>
		</cpt>
		<cpt id="Edu_diff">
			<state id="State_1" />
			<state id="State0" />
			<state id="State1" />
			<parents>Education_ego education_alter</parents>
			<probabilities>5.33845825325646e-05 0.999893230834935 5.33845825325646e-05 0.9997981021603067 0.0001009489198465576 0.0001009489198465576 0.000127959053103007 0.000127959053103007 0.999744081893794 7.350238882763691e-05 0.9998529952223448 7.350238882763691e-05</probabilities>
		</cpt>
		<cpt id="gender_alter">
			<state id="State1" />
			<state id="State2" />
			<parents>Gender_ego</parents>
			<probabilities>0.5496579680770206 0.4503420319229795 0.3627674101046882 0.6372325898953118</probabilities>
		</cpt>
		<cpt id="Gender_diff">
			<state id="State_1" />
			<state id="State0" />
			<state id="State1" />
			<parents>Gender_ego gender_alter</parents>
			<probabilities>7.680491551459295e-05 0.999846390168971 7.680491551459295e-05 0.9998125234345706 9.373828271466066e-05 9.373828271466066e-05 0.0001045259747047141 0.0001045259747047141 0.9997909480505905 5.951318216985063e-05 0.9998809736356605 5.951318216985063e-05</probabilities>
		</cpt>
		<cpt id="Duration">
			<state id="State1" />
			<state id="State2" />
			<state id="State3" />
			<parents>Age_ego age_alter</parents>
			<probabilities>0.4341326689504827 0.2930551230146372 0.2728122080348801 0.408271474019088 0.2979851537645812 0.2937433722163309 0.2065677966101695 0.1864406779661017 0.6069915254237288 0.1085106382978723 0.1404255319148936 0.7510638297872341 0.3575085324232082 0.3805460750853242 0.2619453924914676 0.2438775510204082 0.3357142857142857 0.4204081632653062 0.2039045553145336 0.3101952277657267 0.4859002169197397 0.08841463414634147 0.1509146341463415 0.7606707317073171 0.2872340425531915 0.2840425531914894 0.4287234042553191 0.2301075268817204 0.3204301075268817 0.4494623655913978 0.1286919831223629 0.1909282700421941 0.680379746835443 0.07742639040348964 0.163576881134133 0.7589967284623773 0.2354838709677419 0.3612903225806451 0.4032258064516129 0.1598639455782313 0.2414965986394558 0.5986394557823129 0.1666666666666667 0.2146118721461187 0.6187214611872146 0.1119293078055965 0.2268041237113402 0.6612665684830633</probabilities>
		</cpt>
		<cpt id="Distance">
			<state id="State1" />
			<state id="State2" />
			<state id="State3" />
			<state id="State4" />
			<state id="State5" />
			<parents>Householdsize MaritalStatus</parents>
			<probabilities>0.2637729549248748 0.3095158597662771 0.2176961602671119 0.1552587646076795 0.05375626043405676 0.2 0.2 0.2 0.2 0.2 0.2 0.2 0.2 0.2 0.2 0.2 0.2 0.2 0.2 0.2 0.4571428571428571 0.1714285714285714 0.02857142857142857 0.3142857142857143 0.02857142857142857 0.2360628618693135 0.2966087675765095 0.247808105872622 0.1857733664185277 0.03374689826302729 0.2017543859649123 0.3114035087719298 0.2324561403508772 0.1096491228070175 0.1447368421052632 0.2489795918367347 0.2884353741496599 0.2462585034013605 0.1687074829931973 0.04761904761904762 0.3 0.5142857142857143 0.08571428571428573 0.08571428571428573 0.01428571428571429 0.2237569060773481 0.2845303867403315 0.2154696132596685 0.2430939226519337 0.03314917127071823 0.2929447852760736 0.3110429447852761 0.2242331288343558 0.1457055214723927 0.02607361963190184 0.3347597103357472 0.3001974983541804 0.2040816326530612 0.1379196840026333 0.02304147465437788</probabilities>
		</cpt>
		<cpt id="Visit">
			<state id="never" />
			<state id="very_high" />
			<state id="high" />
			<state id="low" />
			<state id="very_low" />
			<parents>Duration Distance</parents>
			<probabilities>0.2885572139303483 0.0945273631840796 0.1556503198294243 0.1748400852878465 0.2864250177683014 0.3126865671641791 0.02014925373134328 0.1694029850746269 0.2529850746268656 0.2447761194029851 0.4067415730337079 0.005617977528089888 0.07303370786516855 0.1943820224719101 0.3202247191011236 0.3714859437751004 0.006024096385542168 0.05421686746987951 0.2088353413654618 0.359437751004016 0.3564356435643564 0.009900990099009901 0.0396039603960396 0.0396039603960396 0.5544554455445545 0.27191298784389 0.07677543186180422 0.164427383237364 0.1919385796545106 0.2949456174024312 0.1717967072297781 0.01216893342877595 0.2240515390121689 0.2813171080887616 0.3106657122405154 0.2156424581005587 0.01229050279329609 0.08156424581005586 0.2357541899441341 0.4547486033519553 0.1405622489959839 0.006024096385542168 0.0502008032128514 0.2369477911646586 0.5662650602409638 0.2037037037037037 0.009259259259259259 0.02777777777777778 0.06481481481481481 0.6944444444444444 0.1608072916666667 0.126953125 0.2356770833333333 0.2174479166666667 0.2591145833333333 0.1046461137646548 0.01389491966999566 0.2010421189752497 0.3143725575336518 0.3660442900564481 0.1384918679152292 0.005421389847215377 0.07688516510596353 0.2582552981764416 0.5209462789551503 0.1738122827346466 0.001158748551564311 0.02433371958285052 0.1668597914252607 0.6338354577056778 0.1713554987212276 0.01023017902813299 0.01023017902813299 0.05626598465473146 0.751918158567775</probabilities>
		</cpt>
		<cpt id="Hosting">
			<state id="never" />
			<state id="very_high" />
			<state id="high" />
			<state id="low" />
			<state id="very_low" />
			<parents>MaritalStatus Distance</parents>
			<probabilities>0.3726474278544541 0.04642409033877039 0.1994981179422836 0.1668757841907152 0.2145545796737766 0.3368983957219251 0.01283422459893048 0.1219251336898396 0.2224598930481284 0.3058823529411765 0.3797856049004594 0.007656967840735069 0.06278713629402757 0.1669218989280245 0.3828483920367535 0.4034115138592751 0.0004264392324093818 0.01321961620469083 0.1155650319829425 0.4673773987206823 0.3416149068322981 0.0124223602484472 0.0124223602484472 0.03726708074534162 0.5962732919254659 0.3415119363395225 0.05968169761273209 0.1690981432360742 0.1657824933687003 0.2639257294429708 0.2842827004219409 0.01476793248945148 0.1592827004219409 0.220464135021097 0.3212025316455696 0.3401015228426396 0.005710659898477157 0.06789340101522842 0.1656091370558375 0.4206852791878172 0.3550784475639967 0.0008257638315441783 0.02477291494632535 0.1056977704376548 0.5136251032204789 0.4305555555555555 0.009259259259259259 0.01851851851851852 0.04166666666666666 0.5 0.3116883116883117 0.1338661338661339 0.1058941058941059 0.1738261738261738 0.2747252747252747 0.2497695852534562 0.023963133640553 0.1493087557603687 0.2700460829493088 0.3069124423963134 0.2831632653061224 0.006377551020408163 0.0510204081632653 0.1849489795918367 0.4744897959183673 0.242 0.012 0.032 0.136 0.578 0.5 0.008474576271186441 0.02542372881355932 0.008474576271186441 0.4576271186440678 0.38 0.105 0.1216666666666667 0.1583333333333334 0.235 0.3051601423487544 0.01512455516014235 0.1530249110320284 0.2099644128113879 0.3167259786476868 0.3820224719101123 0.006242197253433208 0.06242197253433208 0.1423220973782772 0.4069912609238452 0.3294117647058823 0.0003676470588235294 0.02610294117647059 0.1106617647058824 0.5334558823529412 0.3037735849056603 0.001886792452830188 0.01132075471698113 0.03018867924528301 0.6528301886792451</probabilities>
		</cpt>
		<cpt id="Dining">
			<state id="never" />
			<state id="very_high" />
			<state id="high" />
			<state id="low" />
			<state id="very_low" />
			<parents>Age_ego Age_diff</parents>
			<probabilities>0.6936170212765957 0.002127659574468085 0.02127659574468085 0.03191489361702127 0.2510638297872341 0.5889830508474576 0.005296610169491525 0.01165254237288136 0.05826271186440678 0.3358050847457627 0.6670201484623542 0.001060445387062566 0.02545068928950159 0.05090137857900319 0.2555673382820785 0.5639987542821552 0.0165057614450327 0.03052008720024914 0.06446589847399564 0.3245094985985674 0.2 0.2 0.2 0.2 0.2 0.2 0.2 0.2 0.2 0.2 0.2 0.2 0.2 0.2 0.2 0.2 0.2 0.2 0.2 0.2 0.6219512195121951 0.004573170731707318 0.02134146341463415 0.02896341463414634 0.3231707317073171 0.6236442516268981 0.005422993492407809 0.01084598698481562 0.03904555314533623 0.3210412147505423 0.6040816326530613 0.002040816326530612 0.02551020408163265 0.05510204081632654 0.313265306122449 0.56740614334471 0.02389078498293516 0.03071672354948805 0.0674061433447099 0.310580204778157 0.2 0.2 0.2 0.2 0.2 0.2 0.2 0.2 0.2 0.2 0.2 0.2 0.2 0.2 0.2 0.2 0.2 0.2 0.2 0.2 0.6641221374045801 0.006543075245365322 0.01526717557251909 0.03816793893129771 0.2758996728462377 0.6408227848101266 0.004219409282700422 0.0189873417721519 0.0490506329113924 0.2869198312236287 0.6580645161290323 0.003225806451612903 0.02258064516129032 0.05053763440860215 0.2655913978494623 0.6276595744680851 0.01063829787234043 0.01914893617021277 0.0723404255319149 0.2702127659574468 0.2 0.2 0.2 0.2 0.2 0.2 0.2 0.2 0.2 0.2 0.2 0.2 0.2 0.2 0.2 0.2 0.2 0.2 0.2 0.2 0.6332842415316642 0.001472754050073638 0.0353460972017673 0.04270986745213549 0.2871870397643593 0.6894977168949772 0.0045662100456621 0.0502283105022831 0.0547945205479452 0.2009132420091324 0.6277966101694916 0.0006779661016949154 0.02101694915254238 0.0616949152542373 0.288813559322034 0.5967741935483871 0.00967741935483871 0.01612903225806452 0.03870967741935484 0.3387096774193548</probabilities>
		</cpt>
		<cpt id="Bar">
			<state id="never" />
			<state id="very_high" />
			<state id="high" />
			<state id="low" />
			<state id="very_low" />
			<parents>Age_diff age_alter</parents>
			<probabilities>0.2 0.2 0.2 0.2 0.2 0.2 0.2 0.2 0.2 0.2 0.2 0.2 0.2 0.2 0.2 0.8808510638297873 0.008510638297872341 0.006382978723404256 0.006382978723404256 0.09787234042553192 0.2 0.2 0.2 0.2 0.2 0.2 0.2 0.2 0.2 0.2 0.8241525423728814 0.00423728813559322 0.01271186440677966 0.01694915254237288 0.1419491525423729 0.8460365853658537 0.004573170731707318 0.006097560975609756 0.009146341463414635 0.1341463414634146 0.2 0.2 0.2 0.2 0.2 0.8091198303287381 0.01166489925768823 0.02332979851537646 0.02757158006362673 0.1283138918345705 0.8084507042253519 0.0002166847237269772 0.007800650054171179 0.01430119176598049 0.1692307692307692 0.8680479825517994 0.00109051254089422 0.007633587786259543 0.01199563794983642 0.1112322791712105 0.6624104640298972 0.0165057614450327 0.0348800996574276 0.08128308938025537 0.2049205854873871 0.7877551020408164 0.001530612244897959 0.01071428571428571 0.02704081632653061 0.1729591836734694 0.856012658227848 0.003164556962025316 0.01213080168776371 0.01213080168776371 0.1165611814345991 0.9017647058823527 0.0002941176470588234 0.004705882352941175 0.003235294117647058 0.08999999999999998 0.7935153583617748 0.01877133105802048 0.01706484641638225 0.01194539249146758 0.158703071672355 0.8688172043010752 0.002150537634408602 0.003225806451612903 0.01075268817204301 0.1150537634408602 0.9161731207289295 0.0004555808656036447 0.01412300683371299 0.005011389521640092 0.0642369020501139 0.2 0.2 0.2 0.2 0.2 0.875876726886291 0.0002125398512221041 0.01083953241232731 0.009776833156216788 0.1032943676939426 0.8922033898305086 0.0006779661016949154 0.0006779661016949154 0.0006779661016949154 0.1057627118644068 0.2 0.2 0.2 0.2 0.2 0.2 0.2 0.2 0.2 0.2 0.8623794212218651 0.0006430868167202574 0.0006430868167202574 0.0006430868167202574 0.1356913183279743 0.2 0.2 0.2 0.2 0.2 0.2 0.2 0.2 0.2 0.2 0.2 0.2 0.2 0.2 0.2</probabilities>
		</cpt>
		<cpt id="Cinema">
			<state id="never" />
			<state id="very_high" />
			<state id="high" />
			<state id="low" />
			<state id="very_low" />
			<parents>Age_ego Age_diff</parents>
			<probabilities>0.8531914893617022 0.01276595744680851 0.006382978723404256 0.008510638297872341 0.1191489361702128 0.788135593220339 0.001059322033898305 0.008474576271186441 0.02436440677966102 0.1779661016949153 0.8282078472958644 0.005302226935312832 0.0159066808059385 0.02439024390243903 0.1261930010604454 0.7452507007162879 0.01526004360012457 0.01681719090625973 0.0330115228900654 0.1896605418872626 0.2 0.2 0.2 0.2 0.2 0.2 0.2 0.2 0.2 0.2 0.2 0.2 0.2 0.2 0.2 0.2 0.2 0.2 0.2 0.2 0.8323170731707318 0.009146341463414635 0.003048780487804878 0.01524390243902439 0.1402439024390244 0.8156182212581345 0.003253796095444686 0.001084598698481562 0.02060737527114968 0.1594360086767896 0.7974489795918368 0.003571428571428572 0.00816326530612245 0.01479591836734694 0.1760204081632653 0.7935153583617748 0.02303754266211604 0.008532423208191127 0.01621160409556314 0.158703071672355 0.2 0.2 0.2 0.2 0.2 0.2 0.2 0.2 0.2 0.2 0.2 0.2 0.2 0.2 0.2 0.2 0.2 0.2 0.2 0.2 0.8593238822246456 0.00109051254089422 0.006543075245365322 0.009814612868047983 0.1232279171210469 0.8391350210970463 0.003691983122362869 0.005274261603375527 0.01476793248945148 0.1371308016877637 0.8591397849462366 0.002150537634408602 0.004301075268817204 0.01075268817204301 0.1236559139784946 0.8265957446808511 0.001063829787234043 0.01382978723404255 0.01914893617021277 0.1393617021276596 0.2 0.2 0.2 0.2 0.2 0.2 0.2 0.2 0.2 0.2 0.2 0.2 0.2 0.2 0.2 0.2 0.2 0.2 0.2 0.2 0.8885294117647057 0.0002941176470588234 0.004705882352941175 0.00764705882352941 0.09882352941176469 0.8979498861047837 0.0004555808656036447 0.007289293849658316 0.01640091116173121 0.07790432801822325 0.836734693877551 0.003401360544217687 0.003401360544217687 0.0272108843537415 0.1292517006802721 0.8077170418006432 0.0006430868167202574 0.003858520900321544 0.01672025723472669 0.1710610932475884</probabilities>
		</cpt>
		<cpt id="Recreation">
			<state id="never" />
			<state id="very_high" />
			<state id="high" />
			<state id="low" />
			<state id="very_low" />
			<parents>Age_diff age_alter</parents>
			<probabilities>0.2 0.2 0.2 0.2 0.2 0.2 0.2 0.2 0.2 0.2 0.2 0.2 0.2 0.2 0.2 0.8382978723404255 0.00425531914893617 0.0148936170212766 0.02340425531914894 0.1191489361702128 0.2 0.2 0.2 0.2 0.2 0.2 0.2 0.2 0.2 0.2 0.7690677966101694 0.006355932203389831 0.009533898305084746 0.04343220338983051 0.1716101694915254 0.7896341463414634 0.006097560975609756 0.02591463414634147 0.02439024390243903 0.1539634146341463 0.2 0.2 0.2 0.2 0.2 0.7847295864262991 0.003181336161187699 0.03923647932131496 0.04347826086956522 0.1293743372216331 0.7885032537960954 0.004338394793926247 0.007592190889370933 0.02819956616052061 0.1713665943600868 0.8200654307524536 0.004362050163576881 0.01744820065430753 0.01635768811341331 0.1417666303162486 0.7010277172220493 0.0165057614450327 0.03986297103706011 0.06540018685767675 0.1772033634381813 0.7647959183673471 0.008673469387755102 0.01887755102040816 0.02908163265306123 0.1785714285714286 0.8011603375527425 0.004746835443037974 0.01687763713080169 0.02109704641350211 0.1561181434599156 0.8438880706921944 0.002945508100147275 0.03681885125184094 0.01030927835051546 0.1060382916053019 0.7491467576791809 0.03071672354948805 0.0204778156996587 0.05034129692832764 0.1493174061433447 0.8279569892473119 0.003225806451612903 0.01397849462365591 0.02150537634408602 0.1333333333333333 0.8561643835616438 0.00228310502283105 0.04337899543378995 0.02054794520547945 0.0776255707762557 0.2 0.2 0.2 0.2 0.2 0.8106382978723404 0.005319148936170213 0.02021276595744681 0.03936170212765958 0.124468085106383 0.84135593220339 0.0006779661016949154 0.02779661016949153 0.02101694915254238 0.1091525423728814 0.2 0.2 0.2 0.2 0.2 0.2 0.2 0.2 0.2 0.2 0.7916398713826367 0.0006430868167202574 0.0135048231511254 0.02315112540192926 0.1710610932475884 0.2 0.2 0.2 0.2 0.2 0.2 0.2 0.2 0.2 0.2 0.2 0.2 0.2 0.2 0.2</probabilities>
		</cpt>
		<cpt id="Vacation">
			<state id="never" />
			<state id="very_high" />
			<state id="high" />
			<state id="low" />
			<state id="very_low" />
			<parents>Age_ego Age_diff</parents>
			<probabilities>0.8553191489361702 0.006382978723404256 0.0148936170212766 0.00425531914893617 0.1191489361702128 0.763771186440678 0.00423728813559322 0.005296610169491525 0.01271186440677966 0.2139830508474576 0.8112407211028633 0.004241781548250266 0.01378579003181336 0.02439024390243903 0.1463414634146342 0.7362192463407039 0.01401432575521644 0.01681719090625973 0.01588290252257864 0.2170663344752414 0.2 0.2 0.2 0.2 0.2 0.2 0.2 0.2 0.2 0.2 0.2 0.2 0.2 0.2 0.2 0.2 0.2 0.2 0.2 0.2 0.7835365853658537 0.007621951219512195 0.004573170731707318 0.01219512195121951 0.1920731707317073 0.8156182212581345 0.001084598698481562 0.003253796095444686 0.0140997830802603 0.165943600867679 0.8127551020408164 0.003571428571428572 0.00816326530612245 0.00816326530612245 0.1673469387755102 0.7534129692832765 0.02389078498293516 0.01279863481228669 0.006825938566552901 0.2030716723549488 0.2 0.2 0.2 0.2 0.2 0.2 0.2 0.2 0.2 0.2 0.2 0.2 0.2 0.2 0.2 0.2 0.2 0.2 0.2 0.2 0.8342420937840785 0.002181025081788441 0.002181025081788441 0.01417666303162486 0.1472191930207198 0.8222573839662447 0.00580168776371308 0.00580168776371308 0.00791139240506329 0.1582278481012658 0.8408602150537634 0.004301075268817204 0.004301075268817204 0.01290322580645161 0.1376344086021505 0.7834218916046757 0.0002125398512221041 0.006588735387885227 0.01509032943676939 0.1946865037194473 0.2 0.2 0.2 0.2 0.2 0.2 0.2 0.2 0.2 0.2 0.2 0.2 0.2 0.2 0.2 0.2 0.2 0.2 0.2 0.2 0.8635294117647057 0.0002941176470588234 0.003235294117647058 0.004705882352941175 0.128235294117647 0.8881278538812785 0.00228310502283105 0.0091324200913242 0.0091324200913242 0.091324200913242 0.8481355932203392 0.0006779661016949154 0.004067796610169492 0.01423728813559322 0.1328813559322034 0.7884244372990354 0.0006430868167202574 0.0006430868167202574 0.007073954983922831 0.2032154340836013</probabilities>
		</cpt>
		<cpt id="Shopping">
			<state id="never" />
			<state id="very_high" />
			<state id="high" />
			<state id="low" />
			<state id="very_low" />
			<parents>Age_ego Age_diff</parents>
			<probabilities>0.8531914893617022 0.008510638297872341 0.008510638297872341 0.02340425531914894 0.1063829787234043 0.7764830508474576 0.003177966101694915 0.01059322033898305 0.03601694915254237 0.173728813559322 0.8123011664899259 0.004241781548250266 0.02545068928950159 0.03817603393425239 0.11983032873807 0.7458735596387419 0.0165057614450327 0.02366863905325444 0.05200872002491436 0.1619433198380567 0.2 0.2 0.2 0.2 0.2 0.2 0.2 0.2 0.2 0.2 0.2 0.2 0.2 0.2 0.2 0.2 0.2 0.2 0.2 0.2 0.7728658536585367 0.007621951219512195 0.0350609756097561 0.03353658536585366 0.1509146341463415 0.7954496208017333 0.0002166847237269772 0.01213434452871072 0.0218851570964247 0.1703141928494041 0.7954081632653062 0.005102040816326531 0.01785714285714286 0.02806122448979592 0.1535714285714286 0.7542662116040956 0.02133105802047782 0.02645051194539249 0.04436860068259386 0.1535836177474403 0.2 0.2 0.2 0.2 0.2 0.2 0.2 0.2 0.2 0.2 0.2 0.2 0.2 0.2 0.2 0.2 0.2 0.2 0.2 0.2 0.8135223555070884 0.004362050163576881 0.01417666303162486 0.03380588876772083 0.1341330425299891 0.8043248945147679 0.004746835443037974 0.01371308016877637 0.02531645569620253 0.1518987341772152 0.8365591397849462 0.004301075268817204 0.01182795698924731 0.02258064516129032 0.1247311827956989 0.7680851063829788 0.00425531914893617 0.02553191489361702 0.06276595744680852 0.1393617021276596 0.2 0.2 0.2 0.2 0.2 0.2 0.2 0.2 0.2 0.2 0.2 0.2 0.2 0.2 0.2 0.2 0.2 0.2 0.2 0.2 0.8718703976435935 0.002945508100147275 0.007363770250368188 0.02503681885125184 0.09278350515463918 0.865296803652968 0.00228310502283105 0.0273972602739726 0.0273972602739726 0.0776255707762557 0.8401360544217686 0.01020408163265306 0.01020408163265306 0.02040816326530612 0.119047619047619 0.8096774193548387 0.003225806451612903 0.01612903225806452 0.02580645161290323 0.1451612903225807</probabilities>
		</cpt>
		<cpt id="Paidwork">
			<state id="s1_below_8" />
			<state id="s2_8_36" />
			<state id="s3_36_up" />
			<probabilities>0.3048195659992807 0.349418534947848 0.3457618990528714</probabilities>
		</cpt>
	</nodes>
	<extensions>
		<genie version="1.0" app="GeNIe 5.0.4722.0 ACADEMIC" name="model2">
			<node id="Gender_ego">
				<name>Gender_ego</name>
				<interior color="e5f6f7" />
				<outline color="000080" />
				<font color="000000" name="Arial" size="8" />
				<position>397 98 470 143</position>
			</node>
			<node id="Age_ego">
				<name>Age_ego</name>
				<interior color="e5f6f7" />
				<outline color="000080" />
				<font color="000000" name="Arial" size="8" />
				<position>472 215 529 250</position>
			</node>
			<node id="Householdsize">
				<name>Householdsize</name>
				<interior color="e5f6f7" />
				<outline color="000080" />
				<font color="000000" name="Arial" size="8" />
				<position>519 542 603 594</position>
			</node>
			<node id="MaritalStatus">
				<name>MaritalStatus</name>
				<interior color="e5f6f7" />
				<outline color="000080" />
				<font color="000000" name="Arial" size="8" />
				<position>315 375 390 421</position>
			</node>
			<node id="Education_ego">
				<name>Education_ego</name>
				<interior color="e5f6f7" />
				<outline color="000080" />
				<font color="000000" name="Arial" size="8" />
				<position>690 102 774 154</position>
			</node>
			<node id="Income">
				<name>Income</name>
				<interior color="e5f6f7" />
				<outline color="000080" />
				<font color="000000" name="Arial" size="8" />
				<position>106 367 158 399</position>
			</node>
			<node id="Age_diff">
				<name>Age_diff</name>
				<interior color="e5f6f7" />
				<outline color="000080" />
				<font color="000000" name="Arial" size="8" />
				<position>461 280 515 313</position>
			</node>
			<node id="Edu_diff">
				<name>Edu_diff</name>
				<interior color="e5f6f7" />
				<outline color="000080" />
				<font color="000000" name="Arial" size="8" />
				<position>776 163 830 196</position>
			</node>
			<node id="Gender_diff">
				<name>Gender_diff</name>
				<interior color="e5f6f7" />
				<outline color="000080" />
				<font color="000000" name="Arial" size="8" />
				<position>470 152 539 195</position>
			</node>
			<node id="Duration">
				<name>Duration</name>
				<interior color="e5f6f7" />
				<outline color="000080" />
				<font color="000000" name="Arial" size="8" />
				<position>817 244 873 279</position>
			</node>
			<node id="Distance">
				<name>Distance</name>
				<interior color="e5f6f7" />
				<outline color="000080" />
				<font color="000000" name="Arial" size="8" />
				<position>394 496 451 531</position>
			</node>
			<node id="Visit">
				<name>Visit</name>
				<interior color="e5f6f7" />
				<outline color="000080" />
				<font color="000000" name="Arial" size="8" />
				<position>616 492 657 517</position>
			</node>
			<node id="Hosting">
				<name>Hosting</name>
				<interior color="e5f6f7" />
				<outline color="000080" />
				<font color="000000" name="Arial" size="8" />
				<position>446 435 498 467</position>
			</node>
			<node id="Dining">
				<name>Dining</name>
				<interior color="e5f6f7" />
				<outline color="000080" />
				<font color="000000" name="Arial" size="8" />
				<position>701 271 749 301</position>
			</node>
			<node id="Bar">
				<name>Bar</name>
				<interior color="e5f6f7" />
				<outline color="000080" />
				<font color="000000" name="Arial" size="8" />
				<position>624 329 662 352</position>
			</node>
			<node id="Cinema">
				<name>Cinema</name>
				<interior color="e5f6f7" />
				<outline color="000080" />
				<font color="000000" name="Arial" size="8" />
				<position>572 253 624 285</position>
			</node>
			<node id="Recreation">
				<name>Recreation</name>
				<interior color="e5f6f7" />
				<outline color="000080" />
				<font color="000000" name="Arial" size="8" />
				<position>439 341 505 382</position>
			</node>
			<node id="Vacation">
				<name>Vacation</name>
				<interior color="e5f6f7" />
				<outline color="000080" />
				<font color="000000" name="Arial" size="8" />
				<position>347 205 404 240</position>
			</node>
			<node id="Shopping">
				<name>Shopping</name>
				<interior color="e5f6f7" />
				<outline color="000080" />
				<font color="000000" name="Arial" size="8" />
				<position>347 266 406 302</position>
			</node>
			<node id="Paidwork">
				<name>Paidwork</name>
				<interior color="e5f6f7" />
				<outline color="000080" />
				<font color="000000" name="Arial" size="8" />
				<position>32 329 91 365</position>
			</node>
			<node id="gender_alter">
				<name>gender_alter</name>
				<interior color="e5f6f7" />
				<outline color="000080" />
				<font color="000000" name="Arial" size="8" />
				<position>524 86 597 131</position>
			</node>
			<node id="age_alter">
				<name>age_alter</name>
				<interior color="e5f6f7" />
				<outline color="000080" />
				<font color="000000" name="Arial" size="8" />
				<position>583 401 642 437</position>
			</node>
			<node id="education_alter">
				<name>education_alter</name>
				<interior color="e5f6f7" />
				<outline color="000080" />
				<font color="000000" name="Arial" size="8" />
				<position>671 174 757 227</position>
			</node>
			<textbox>
				<caption>Input file: model2.csv\nData rows: 16682\nElapsed time: 2.609s\n\nLearning algorithm: Bayesian Search\nAlgorithm parameters:\nIterations: 100\nMax parent count: 2\nSample size: 2000\nLink probability: 0.1\nPrior link probability: 0.001\nSeed: 1\nMax search time: 0\nBackground knowledge was provided:\n  forbidden arcs: 315\n\nBest score in iteration 40: -349190\nEM Log Likelihood: -325957</caption>
				<font color="000000" name="Arial" size="8" />
				<position>10 12 195 264</position>
			</textbox>
		</genie>
	</extensions>
</smile>
