<?xml version="1.0" encoding="UTF-8"?>
<!-- This network was created in GeNIe Academic, which can be used for academic teaching and research purposes only -->
<smile version="1.0" id="aggregated_data" numsamples="10000" discsamples="10000">
	<nodes>
		<cpt id="Gender">
			<state id="male" />
			<state id="female" />
			<probabilities>0.4937402190923318 0.5062597809076682</probabilities>
		</cpt>
		<cpt id="Age">
			<state id="between_18_35" />
			<state id="between_36_50" />
			<state id="between_51_65" />
			<state id="over_65" />
			<probabilities>0.3020344287949922 0.2910798122065728 0.2942097026604069 0.1126760563380282</probabilities>
		</cpt>
		<cpt id="Householdsize">
			<state id="State1" />
			<state id="State2" />
			<state id="State3" />
			<probabilities>0.2151799687010955 0.4154929577464789 0.3693270735524257</probabilities>
		</cpt>
		<cpt id="MaritalStatus">
			<state id="single" />
			<state id="c_no_child" />
			<state id="c_child_below_12" />
			<state id="c_chil_above_12" />
			<probabilities>0.215962441314554 0.377151799687011 0.1846635367762128 0.2222222222222222</probabilities>
		</cpt>
		<cpt id="Education">
			<state id="low_middle" />
			<state id="high" />
			<probabilities>0.6173708920187794 0.3826291079812207</probabilities>
		</cpt>
		<cpt id="Paidwork">
			<state id="s1_below_8" />
			<state id="s2_8_36" />
			<state id="s3_36_up" />
			<probabilities>0.3302034428794992 0.3082942097026604 0.3615023474178404</probabilities>
		</cpt>
		<cpt id="Income">
			<state id="State1" />
			<state id="State2" />
			<state id="State3" />
			<state id="State4" />
			<state id="State5" />
			<probabilities>0.1158059467918623 0.2245696400625978 0.2582159624413146 0.269170579029734 0.1322378716744914</probabilities>
		</cpt>
		<cpt id="Grandparents">
			<state id="s1_0" />
			<state id="s2_1_up" />
			<parents>Age MaritalStatus</parents>
			<probabilities>0.5 0.5 0.4533333333333334 0.5466666666666667 0.3627450980392157 0.6372549019607843 0.3166666666666667 0.6833333333333333 0.8765432098765431 0.1234567901234568 0.8518518518518519 0.1481481481481481 0.5537190082644629 0.4462809917355372 0.696629213483146 0.3033707865168539 0.9431818181818182 0.05681818181818182 0.8819875776397514 0.1180124223602484 0.7272727272727273 0.2727272727272727 0.8706896551724138 0.1293103448275862 0.8787878787878788 0.1212121212121212 0.9333333333333333 0.06666666666666667 0.8333333333333333 0.1666666666666667 0.9473684210526315 0.05263157894736842</probabilities>
		</cpt>
		<cpt id="Visit">
			<state id="very_low" />
			<state id="low" />
			<state id="high" />
			<state id="very_high" />
			<parents>Grandparents</parents>
			<probabilities>0.2909698996655518 0.2686733556298774 0.2385730211817168 0.201783723522854 0.1469816272965879 0.2099737532808399 0.2782152230971129 0.3648293963254593</probabilities>
		</cpt>
		<cpt id="Friends">
			<state id="s1_below_2" />
			<state id="s2_2" />
			<state id="s3_3_5" />
			<state id="s4_6_up" />
			<parents>Visit</parents>
			<probabilities>0.2870662460567823 0.1924290220820189 0.277602523659306 0.2429022082018927 0.205607476635514 0.2616822429906542 0.2834890965732087 0.2492211838006231 0.1625 0.184375 0.334375 0.31875 0.140625 0.146875 0.3125 0.4</probabilities>
		</cpt>
		<cpt id="Colleagues">
			<state id="s1_0" />
			<state id="s2_1_3" />
			<state id="s3_4_up" />
			<parents>Paidwork</parents>
			<probabilities>0.6824644549763034 0.1800947867298578 0.1374407582938389 0.182741116751269 0.4263959390862944 0.3908629441624365 0.1168831168831169 0.4112554112554113 0.4718614718614719</probabilities>
		</cpt>
		<cpt id="Neighbors">
			<state id="s1_0" />
			<state id="s2_1_3" />
			<state id="s3_4_up" />
			<parents>Age</parents>
			<probabilities>0.3730569948186528 0.3212435233160622 0.305699481865285 0.2258064516129032 0.3978494623655914 0.3763440860215054 0.175531914893617 0.4069148936170213 0.4175531914893617 0.1111111111111111 0.4791666666666666 0.4097222222222222</probabilities>
		</cpt>
		<cpt id="Parents">
			<state id="s1_0" />
			<state id="s2_1_up" />
			<parents>Age</parents>
			<probabilities>0.06994818652849741 0.9300518134715027 0.1666666666666667 0.8333333333333334 0.5611702127659575 0.4388297872340425 0.8819444444444444 0.1180555555555556</probabilities>
		</cpt>
		<cpt id="Siblings">
			<state id="s1_0" />
			<state id="s2_1_2" />
			<state id="s3_3_up" />
			<probabilities>0.1674491392801252 0.4514866979655712 0.3810641627543036</probabilities>
		</cpt>
		<cpt id="Children">
			<state id="s1_0" />
			<state id="s2_1_up" />
			<parents>Age MaritalStatus</parents>
			<probabilities>0.9324324324324325 0.06756756756756757 0.9866666666666667 0.01333333333333333 0.3627450980392157 0.6372549019607843 0.9166666666666666 0.08333333333333333 0.8148148148148148 0.1851851851851852 0.7160493827160493 0.2839506172839506 0.2727272727272727 0.7272727272727273 0.247191011235955 0.7528089887640449 0.5 0.5 0.3167701863354037 0.6832298136645962 0.1818181818181818 0.8181818181818182 0.103448275862069 0.896551724137931 0.3333333333333334 0.6666666666666667 0.1888888888888889 0.8111111111111111 0.1666666666666667 0.8333333333333333 0.1578947368421053 0.8421052631578947</probabilities>
		</cpt>
		<cpt id="Otherfamilymembers">
			<state id="s1_0" />
			<state id="s2_1_4" />
			<state id="s3_5_up" />
			<parents>Age</parents>
			<probabilities>0.266839378238342 0.2435233160621762 0.4896373056994819 0.3118279569892473 0.3360215053763441 0.3521505376344086 0.3537234042553191 0.3882978723404255 0.2579787234042553 0.4444444444444444 0.3263888888888889 0.2291666666666667</probabilities>
		</cpt>
		<cpt id="Hosting">
			<state id="very_low" />
			<state id="low" />
			<state id="high" />
			<state id="very_high" />
			<parents>Grandparents Children</parents>
			<probabilities>0.3391521197007481 0.2768079800498753 0.2244389027431421 0.1596009975062344 0.217741935483871 0.2540322580645161 0.2762096774193548 0.2520161290322581 0.2246696035242291 0.2863436123348018 0.1894273127753304 0.2995594713656388 0.09740259740259741 0.1948051948051948 0.3116883116883117 0.3961038961038961</probabilities>
		</cpt>
		<cpt id="Dining">
			<state id="very_low" />
			<state id="low" />
			<state id="high" />
			<state id="very_high" />
			<parents>Colleagues</parents>
			<probabilities>0.3719806763285024 0.2657004830917875 0.21256038647343 0.1497584541062802 0.2050691244239631 0.2511520737327189 0.2580645161290323 0.2857142857142857 0.2209302325581395 0.2046511627906977 0.2651162790697674 0.3093023255813954</probabilities>
		</cpt>
		<cpt id="Recreation">
			<state id="low" />
			<state id="high" />
			<parents>Colleagues</parents>
			<probabilities>0.6135265700483091 0.3864734299516908 0.4516129032258064 0.5483870967741935 0.4837209302325581 0.5162790697674419</probabilities>
		</cpt>
		<cpt id="Vacation">
			<state id="low" />
			<state id="high" />
			<parents>Otherfamilymembers</parents>
			<probabilities>0.6274038461538461 0.3725961538461539 0.5169902912621359 0.483009708737864 0.4622222222222222 0.5377777777777778</probabilities>
		</cpt>
		<cpt id="Shopping">
			<state id="low" />
			<state id="high" />
			<parents>Gender</parents>
			<probabilities>0.5736925515055468 0.4263074484944533 0.4265842349304482 0.5734157650695517</probabilities>
		</cpt>
	</nodes>
	<extensions>
		<genie version="1.0" app="GeNIe 5.0.4722.0 ACADEMIC" name="aggregated_data">
			<node id="Gender">
				<name>Gender</name>
				<interior color="ffffff" />
				<outline color="000000" />
				<font color="000000" name="Arial" size="8" />
				<position>466 474 518 506</position>
				<barchart active="true" width="128" height="64" />
			</node>
			<node id="Age">
				<name>Age</name>
				<interior color="ffffff" />
				<outline color="000000" />
				<font color="000000" name="Arial" size="8" />
				<position>650 498 690 523</position>
				<barchart active="true" width="128" height="90" />
			</node>
			<node id="Householdsize">
				<name>Householdsize</name>
				<interior color="ffffff" />
				<outline color="000000" />
				<font color="000000" name="Arial" size="8" />
				<position>54 443 138 495</position>
				<barchart active="true" width="128" height="72" />
			</node>
			<node id="MaritalStatus">
				<name>MaritalStatus</name>
				<interior color="ffffff" />
				<outline color="000000" />
				<font color="000000" name="Arial" size="8" />
				<position>698 355 773 401</position>
				<barchart active="true" width="128" height="90" />
			</node>
			<node id="Education">
				<name>Education</name>
				<interior color="ffffff" />
				<outline color="000000" />
				<font color="000000" name="Arial" size="8" />
				<position>279 530 341 568</position>
				<barchart active="true" width="128" height="64" />
			</node>
			<node id="Paidwork">
				<name>Paidwork</name>
				<interior color="ffffff" />
				<outline color="000000" />
				<font color="000000" name="Arial" size="8" />
				<position>365 284 424 320</position>
				<barchart active="true" width="128" height="72" />
			</node>
			<node id="Income">
				<name>Income</name>
				<interior color="ffffff" />
				<outline color="000000" />
				<font color="000000" name="Arial" size="8" />
				<position>72 329 124 361</position>
				<barchart active="true" width="128" height="108" />
			</node>
			<node id="Friends">
				<name>Friends</name>
				<interior color="ffffca" />
				<outline color="000000" />
				<font color="000000" name="Arial" size="8" />
				<position>815 86 867 118</position>
				<barchart active="true" width="263" height="90" />
			</node>
			<node id="Colleagues">
				<name>Colleagues</name>
				<interior color="ffffca" />
				<outline color="000000" />
				<font color="000000" name="Arial" size="8" />
				<position>435 176 503 218</position>
				<barchart active="true" width="128" height="72" />
			</node>
			<node id="Neighbors">
				<name>Neighbors</name>
				<interior color="ffffca" />
				<outline color="000000" />
				<font color="000000" name="Arial" size="8" />
				<position>689 635 753 675</position>
				<barchart active="true" width="128" height="72" />
			</node>
			<node id="Grandparents">
				<name>Grandparents</name>
				<interior color="ffffca" />
				<outline color="000000" />
				<font color="000000" name="Arial" size="8" />
				<position>483 358 563 408</position>
				<barchart active="true" width="128" height="64" />
			</node>
			<node id="Parents">
				<name>Parents</name>
				<interior color="ffffca" />
				<outline color="000000" />
				<font color="000000" name="Arial" size="8" />
				<position>477 610 531 643</position>
				<barchart active="true" width="128" height="64" />
			</node>
			<node id="Siblings">
				<name>Siblings</name>
				<interior color="ffffca" />
				<outline color="000000" />
				<font color="000000" name="Arial" size="8" />
				<position>67 564 119 596</position>
				<barchart active="true" width="128" height="72" />
			</node>
			<node id="Children">
				<name>Children</name>
				<interior color="ffffca" />
				<outline color="000000" />
				<font color="000000" name="Arial" size="8" />
				<position>897 427 953 462</position>
				<barchart active="true" width="128" height="64" />
			</node>
			<node id="Otherfamilymembers">
				<name>Otherfamilymembers</name>
				<interior color="ffffca" />
				<outline color="000000" />
				<font color="000000" name="Arial" size="8" />
				<position>832 534 944 604</position>
				<barchart active="true" width="128" height="72" />
			</node>
			<node id="Visit">
				<name>Visit</name>
				<interior color="e5f6f7" />
				<outline color="000080" />
				<font color="000000" name="Arial" size="8" />
				<position>622 218 663 243</position>
				<barchart active="true" width="128" height="90" />
			</node>
			<node id="Hosting">
				<name>Hosting</name>
				<interior color="e5f6f7" />
				<outline color="000080" />
				<font color="000000" name="Arial" size="8" />
				<position>793 232 845 264</position>
				<barchart active="true" width="128" height="90" />
			</node>
			<node id="Dining">
				<name>Dining</name>
				<interior color="e5f6f7" />
				<outline color="000080" />
				<font color="000000" name="Arial" size="8" />
				<position>334 78 382 108</position>
				<barchart active="true" width="128" height="90" />
			</node>
			<node id="Recreation">
				<name>Recreation</name>
				<interior color="e5f6f7" />
				<outline color="000080" />
				<font color="000000" name="Arial" size="8" />
				<position>551 66 617 107</position>
				<barchart active="true" width="128" height="64" />
			</node>
			<node id="Vacation">
				<name>Vacation</name>
				<interior color="e5f6f7" />
				<outline color="000080" />
				<font color="000000" name="Arial" size="8" />
				<position>1057 537 1114 572</position>
				<barchart active="true" width="128" height="64" />
			</node>
			<node id="Shopping">
				<name>Shopping</name>
				<interior color="e5f6f7" />
				<outline color="000080" />
				<font color="000000" name="Arial" size="8" />
				<position>266 394 325 430</position>
				<barchart active="true" width="128" height="64" />
			</node>
			<textbox>
				<caption>Input file: aggregated_data.csv\nData rows: 1278\nElapsed time: 0.825s\n\nLearning algorithm: Bayesian Search\nAlgorithm parameters:\nIterations: 100\nMax parent count: 8\nSample size: 100\nLink probability: 0.1\nPrior link probability: 0.001\nSeed: 10\nMax search time: 0\nBackground knowledge was provided:\n  forbidden arcs: 226\n\nBest score in iteration 40: -26911.8\nEM Log Likelihood: -26502.5</caption>
				<font color="000000" name="Arial" size="8" />
				<position>31 7 216 259</position>
			</textbox>
		</genie>
	</extensions>
</smile>
