<?xml version="1.0" encoding="UTF-8"?>
<!-- This network was created in GeNIe Academic, which can be used for academic teaching and research purposes only -->
<smile version="1.0" id="model2" numsamples="10000" discsamples="10000">
	<nodes>
		<cpt id="Gender_ego">
			<state id="State1" />
			<state id="State2" />
			<probabilities>0.4732046517204172 0.5267953482795827</probabilities>
		</cpt>
		<cpt id="Age_ego">
			<state id="State1" />
			<state id="State2" />
			<state id="State3" />
			<state id="State4" />
			<probabilities>0.333772928905407 0.282340246972785 0.2807217360028774 0.1031650881189306</probabilities>
		</cpt>
		<cpt id="Householdsize">
			<state id="State1" />
			<state id="State2" />
			<state id="State3" />
			<probabilities>0.1795348279582784 0.4204531830715741 0.4000119889701474</probabilities>
		</cpt>
		<cpt id="MaritalStatus">
			<state id="State1" />
			<state id="State2" />
			<state id="State3" />
			<state id="State4" />
			<probabilities>0.1806737801222875 0.3840666586740199 0.209087639371778 0.2261719218319146</probabilities>
		</cpt>
		<cpt id="Education_ego">
			<state id="State1" />
			<state id="State2" />
			<probabilities>0.5721136554369979 0.427886344563002</probabilities>
		</cpt>
		<cpt id="Income">
			<state id="State1" />
			<state id="State2" />
			<state id="State3" />
			<state id="State4" />
			<state id="State5" />
			<probabilities>0.1397314470686968 0.1897254525836231 0.2466730607840786 0.2804220117491907 0.1434480278144107</probabilities>
		</cpt>
		<cpt id="age_alter">
			<state id="State1" />
			<state id="State2" />
			<state id="State3" />
			<state id="State4" />
			<parents>Age_ego Householdsize MaritalStatus</parents>
			<probabilities>0.577889447236181 0.1758793969849246 0.1678391959798995 0.07839195979899498 0.25 0.25 0.25 0.25 0.25 0.25 0.25 0.25 0.25 0.25 0.25 0.25 0.25 0.25 0.25 0.25 0.5405558706749859 0.1798071469086784 0.1871809415768576 0.09245604083947817 0.4923076923076923 0.1692307692307692 0.2923076923076923 0.04615384615384616 0.660377358490566 0.09433962264150943 0.05660377358490566 0.1886792452830189 0.25 0.25 0.25 0.25 0.6542056074766355 0.09968847352024922 0.1838006230529595 0.06230529595015576 0.5726666666666667 0.1906666666666667 0.1586666666666667 0.078 0.6280137772675086 0.1343283582089552 0.1469575200918485 0.09070034443168772 0.2274459974587039 0.4027954256670903 0.2109275730622618 0.1588310038119441 0.25 0.25 0.25 0.25 0.25 0.25 0.25 0.25 0.25 0.25 0.25 0.25 0.25 0.25 0.25 0.25 0.2197696737044146 0.3761996161228407 0.2408829174664107 0.163147792706334 0.4031007751937984 0.3333333333333333 0.1782945736434108 0.08527131782945736 0.2105263157894737 0.4473684210526315 0.2368421052631579 0.1052631578947368 0.25 0.25 0.25 0.25 0.3928571428571428 0.25 0.0119047619047619 0.3452380952380952 0.2840632603406326 0.4464720194647202 0.1508515815085158 0.1186131386861314 0.2180952380952381 0.4304761904761905 0.2142857142857143 0.1371428571428571 0.1616161616161616 0.2222222222222222 0.4231200897867565 0.1930415263748597 0.25 0.25 0.25 0.25 0.25 0.25 0.25 0.25 0.25 0.25 0.25 0.25 0.03571428571428571 0.03571428571428571 0.75 0.1785714285714285 0.1915303176130895 0.1973051010587103 0.399422521655438 0.2117420596727623 0.4117647058823529 0.05882352941176471 0.1764705882352941 0.3529411764705882 0.2357723577235773 0.1605691056910569 0.3922764227642277 0.2113821138211382 0.3076923076923077 0.1538461538461539 0.3076923076923077 0.2307692307692308 0.2727272727272727 0.2727272727272727 0.1818181818181818 0.2727272727272727 0.25 0.2672413793103448 0.3103448275862069 0.1724137931034483 0.2256846081208688 0.19452313503305 0.4211520302171861 0.1586402266288952 0.1863354037267081 0.1645962732919254 0.2763975155279503 0.3726708074534161 0.25 0.25 0.25 0.25 0.25 0.25 0.25 0.25 0.25 0.25 0.25 0.25 0.25 0.25 0.25 0.25 0.1841652323580034 0.1721170395869191 0.2418244406196214 0.4018932874354561 0.1176470588235294 0.2352941176470588 0.2941176470588235 0.3529411764705882 0.1578947368421053 0.1842105263157895 0.2763157894736842 0.381578947368421 0.25 0.25 0.25 0.25 0.2 0.2 0.5 0.1 0.25 0.25 0.25 0.25 0.1379310344827586 0.1206896551724138 0.2758620689655172 0.4655172413793103</probabilities>
		</cpt>
		<cpt id="Age_diff">
			<state id="State_3" />
			<state id="State_2" />
			<state id="State_1" />
			<state id="State0" />
			<state id="State1" />
			<state id="State2" />
			<state id="State3" />
			<parents>Age_ego Householdsize MaritalStatus age_alter</parents>
			<probabilities>0.0002480158730158731 0.0002480158730158731 0.0002480158730158731 0.9985119047619049 0.0002480158730158731 0.0002480158730158731 0.0002480158730158731 0.0008116883116883117 0.0008116883116883117 0.9951298701298703 0.0008116883116883117 0.0008116883116883117 0.0008116883116883117 0.0008116883116883117 0.000850340136054422 0.9948979591836736 0.000850340136054422 0.000850340136054422 0.000850340136054422 0.000850340136054422 0.000850340136054422 0.9891500904159135 0.001808318264014467 0.001808318264014467 0.001808318264014467 0.001808318264014467 0.001808318264014467 0.001808318264014467 0.1428571428571429 0.1428571428571429 0.1428571428571429 0.1428571428571429 0.1428571428571429 0.1428571428571429 0.1428571428571429 0.1428571428571429 0.1428571428571429 0.1428571428571429 0.1428571428571429 0.1428571428571429 0.1428571428571429 0.1428571428571429 0.1428571428571429 0.1428571428571429 0.1428571428571429 0.1428571428571429 0.1428571428571429 0.1428571428571429 0.1428571428571429 0.1428571428571429 0.1428571428571429 0.1428571428571429 0.1428571428571429 0.1428571428571429 0.1428571428571429 0.1428571428571429 0.1428571428571429 0.1428571428571429 0.1428571428571429 0.1428571428571429 0.1428571428571429 0.1428571428571429 0.1428571428571429 0.1428571428571429 0.1428571428571429 0.1428571428571429 0.1428571428571429 0.1428571428571429 0.1428571428571429 0.1428571428571429 0.1428571428571429 0.1428571428571429 0.1428571428571429 0.1428571428571429 0.1428571428571429 0.1428571428571429 0.1428571428571429 0.1428571428571429 0.1428571428571429 0.1428571428571429 0.1428571428571429 0.1428571428571429 0.1428571428571429 0.1428571428571429 0.1428571428571429 0.1428571428571429 0.1428571428571429 0.1428571428571429 0.1428571428571429 0.1428571428571429 0.1428571428571429 0.1428571428571429 0.1428571428571429 0.1428571428571429 0.1428571428571429 0.1428571428571429 0.1428571428571429 0.1428571428571429 0.1428571428571429 0.1428571428571429 0.1428571428571429 0.1428571428571429 0.1428571428571429 0.1428571428571429 0.1428571428571429 0.1428571428571429 0.1428571428571429 0.1428571428571429 0.1428571428571429 0.1428571428571429 0.1428571428571429 0.1428571428571429 0.1428571428571429 0.1428571428571429 0.1428571428571429 0.1428571428571429 0.1428571428571429 0.1428571428571429 0.1428571428571429 0.1428571428571429 0.1428571428571429 0.1428571428571429 0.1428571428571429 0.1428571428571429 0.1428571428571429 0.1428571428571429 0.1428571428571429 0.1428571428571429 0.1428571428571429 0.1428571428571429 0.1428571428571429 0.1428571428571429 0.1428571428571429 0.1428571428571429 0.1428571428571429 0.1428571428571429 0.1428571428571429 0.1428571428571429 0.1428571428571429 0.1428571428571429 0.0001497454327643007 0.0001497454327643007 0.0001497454327643007 0.9991015274034142 0.0001497454327643007 0.0001497454327643007 0.0001497454327643007 0.0004492362982929019 0.0004492362982929019 0.9973045822102423 0.0004492362982929019 0.0004492362982929019 0.0004492362982929019 0.0004492362982929019 0.0004315925766076821 0.9974104445403534 0.0004315925766076821 0.0004315925766076821 0.0004315925766076821 0.0004315925766076821 0.0004315925766076821 0.9947735191637632 0.0008710801393728224 0.0008710801393728224 0.0008710801393728224 0.0008710801393728224 0.0008710801393728224 0.0008710801393728224 0.004329004329004327 0.004329004329004327 0.004329004329004327 0.9740259740259737 0.004329004329004327 0.004329004329004327 0.004329004329004327 0.01190476190476191 0.01190476190476191 0.9285714285714286 0.01190476190476191 0.01190476190476191 0.01190476190476191 0.01190476190476191 0.007142857142857144 0.9571428571428573 0.007142857142857144 0.007142857142857144 0.007142857142857144 0.007142857142857144 0.007142857142857144 0.7857142857142859 0.03571428571428572 0.03571428571428572 0.03571428571428572 0.03571428571428572 0.03571428571428572 0.03571428571428572 0.003968253968253966 0.003968253968253966 0.003968253968253966 0.9761904761904758 0.003968253968253966 0.003968253968253966 0.003968253968253966 0.0238095238095238 0.0238095238095238 0.857142857142857 0.0238095238095238 0.0238095238095238 0.0238095238095238 0.0238095238095238 0.03571428571428572 0.7857142857142859 0.03571428571428572 0.03571428571428572 0.03571428571428572 0.03571428571428572 0.03571428571428572 0.9220779220779224 0.01298701298701299 0.01298701298701299 0.01298701298701299 0.01298701298701299 0.01298701298701299 0.01298701298701299 0.1428571428571429 0.1428571428571429 0.1428571428571429 0.1428571428571429 0.1428571428571429 0.1428571428571429 0.1428571428571429 0.1428571428571429 0.1428571428571429 0.1428571428571429 0.1428571428571429 0.1428571428571429 0.1428571428571429 0.1428571428571429 0.1428571428571429 0.1428571428571429 0.1428571428571429 0.1428571428571429 0.1428571428571429 0.1428571428571429 0.1428571428571429 0.1428571428571429 0.1428571428571429 0.1428571428571429 0.1428571428571429 0.1428571428571429 0.1428571428571429 0.1428571428571429 0.0006770480704129993 0.0006770480704129993 0.0006770480704129993 0.9959377115775221 0.0006770480704129993 0.0006770480704129993 0.0006770480704129993 0.004329004329004327 0.004329004329004327 0.9740259740259737 0.004329004329004327 0.004329004329004327 0.004329004329004327 0.004329004329004327 0.00238095238095238 0.9857142857142853 0.00238095238095238 0.00238095238095238 0.00238095238095238 0.00238095238095238 0.00238095238095238 0.9591836734693879 0.006802721088435376 0.006802721088435376 0.006802721088435376 0.006802721088435376 0.006802721088435376 0.006802721088435376 0.0001661129568106312 0.0001661129568106312 0.0001661129568106312 0.9990033222591364 0.0001661129568106312 0.0001661129568106312 0.0001661129568106312 0.0004977600796416125 0.0004977600796416125 0.99701343952215 0.0004977600796416125 0.0004977600796416125 0.0004977600796416125 0.0004977600796416125 0.0005977286312014346 0.9964136282127914 0.0005977286312014346 0.0005977286312014346 0.0005977286312014346 0.0005977286312014346 0.0005977286312014346 0.9927360774818403 0.001210653753026635 0.001210653753026635 0.001210653753026635 0.001210653753026635 0.001210653753026635 0.001210653753026635 0.0002606882168925965 0.0002606882168925965 0.0002606882168925965 0.9984358706986446 0.0002606882168925965 0.0002606882168925965 0.0002606882168925965 0.001210653753026635 0.001210653753026635 0.9927360774818403 0.001210653753026635 0.001210653753026635 0.001210653753026635 0.001210653753026635 0.001107419712070875 0.9933554817275749 0.001107419712070875 0.001107419712070875 0.001107419712070875 0.001107419712070875 0.001107419712070875 0.9892857142857145 0.001785714285714286 0.001785714285714286 0.001785714285714286 0.001785714285714286 0.001785714285714286 0.001785714285714286 0.0007936507936507937 0.0007936507936507937 0.0007936507936507937 0.0007936507936507937 0.9952380952380953 0.0007936507936507937 0.0007936507936507937 0.0004492362982929019 0.0004492362982929019 0.0004492362982929019 0.9973045822102423 0.0004492362982929019 0.0004492362982929019 0.0004492362982929019 0.0008554319931565442 0.0008554319931565442 0.9948674080410609 0.0008554319931565442 0.0008554319931565442 0.0008554319931565442 0.0008554319931565442 0.001133786848072562 0.9931972789115647 0.001133786848072562 0.001133786848072562 0.001133786848072562 0.001133786848072562 0.001133786848072562 0.1428571428571429 0.1428571428571429 0.1428571428571429 0.1428571428571429 0.1428571428571429 0.1428571428571429 0.1428571428571429 0.1428571428571429 0.1428571428571429 0.1428571428571429 0.1428571428571429 0.1428571428571429 0.1428571428571429 0.1428571428571429 0.1428571428571429 0.1428571428571429 0.1428571428571429 0.1428571428571429 0.1428571428571429 0.1428571428571429 0.1428571428571429 0.1428571428571429 0.1428571428571429 0.1428571428571429 0.1428571428571429 0.1428571428571429 0.1428571428571429 0.1428571428571429 0.1428571428571429 0.1428571428571429 0.1428571428571429 0.1428571428571429 0.1428571428571429 0.1428571428571429 0.1428571428571429 0.1428571428571429 0.1428571428571429 0.1428571428571429 0.1428571428571429 0.1428571428571429 0.1428571428571429 0.1428571428571429 0.1428571428571429 0.1428571428571429 0.1428571428571429 0.1428571428571429 0.1428571428571429 0.1428571428571429 0.1428571428571429 0.1428571428571429 0.1428571428571429 0.1428571428571429 0.1428571428571429 0.1428571428571429 0.1428571428571429 0.1428571428571429 0.1428571428571429 0.1428571428571429 0.1428571428571429 0.1428571428571429 0.1428571428571429 0.1428571428571429 0.1428571428571429 0.1428571428571429 0.1428571428571429 0.1428571428571429 0.1428571428571429 0.1428571428571429 0.1428571428571429 0.1428571428571429 0.1428571428571429 0.1428571428571429 0.1428571428571429 0.1428571428571429 0.1428571428571429 0.1428571428571429 0.1428571428571429 0.1428571428571429 0.1428571428571429 0.1428571428571429 0.1428571428571429 0.1428571428571429 0.1428571428571429 0.1428571428571429 0.1428571428571429 0.1428571428571429 0.1428571428571429 0.1428571428571429 0.1428571428571429 0.1428571428571429 0.1428571428571429 0.1428571428571429 0.1428571428571429 0.1428571428571429 0.1428571428571429 0.1428571428571429 0.1428571428571429 0.1428571428571429 0.1428571428571429 0.1428571428571429 0.1428571428571429 0.1428571428571429 0.1428571428571429 0.1428571428571429 0.1428571428571429 0.1428571428571429 0.1428571428571429 0.1428571428571429 0.1428571428571429 0.1428571428571429 0.1428571428571429 0.1428571428571429 0.0006211180124223603 0.0006211180124223603 0.0006211180124223603 0.0006211180124223603 0.9962732919254659 0.0006211180124223603 0.0006211180124223603 0.0003635041802980733 0.0003635041802980733 0.0003635041802980733 0.9978189749182114 0.0003635041802980733 0.0003635041802980733 0.0003635041802980733 0.0005668934240362812 0.0005668934240362812 0.9965986394557824 0.0005668934240362812 0.0005668934240362812 0.0005668934240362812 0.0005668934240362812 0.0008354218880534671 0.9949874686716793 0.0008354218880534671 0.0008354218880534671 0.0008354218880534671 0.0008354218880534671 0.0008354218880534671 0.002695417789757412 0.002695417789757412 0.002695417789757412 0.002695417789757412 0.9838274932614554 0.002695417789757412 0.002695417789757412 0.003246753246753246 0.003246753246753246 0.003246753246753246 0.9805194805194803 0.003246753246753246 0.003246753246753246 0.003246753246753246 0.005952380952380953 0.005952380952380953 0.9642857142857144 0.005952380952380953 0.005952380952380953 0.005952380952380953 0.005952380952380953 0.01190476190476191 0.9285714285714288 0.01190476190476191 0.01190476190476191 0.01190476190476191 0.01190476190476191 0.01190476190476191 0.01587301587301588 0.01587301587301588 0.01587301587301588 0.01587301587301588 0.9047619047619049 0.01587301587301588 0.01587301587301588 0.007936507936507938 0.007936507936507938 0.007936507936507938 0.9523809523809526 0.007936507936507938 0.007936507936507938 0.007936507936507938 0.01428571428571429 0.01428571428571429 0.9142857142857144 0.01428571428571429 0.01428571428571429 0.01428571428571429 0.01428571428571429 0.02857142857142856 0.8285714285714282 0.02857142857142856 0.02857142857142856 0.02857142857142856 0.02857142857142856 0.02857142857142856 0.1428571428571429 0.1428571428571429 0.1428571428571429 0.1428571428571429 0.1428571428571429 0.1428571428571429 0.1428571428571429 0.1428571428571429 0.1428571428571429 0.1428571428571429 0.1428571428571429 0.1428571428571429 0.1428571428571429 0.1428571428571429 0.1428571428571429 0.1428571428571429 0.1428571428571429 0.1428571428571429 0.1428571428571429 0.1428571428571429 0.1428571428571429 0.1428571428571429 0.1428571428571429 0.1428571428571429 0.1428571428571429 0.1428571428571429 0.1428571428571429 0.1428571428571429 0.01587301587301588 0.01587301587301588 0.01587301587301588 0.01587301587301588 0.9047619047619049 0.01587301587301588 0.01587301587301588 0.0238095238095238 0.0238095238095238 0.0238095238095238 0.857142857142857 0.0238095238095238 0.0238095238095238 0.0238095238095238 0.1428571428571429 0.1428571428571429 0.1428571428571429 0.1428571428571429 0.1428571428571429 0.1428571428571429 0.1428571428571429 0.01785714285714285 0.8928571428571427 0.01785714285714285 0.01785714285714285 0.01785714285714285 0.01785714285714285 0.01785714285714285 0.0003052503052503052 0.0003052503052503052 0.0003052503052503052 0.0003052503052503052 0.9981684981684981 0.0003052503052503052 0.0003052503052503052 0.0001943634596695821 0.0001943634596695821 0.0001943634596695821 0.9988338192419826 0.0001943634596695821 0.0001943634596695821 0.0001943634596695821 0.0005737234652897304 0.0005737234652897304 0.9965576592082617 0.0005737234652897304 0.0005737234652897304 0.0005737234652897304 0.0005737234652897304 0.0007288629737609329 0.9956268221574345 0.0007288629737609329 0.0007288629737609329 0.0007288629737609329 0.0007288629737609329 0.0007288629737609329 0.0006211180124223603 0.0006211180124223603 0.0006211180124223603 0.0006211180124223603 0.9962732919254659 0.0006211180124223603 0.0006211180124223603 0.0003153579312519709 0.0003153579312519709 0.0003153579312519709 0.998107852412488 0.0003153579312519709 0.0003153579312519709 0.0003153579312519709 0.0006321112515802782 0.0006321112515802782 0.9962073324905185 0.0006321112515802782 0.0006321112515802782 0.0006321112515802782 0.0006321112515802782 0.0009852216748768474 0.9940886699507391 0.0009852216748768474 0.0009852216748768474 0.0009852216748768474 0.0009852216748768474 0.0009852216748768474 0.0009852216748768472 0.0009852216748768472 0.0009852216748768472 0.0009852216748768472 0.0009852216748768472 0.9940886699507389 0.0009852216748768472 0.0007178750897343861 0.0007178750897343861 0.0007178750897343861 0.0007178750897343861 0.9956927494615937 0.0007178750897343861 0.0007178750897343861 0.0003779289493575207 0.0003779289493575207 0.0003779289493575207 0.9977324263038547 0.0003779289493575207 0.0003779289493575207 0.0003779289493575207 0.0008257638315441784 0.0008257638315441784 0.995045417010735 0.0008257638315441784 0.0008257638315441784 0.0008257638315441784 0.0008257638315441784 0.1428571428571429 0.1428571428571429 0.1428571428571429 0.1428571428571429 0.1428571428571429 0.1428571428571429 0.1428571428571429 0.1428571428571429 0.1428571428571429 0.1428571428571429 0.1428571428571429 0.1428571428571429 0.1428571428571429 0.1428571428571429 0.1428571428571429 0.1428571428571429 0.1428571428571429 0.1428571428571429 0.1428571428571429 0.1428571428571429 0.1428571428571429 0.1428571428571429 0.1428571428571429 0.1428571428571429 0.1428571428571429 0.1428571428571429 0.1428571428571429 0.1428571428571429 0.1428571428571429 0.1428571428571429 0.1428571428571429 0.1428571428571429 0.1428571428571429 0.1428571428571429 0.1428571428571429 0.1428571428571429 0.1428571428571429 0.1428571428571429 0.1428571428571429 0.1428571428571429 0.1428571428571429 0.1428571428571429 0.1428571428571429 0.1428571428571429 0.1428571428571429 0.1428571428571429 0.1428571428571429 0.1428571428571429 0.1428571428571429 0.1428571428571429 0.1428571428571429 0.1428571428571429 0.1428571428571429 0.1428571428571429 0.1428571428571429 0.1428571428571429 0.1428571428571429 0.1428571428571429 0.1428571428571429 0.1428571428571429 0.1428571428571429 0.1428571428571429 0.1428571428571429 0.1428571428571429 0.1428571428571429 0.1428571428571429 0.1428571428571429 0.1428571428571429 0.1428571428571429 0.1428571428571429 0.1428571428571429 0.1428571428571429 0.1428571428571429 0.1428571428571429 0.1428571428571429 0.1428571428571429 0.1428571428571429 0.1428571428571429 0.1428571428571429 0.1428571428571429 0.1428571428571429 0.1428571428571429 0.1428571428571429 0.1428571428571429 0.1428571428571429 0.1428571428571429 0.1428571428571429 0.1428571428571429 0.1428571428571429 0.1428571428571429 0.1428571428571429 0.1428571428571429 0.1428571428571429 0.1428571428571429 0.1428571428571429 0.1428571428571429 0.1428571428571429 0.1428571428571429 0.0238095238095238 0.0238095238095238 0.0238095238095238 0.857142857142857 0.0238095238095238 0.0238095238095238 0.0238095238095238 0.07142857142857144 0.07142857142857144 0.5714285714285715 0.07142857142857144 0.07142857142857144 0.07142857142857144 0.07142857142857144 0.0003580379520229143 0.0003580379520229143 0.0003580379520229143 0.0003580379520229143 0.0003580379520229143 0.9978517722878624 0.0003580379520229143 0.0003475842891901286 0.0003475842891901286 0.0003475842891901286 0.0003475842891901286 0.9979144942648591 0.0003475842891901286 0.0003475842891901286 0.000171909919202338 0.000171909919202338 0.000171909919202338 0.9989685404847861 0.000171909919202338 0.000171909919202338 0.000171909919202338 0.0003239390994493035 0.0003239390994493035 0.9980563654033041 0.0003239390994493035 0.0003239390994493035 0.0003239390994493035 0.0003239390994493035 0.01785714285714286 0.01785714285714286 0.01785714285714286 0.01785714285714286 0.01785714285714286 0.8928571428571429 0.01785714285714286 0.07142857142857144 0.07142857142857144 0.07142857142857144 0.07142857142857144 0.5714285714285715 0.07142857142857144 0.07142857142857144 0.03571428571428572 0.03571428571428572 0.03571428571428572 0.7857142857142859 0.03571428571428572 0.03571428571428572 0.03571428571428572 0.02040816326530612 0.02040816326530612 0.8775510204081631 0.02040816326530612 0.02040816326530612 0.02040816326530612 0.02040816326530612 0.001221001221001221 0.001221001221001221 0.001221001221001221 0.001221001221001221 0.001221001221001221 0.9926739926739927 0.001221001221001221 0.001785714285714286 0.001785714285714286 0.001785714285714286 0.001785714285714286 0.9892857142857144 0.001785714285714286 0.001785714285714286 0.0007363770250368189 0.0007363770250368189 0.0007363770250368189 0.9955817378497792 0.0007363770250368189 0.0007363770250368189 0.0007363770250368189 0.001360544217687075 0.001360544217687075 0.9918367346938776 0.001360544217687075 0.001360544217687075 0.001360544217687075 0.001360544217687075 0.02857142857142856 0.02857142857142856 0.02857142857142856 0.02857142857142856 0.02857142857142856 0.8285714285714285 0.02857142857142856 0.04761904761904762 0.04761904761904762 0.04761904761904762 0.04761904761904762 0.7142857142857142 0.04761904761904762 0.04761904761904762 0.02857142857142856 0.02857142857142856 0.02857142857142856 0.8285714285714284 0.02857142857142856 0.02857142857142856 0.02857142857142856 0.03571428571428572 0.03571428571428572 0.7857142857142859 0.03571428571428572 0.03571428571428572 0.03571428571428572 0.03571428571428572 0.03571428571428572 0.03571428571428572 0.03571428571428572 0.03571428571428572 0.03571428571428572 0.7857142857142859 0.03571428571428572 0.03571428571428571 0.03571428571428571 0.03571428571428571 0.03571428571428571 0.7857142857142857 0.03571428571428571 0.03571428571428571 0.04761904761904762 0.04761904761904762 0.04761904761904762 0.7142857142857143 0.04761904761904762 0.04761904761904762 0.04761904761904762 0.03571428571428572 0.03571428571428572 0.7857142857142859 0.03571428571428572 0.03571428571428572 0.03571428571428572 0.03571428571428572 0.004761904761904761 0.004761904761904761 0.004761904761904761 0.004761904761904761 0.004761904761904761 0.9714285714285714 0.004761904761904761 0.004464285714285714 0.004464285714285714 0.004464285714285714 0.004464285714285714 0.9732142857142857 0.004464285714285714 0.004464285714285714 0.003861003861003859 0.003861003861003859 0.003861003861003859 0.9768339768339765 0.003861003861003859 0.003861003861003859 0.003861003861003859 0.006802721088435376 0.006802721088435376 0.9591836734693879 0.006802721088435376 0.006802721088435376 0.006802721088435376 0.006802721088435376 0.0005952380952380952 0.0005952380952380952 0.0005952380952380952 0.0005952380952380952 0.0005952380952380952 0.9964285714285714 0.0005952380952380952 0.0006901311249137335 0.0006901311249137335 0.0006901311249137335 0.0006901311249137335 0.9958592132505175 0.0006901311249137335 0.0006901311249137335 0.0003195909236177691 0.0003195909236177691 0.0003195909236177691 0.9980824544582932 0.0003195909236177691 0.0003195909236177691 0.0003195909236177691 0.00084530853761623 0.00084530853761623 0.9949281487743027 0.00084530853761623 0.00084530853761623 0.00084530853761623 0.00084530853761623 0.00234192037470726 0.00234192037470726 0.00234192037470726 0.00234192037470726 0.00234192037470726 0.00234192037470726 0.9859484777517565 0.002645502645502645 0.002645502645502645 0.002645502645502645 0.002645502645502645 0.002645502645502645 0.9841269841269842 0.002645502645502645 0.001587301587301588 0.001587301587301588 0.001587301587301588 0.001587301587301588 0.9904761904761906 0.001587301587301588 0.001587301587301588 0.001180637544273908 0.001180637544273908 0.001180637544273908 0.9929161747343566 0.001180637544273908 0.001180637544273908 0.001180637544273908 0.1428571428571429 0.1428571428571429 0.1428571428571429 0.1428571428571429 0.1428571428571429 0.1428571428571429 0.1428571428571429 0.1428571428571429 0.1428571428571429 0.1428571428571429 0.1428571428571429 0.1428571428571429 0.1428571428571429 0.1428571428571429 0.1428571428571429 0.1428571428571429 0.1428571428571429 0.1428571428571429 0.1428571428571429 0.1428571428571429 0.1428571428571429 0.1428571428571429 0.1428571428571429 0.1428571428571429 0.1428571428571429 0.1428571428571429 0.1428571428571429 0.1428571428571429 0.1428571428571429 0.1428571428571429 0.1428571428571429 0.1428571428571429 0.1428571428571429 0.1428571428571429 0.1428571428571429 0.1428571428571429 0.1428571428571429 0.1428571428571429 0.1428571428571429 0.1428571428571429 0.1428571428571429 0.1428571428571429 0.1428571428571429 0.1428571428571429 0.1428571428571429 0.1428571428571429 0.1428571428571429 0.1428571428571429 0.1428571428571429 0.1428571428571429 0.1428571428571429 0.1428571428571429 0.1428571428571429 0.1428571428571429 0.1428571428571429 0.1428571428571429 0.1428571428571429 0.1428571428571429 0.1428571428571429 0.1428571428571429 0.1428571428571429 0.1428571428571429 0.1428571428571429 0.1428571428571429 0.1428571428571429 0.1428571428571429 0.1428571428571429 0.1428571428571429 0.1428571428571429 0.1428571428571429 0.1428571428571429 0.1428571428571429 0.1428571428571429 0.1428571428571429 0.1428571428571429 0.1428571428571429 0.1428571428571429 0.1428571428571429 0.1428571428571429 0.1428571428571429 0.1428571428571429 0.1428571428571429 0.1428571428571429 0.1428571428571429 0.1428571428571429 0.1428571428571429 0.1428571428571429 0.1428571428571429 0.1428571428571429 0.1428571428571429 0.1428571428571429 0.1428571428571429 0.1428571428571429 0.1428571428571429 0.1428571428571429 0.1428571428571429 0.1428571428571429 0.1428571428571429 0.1428571428571429 0.1428571428571429 0.1428571428571429 0.1428571428571429 0.1428571428571429 0.1428571428571429 0.1428571428571429 0.1428571428571429 0.1428571428571429 0.1428571428571429 0.1428571428571429 0.1428571428571429 0.1428571428571429 0.1428571428571429 0.0006644518272425248 0.0006644518272425248 0.0006644518272425248 0.0006644518272425248 0.0006644518272425248 0.0006644518272425248 0.9960132890365448 0.0007107320540156361 0.0007107320540156361 0.0007107320540156361 0.0007107320540156361 0.0007107320540156361 0.9957356076759062 0.0007107320540156361 0.0005065856129685916 0.0005065856129685916 0.0005065856129685916 0.0005065856129685916 0.9969604863221884 0.0005065856129685916 0.0005065856129685916 0.0003052503052503051 0.0003052503052503051 0.0003052503052503051 0.998168498168498 0.0003052503052503051 0.0003052503052503051 0.0003052503052503051 0.04761904761904762 0.04761904761904762 0.04761904761904762 0.04761904761904762 0.04761904761904762 0.04761904761904762 0.7142857142857142 0.02857142857142856 0.02857142857142856 0.02857142857142856 0.02857142857142856 0.02857142857142856 0.8285714285714285 0.02857142857142856 0.0238095238095238 0.0238095238095238 0.0238095238095238 0.0238095238095238 0.857142857142857 0.0238095238095238 0.0238095238095238 0.02040816326530612 0.02040816326530612 0.02040816326530612 0.8775510204081631 0.02040816326530612 0.02040816326530612 0.02040816326530612 0.005714285714285714 0.005714285714285714 0.005714285714285714 0.005714285714285714 0.005714285714285714 0.005714285714285714 0.9657142857142857 0.004926108374384237 0.004926108374384237 0.004926108374384237 0.004926108374384237 0.004926108374384237 0.9704433497536945 0.004926108374384237 0.003322259136212624 0.003322259136212624 0.003322259136212624 0.003322259136212624 0.9800664451827241 0.003322259136212624 0.003322259136212624 0.002421307506053268 0.002421307506053268 0.002421307506053268 0.9854721549636802 0.002421307506053268 0.002421307506053268 0.002421307506053268 0.1428571428571429 0.1428571428571429 0.1428571428571429 0.1428571428571429 0.1428571428571429 0.1428571428571429 0.1428571428571429 0.1428571428571429 0.1428571428571429 0.1428571428571429 0.1428571428571429 0.1428571428571429 0.1428571428571429 0.1428571428571429 0.1428571428571429 0.1428571428571429 0.1428571428571429 0.1428571428571429 0.1428571428571429 0.1428571428571429 0.1428571428571429 0.1428571428571429 0.1428571428571429 0.1428571428571429 0.1428571428571429 0.1428571428571429 0.1428571428571429 0.1428571428571429 0.04761904761904762 0.04761904761904762 0.04761904761904762 0.04761904761904762 0.04761904761904762 0.04761904761904762 0.7142857142857142 0.04761904761904762 0.04761904761904762 0.04761904761904762 0.04761904761904762 0.04761904761904762 0.7142857142857143 0.04761904761904762 0.0238095238095238 0.0238095238095238 0.0238095238095238 0.0238095238095238 0.857142857142857 0.0238095238095238 0.0238095238095238 0.07142857142857144 0.07142857142857144 0.07142857142857144 0.5714285714285715 0.07142857142857144 0.07142857142857144 0.07142857142857144 0.1428571428571429 0.1428571428571429 0.1428571428571429 0.1428571428571429 0.1428571428571429 0.1428571428571429 0.1428571428571429 0.1428571428571429 0.1428571428571429 0.1428571428571429 0.1428571428571429 0.1428571428571429 0.1428571428571429 0.1428571428571429 0.1428571428571429 0.1428571428571429 0.1428571428571429 0.1428571428571429 0.1428571428571429 0.1428571428571429 0.1428571428571429 0.1428571428571429 0.1428571428571429 0.1428571428571429 0.1428571428571429 0.1428571428571429 0.1428571428571429 0.1428571428571429 0.01587301587301587 0.01587301587301587 0.01587301587301587 0.01587301587301587 0.01587301587301587 0.01587301587301587 0.9047619047619047 0.01785714285714286 0.01785714285714286 0.01785714285714286 0.01785714285714286 0.01785714285714286 0.8928571428571429 0.01785714285714286 0.008403361344537815 0.008403361344537815 0.008403361344537815 0.008403361344537815 0.9495798319327731 0.008403361344537815 0.008403361344537815 0.005102040816326531 0.005102040816326531 0.005102040816326531 0.9693877551020409 0.005102040816326531 0.005102040816326531 0.005102040816326531</probabilities>
		</cpt>
		<cpt id="Paidwork">
			<state id="s1_below_8" />
			<state id="s2_8_36" />
			<state id="s3_36_up" />
			<probabilities>0.3048195659992807 0.349418534947848 0.3457618990528714</probabilities>
		</cpt>
		<cpt id="education_alter">
			<state id="State1" />
			<state id="State2" />
			<parents>Age_ego Education_ego Income Paidwork</parents>
			<probabilities>0.5695652173913044 0.4304347826086957 0.5740740740740741 0.4259259259259259 0.05882352941176471 0.9411764705882353 0.6277777777777778 0.3722222222222222 0.4876190476190476 0.5123809523809524 0.35 0.65 0.525 0.475 0.5427350427350428 0.4572649572649573 0.6373056994818653 0.3626943005181347 0.5348837209302325 0.4651162790697674 0.5977011494252873 0.4022988505747127 0.5389221556886227 0.4610778443113772 0.9375 0.0625 0.5 0.5 0.611111111111111 0.3888888888888888 0.3523573200992556 0.6476426799007444 0.3535620052770448 0.6464379947229552 0.5 0.5 0.2735042735042735 0.7264957264957266 0.3611111111111111 0.6388888888888888 0.4117647058823529 0.5882352941176471 0.2666666666666667 0.7333333333333333 0.2757201646090535 0.7242798353909465 0.2880886426592798 0.7119113573407202 0.3125 0.6875 0.1987577639751553 0.8012422360248447 0.299738219895288 0.7002617801047121 0.5 0.5 0.5535714285714285 0.4464285714285714 0.283132530120482 0.7168674698795181 0.6488095238095237 0.3511904761904762 0.7329545454545455 0.2670454545454545 0.6666666666666666 0.3333333333333333 0.743455497382199 0.256544502617801 0.6481012658227848 0.3518987341772152 0.6923076923076923 0.3076923076923077 0.7378640776699028 0.2621359223300971 0.5066666666666666 0.4933333333333333 0.6485507246376812 0.3514492753623188 0.59 0.41 0.8324324324324325 0.1675675675675676 0.6454767726161369 0.3545232273838631 0.5 0.5 0.7708333333333333 0.2291666666666667 0.6621621621621622 0.3378378378378378 0.5581395348837209 0.4418604651162791 0.4078947368421053 0.5921052631578947 0.5 0.5 0.4155844155844156 0.5844155844155845 0.3333333333333333 0.6666666666666666 0.4634146341463415 0.5365853658536586 0.375 0.625 0.2870813397129187 0.7129186602870813 0.3409090909090909 0.6590909090909091 0.4285714285714285 0.5714285714285714 0.337719298245614 0.6622807017543859 0.4844444444444445 0.5155555555555555 0.5 0.5 0.2105263157894737 0.7894736842105263 0.3409893992932862 0.6590106007067138 0.7630662020905923 0.2369337979094077 0.8322147651006712 0.1677852348993289 0.5 0.5 0.7172897196261682 0.2827102803738318 0.6328125 0.3671875 0.9666666666666667 0.03333333333333333 0.7324414715719063 0.2675585284280936 0.5603715170278638 0.4396284829721362 0.7475728155339805 0.2524271844660194 0.7627118644067796 0.2372881355932203 0.5684647302904564 0.4315352697095436 0.7280334728033472 0.2719665271966527 0.7314814814814814 0.2685185185185185 0.6851851851851851 0.3148148148148148 0.6836734693877551 0.3163265306122449 0.3939393939393939 0.6060606060606061 0.5 0.5 0.6428571428571428 0.3571428571428571 0.392156862745098 0.6078431372549019 0.4936708860759493 0.5063291139240507 0.5833333333333333 0.4166666666666666 0.4954954954954955 0.5045045045045045 0.3265306122448979 0.673469387755102 0.375 0.625 0.3398058252427184 0.6601941747572815 0.4142857142857143 0.5857142857142857 0.2990196078431372 0.7009803921568627 0.6060606060606061 0.3939393939393939 0.5371900826446281 0.4628099173553719 0.4454342984409799 0.5545657015590201 0.2162162162162162 0.7837837837837838 0.5 0.5 0.5 0.5 0.7890625 0.2109375 0.75 0.25 0.5 0.5 0.7194656488549618 0.2805343511450382 0.7222222222222222 0.2777777777777778 0.5 0.5 0.8101265822784809 0.189873417721519 0.9814814814814814 0.01851851851851852 0.5 0.5 0.7142857142857143 0.2857142857142857 0.7866666666666667 0.2133333333333333 0.5 0.5 0.5 0.5 0.5 0.5 0.5 0.5 0.5833333333333333 0.4166666666666666 0.5 0.5 0.5 0.5 0.3823529411764706 0.6176470588235294 0.3333333333333333 0.6666666666666666 0.125 0.875 0.4269005847953216 0.5730994152046783 0.5 0.5 0.5 0.5 0.5 0.5 0.4210526315789473 0.5789473684210527 0.4375 0.5625</probabilities>
		</cpt>
		<cpt id="Edu_diff">
			<state id="State_1" />
			<state id="State0" />
			<state id="State1" />
			<parents>Age_ego MaritalStatus Education_ego education_alter</parents>
			<probabilities>0.001371742112482853 0.9972565157750342 0.001371742112482853 0.997113997113997 0.001443001443001443 0.001443001443001443 0.002207505518763797 0.002207505518763797 0.9955849889624725 0.0008912655971479501 0.9982174688057042 0.0008912655971479501 0.0006184291898577611 0.9987631416202843 0.0006184291898577611 0.9982078853046595 0.0008960573476702509 0.0008960573476702509 0.0009578544061302681 0.0009578544061302681 0.9980842911877394 0.0004020908725371933 0.9991958182549255 0.0004020908725371933 0.0007153075822603721 0.9985693848354794 0.0007153075822603721 0.9981273408239701 0.0009363295880149814 0.0009363295880149814 0.00130718954248366 0.00130718954248366 0.9973856209150327 0.0006775067750677507 0.9986449864498645 0.0006775067750677507 0.00177304964539007 0.9964539007092197 0.00177304964539007 0.9967637540453074 0.001618122977346278 0.001618122977346278 0.00186219739292365 0.00186219739292365 0.9962756052141528 0.0009389671361502349 0.9981220657276997 0.0009389671361502349 0.001126126126126126 0.9977477477477479 0.001126126126126126 0.9959595959595958 0.00202020202020202 0.00202020202020202 0.002267573696145124 0.002267573696145124 0.9954648526077098 0.001821493624772313 0.9963570127504553 0.001821493624772313 0.001068376068376068 0.9978632478632481 0.001068376068376068 0.9950248756218903 0.002487562189054725 0.002487562189054725 0.001642036124794745 0.001642036124794745 0.9967159277504105 0.0007993605115907275 0.9984012789768186 0.0007993605115907275 0.0005350454788657034 0.9989299090422685 0.0005350454788657034 0.9979736575481257 0.001013171225937183 0.001013171225937183 0.001041666666666667 0.001041666666666667 0.9979166666666667 0.0006600660066006601 0.9986798679867986 0.0006600660066006601 0.0006901311249137336 0.9986197377501725 0.0006901311249137336 0.9974842767295599 0.001257861635220126 0.001257861635220126 0.002604166666666667 0.002604166666666667 0.9947916666666666 0.00154320987654321 0.9969135802469136 0.00154320987654321 0.0006485084306095978 0.9987029831387807 0.0006485084306095978 0.9965635738831614 0.001718213058419244 0.001718213058419244 0.004444444444444444 0.004444444444444444 0.9911111111111112 0.002544529262086513 0.9949109414758268 0.002544529262086513 0.0003346720214190093 0.999330655957162 0.0003346720214190093 0.9983457402812242 0.000827129859387924 0.000827129859387924 0.0010351966873706 0.0010351966873706 0.9979296066252586 0.0008960573476702509 0.9982078853046595 0.0008960573476702509 0.009523809523809521 0.9809523809523809 0.009523809523809521 0.9753086419753088 0.01234567901234568 0.01234567901234568 0.0196078431372549 0.0196078431372549 0.9607843137254901 0.005747126436781607 0.9885057471264366 0.005747126436781607 0.0005583472920156335 0.9988833054159686 0.0005583472920156335 0.9977851605758583 0.001107419712070875 0.001107419712070875 0.001173708920187793 0.001173708920187793 0.9976525821596244 0.0008936550491510278 0.9982126899016981 0.0008936550491510278 0.001821493624772313 0.9963570127504553 0.001821493624772313 0.9878787878787879 0.00606060606060606 0.00606060606060606 0.009009009009009009 0.009009009009009009 0.9819819819819821 0.006535947712418299 0.9869281045751632 0.006535947712418299 0.0005104645227156711 0.9989790709545685 0.0005104645227156711 0.9971509971509971 0.001424501424501424 0.001424501424501424 0.002583979328165374 0.002583979328165374 0.9948320413436693 0.002083333333333333 0.9958333333333331 0.002083333333333333 0.02380952380952381 0.9523809523809523 0.02380952380952381 0.8666666666666668 0.06666666666666668 0.06666666666666668 0.3333333333333333 0.3333333333333333 0.3333333333333333 0.3333333333333333 0.3333333333333333 0.3333333333333333 0.002849002849002849 0.9943019943019944 0.002849002849002849 0.9833333333333332 0.008333333333333331 0.008333333333333331 0.01388888888888889 0.01388888888888889 0.9722222222222221 0.0101010101010101 0.9797979797979797 0.0101010101010101</probabilities>
		</cpt>
		<cpt id="gender_alter">
			<state id="State1" />
			<state id="State2" />
			<parents>Gender_ego</parents>
			<probabilities>0.5496579680770206 0.4503420319229795 0.3627674101046882 0.6372325898953118</probabilities>
		</cpt>
		<cpt id="Gender_diff">
			<state id="State_1" />
			<state id="State0" />
			<state id="State1" />
			<parents>Gender_ego Householdsize MaritalStatus gender_alter</parents>
			<probabilities>0.0003840245775729646 0.9992319508448539 0.0003840245775729646 0.9990557129367327 0.0004721435316336165 0.0004721435316336165 0.3333333333333333 0.3333333333333333 0.3333333333333333 0.3333333333333333 0.3333333333333333 0.3333333333333333 0.3333333333333333 0.3333333333333333 0.3333333333333333 0.3333333333333333 0.3333333333333333 0.3333333333333333 0.3333333333333333 0.3333333333333333 0.3333333333333333 0.3333333333333333 0.3333333333333333 0.3333333333333333 0.3333333333333333 0.3333333333333333 0.3333333333333333 0.3333333333333333 0.3333333333333333 0.3333333333333333 0.000198294665873488 0.999603410668253 0.000198294665873488 0.9995436915354781 0.0002281542322610085 0.0002281542322610085 0.005464480874316939 0.989071038251366 0.005464480874316939 0.9848484848484848 0.007575757575757574 0.007575757575757574 0.002222222222222222 0.9955555555555554 0.002222222222222222 0.9934640522875818 0.003267973856209151 0.003267973856209151 0.3333333333333333 0.3333333333333333 0.3333333333333333 0.3333333333333333 0.3333333333333333 0.3333333333333333 0.003205128205128205 0.9935897435897436 0.003205128205128205 0.9915611814345993 0.004219409282700422 0.004219409282700422 0.0004655493482309124 0.9990689013035381 0.0004655493482309124 0.9987654320987653 0.0006172839506172838 0.0006172839506172838 0.0004351610095735421 0.9991296779808528 0.0004351610095735421 0.9989417989417989 0.000529100529100529 0.000529100529100529 0.0006127450980392157 0.0006127450980392157 0.9987745098039216 0.0003783579265985622 0.9992432841468027 0.0003783579265985622 0.3333333333333333 0.3333333333333333 0.3333333333333333 0.3333333333333333 0.3333333333333333 0.3333333333333333 0.3333333333333333 0.3333333333333333 0.3333333333333333 0.3333333333333333 0.3333333333333333 0.3333333333333333 0.3333333333333333 0.3333333333333333 0.3333333333333333 0.3333333333333333 0.3333333333333333 0.3333333333333333 0.1666666666666667 0.1666666666666667 0.6666666666666666 0.05555555555555556 0.888888888888889 0.05555555555555556 0.0003202049311559398 0.0003202049311559398 0.999359590137688 0.0001786352268667381 0.9996427295462667 0.0001786352268667381 0.006666666666666666 0.006666666666666666 0.9866666666666667 0.00432900432900433 0.9913419913419915 0.00432900432900433 0.00196078431372549 0.00196078431372549 0.996078431372549 0.001051524710830705 0.9978969505783388 0.001051524710830705 0.04761904761904762 0.04761904761904762 0.9047619047619047 0.04166666666666667 0.9166666666666669 0.04166666666666667 0.004444444444444444 0.004444444444444444 0.9911111111111112 0.00308641975308642 0.9938271604938272 0.00308641975308642 0.0004572473708276177 0.0004572473708276177 0.9990855052583447 0.0002606202762574928 0.9994787594474851 0.0002606202762574928 0.0005757052389176741 0.0005757052389176741 0.9988485895221647 0.0003124023742580444 0.9993751952514841 0.0003124023742580444</probabilities>
		</cpt>
		<cpt id="Duration">
			<state id="State1" />
			<state id="State2" />
			<state id="State3" />
			<parents>Age_ego Householdsize MaritalStatus age_alter</parents>
			<probabilities>0.4695652173913044 0.3060869565217391 0.2243478260869565 0.3942857142857143 0.2742857142857143 0.3314285714285714 0.2035928143712575 0.08982035928143713 0.7065868263473054 0.08974358974358974 0.08974358974358974 0.8205128205128205 0.3333333333333333 0.3333333333333333 0.3333333333333333 0.3333333333333333 0.3333333333333333 0.3333333333333333 0.3333333333333333 0.3333333333333333 0.3333333333333333 0.3333333333333333 0.3333333333333333 0.3333333333333333 0.3333333333333333 0.3333333333333333 0.3333333333333333 0.3333333333333333 0.3333333333333333 0.3333333333333333 0.3333333333333333 0.3333333333333333 0.3333333333333333 0.3333333333333333 0.3333333333333333 0.3333333333333333 0.3333333333333333 0.3333333333333333 0.3333333333333333 0.3333333333333333 0.3333333333333333 0.3333333333333333 0.3333333333333333 0.3333333333333333 0.3333333333333333 0.3333333333333333 0.3333333333333333 0.3333333333333333 0.3333333333333333 0.3333333333333333 0.3333333333333333 0.3333333333333333 0.3333333333333333 0.3333333333333333 0.3333333333333333 0.3333333333333333 0.3333333333333333 0.3333333333333333 0.3333333333333333 0.3333333333333333 0.4281217208814271 0.2738719832109129 0.29800629590766 0.4605678233438485 0.2807570977917981 0.2586750788643533 0.2212121212121212 0.2424242424242424 0.5363636363636364 0.1779141104294479 0.1533742331288344 0.6687116564417178 0.28125 0.34375 0.375 0.3636363636363636 0.2727272727272727 0.3636363636363636 0.2105263157894737 0.05263157894736842 0.7368421052631579 0.3333333333333333 0.08333333333333333 0.5833333333333334 0.2 0.3714285714285714 0.4285714285714285 0.05555555555555555 0.05555555555555555 0.8888888888888888 0.08333333333333333 0.08333333333333333 0.8333333333333334 0.0303030303030303 0.0303030303030303 0.9393939393939394 0.3333333333333333 0.3333333333333333 0.3333333333333333 0.3333333333333333 0.3333333333333333 0.3333333333333333 0.3333333333333333 0.3333333333333333 0.3333333333333333 0.3333333333333333 0.3333333333333333 0.3333333333333333 0.4095238095238096 0.2333333333333334 0.3571428571428572 0.3125 0.21875 0.46875 0.06779661016949153 0.1694915254237288 0.7627118644067796 0.01587301587301587 0.06349206349206349 0.9206349206349205 0.4039580908032596 0.3178114086146682 0.2782305005820722 0.3426573426573427 0.4125874125874126 0.2447552447552448 0.2142857142857143 0.2226890756302521 0.5630252100840336 0.07692307692307693 0.2307692307692308 0.6923076923076924 0.4881170018281535 0.2888482632541133 0.2230347349177331 0.4957264957264958 0.1367521367521368 0.3675213675213675 0.2265625 0.1328125 0.640625 0.06329113924050633 0.0759493670886076 0.8607594936708861 0.3687150837988827 0.3072625698324022 0.3240223463687151 0.2460567823343849 0.3028391167192429 0.4511041009463722 0.2349397590361446 0.2349397590361446 0.5301204819277109 0.176 0.08799999999999999 0.736 0.3333333333333333 0.3333333333333333 0.3333333333333333 0.3333333333333333 0.3333333333333333 0.3333333333333333 0.3333333333333333 0.3333333333333333 0.3333333333333333 0.3333333333333333 0.3333333333333333 0.3333333333333333 0.3333333333333333 0.3333333333333333 0.3333333333333333 0.3333333333333333 0.3333333333333333 0.3333333333333333 0.3333333333333333 0.3333333333333333 0.3333333333333333 0.3333333333333333 0.3333333333333333 0.3333333333333333 0.3333333333333333 0.3333333333333333 0.3333333333333333 0.3333333333333333 0.3333333333333333 0.3333333333333333 0.3333333333333333 0.3333333333333333 0.3333333333333333 0.3333333333333333 0.3333333333333333 0.3333333333333333 0.3333333333333333 0.3333333333333333 0.3333333333333333 0.3333333333333333 0.3333333333333333 0.3333333333333333 0.3333333333333333 0.3333333333333333 0.3333333333333333 0.3333333333333333 0.3333333333333333 0.3333333333333333 0.3231441048034934 0.4017467248908297 0.2751091703056768 0.2372448979591837 0.3724489795918367 0.3903061224489796 0.2071713147410358 0.3346613545816733 0.4581673306772908 0.07647058823529412 0.1588235294117647 0.7647058823529411 0.2884615384615385 0.4038461538461539 0.3076923076923077 0.3953488372093023 0.3255813953488372 0.2790697674418605 0.3913043478260869 0.2173913043478261 0.3913043478260869 0.1111111111111111 0.02777777777777778 0.8611111111111112 0.5 0.25 0.25 0.4117647058823529 0.1764705882352941 0.4117647058823529 0.1111111111111111 0.1111111111111111 0.7777777777777777 0.06666666666666667 0.06666666666666667 0.8666666666666667 0.3333333333333333 0.3333333333333333 0.3333333333333333 0.3333333333333333 0.3333333333333333 0.3333333333333333 0.3333333333333333 0.3333333333333333 0.3333333333333333 0.3333333333333333 0.3333333333333333 0.3333333333333333 0.03703703703703703 0.03703703703703703 0.9259259259259259 0.05555555555555555 0.05555555555555555 0.8888888888888888 0.3333333333333333 0.3333333333333333 0.3333333333333333 0.04166666666666666 0.04166666666666666 0.9166666666666666 0.3747323340471092 0.4282655246252677 0.1970021413276231 0.2329700272479564 0.337874659400545 0.4291553133514986 0.2459677419354839 0.3548387096774194 0.3991935483870968 0.06666666666666667 0.241025641025641 0.6923076923076923 0.37117903930131 0.3318777292576419 0.296943231441048 0.247787610619469 0.334070796460177 0.418141592920354 0.1155555555555556 0.3066666666666666 0.5777777777777777 0.0625 0.09722222222222221 0.8402777777777777 0.4027777777777777 0.2847222222222222 0.3125 0.2575757575757576 0.297979797979798 0.4444444444444445 0.2307692307692308 0.1618037135278514 0.6074270557029178 0.1453488372093023 0.1918604651162791 0.6627906976744186 0.3333333333333333 0.3333333333333333 0.3333333333333333 0.3333333333333333 0.3333333333333333 0.3333333333333333 0.3333333333333333 0.3333333333333333 0.3333333333333333 0.3333333333333333 0.3333333333333333 0.3333333333333333 0.3333333333333333 0.3333333333333333 0.3333333333333333 0.3333333333333333 0.3333333333333333 0.3333333333333333 0.3333333333333333 0.3333333333333333 0.3333333333333333 0.3333333333333333 0.3333333333333333 0.3333333333333333 0.3333333333333333 0.3333333333333333 0.3333333333333333 0.3333333333333333 0.3333333333333333 0.3333333333333333 0.3333333333333333 0.3333333333333333 0.3333333333333333 0.3333333333333333 0.3333333333333333 0.3333333333333333 0.3333333333333333 0.3333333333333333 0.3333333333333333 0.3333333333333333 0.3333333333333333 0.3333333333333333 0.05555555555555555 0.2222222222222222 0.7222222222222221 0.1666666666666667 0.1666666666666667 0.6666666666666666 0.3115577889447236 0.3366834170854272 0.3517587939698493 0.2560975609756098 0.3219512195121951 0.4219512195121951 0.1192771084337349 0.2024096385542169 0.6783132530120483 0.075 0.175 0.75 0.5416666666666666 0.04166666666666666 0.4166666666666667 0.1666666666666667 0.6666666666666667 0.1666666666666667 0.3333333333333333 0.3333333333333333 0.3333333333333333 0.04761904761904762 0.4761904761904762 0.4761904761904762 0.2068965517241379 0.1896551724137931 0.603448275862069 0.1518987341772152 0.2278481012658228 0.620253164556962 0.07772020725388601 0.1917098445595855 0.7305699481865285 0.03846153846153846 0.1634615384615385 0.7980769230769231 0.06666666666666667 0.06666666666666667 0.8666666666666667 0.1111111111111111 0.1111111111111111 0.7777777777777778 0.2666666666666667 0.06666666666666667 0.6666666666666667 0.08333333333333333 0.3333333333333333 0.5833333333333334 0.08333333333333333 0.5833333333333334 0.3333333333333333 0.3333333333333333 0.5833333333333334 0.08333333333333333 0.7777777777777777 0.1111111111111111 0.1111111111111111 0.08333333333333333 0.3333333333333333 0.5833333333333334 0.3103448275862069 0.3793103448275862 0.3103448275862069 0.2903225806451613 0.3870967741935484 0.3225806451612903 0.08333333333333333 0.1944444444444444 0.7222222222222222 0.15 0.05 0.8 0.2133891213389121 0.2384937238493724 0.5481171548117154 0.174757281553398 0.3592233009708737 0.4660194174757281 0.08071748878923767 0.195067264573991 0.7242152466367713 0.03571428571428571 0.1011904761904762 0.863095238095238 0.2166666666666667 0.4333333333333333 0.35 0.2075471698113207 0.1509433962264151 0.6415094339622641 0.1910112359550562 0.247191011235955 0.5617977528089888 0.1 0.225 0.675 0.3333333333333333 0.3333333333333333 0.3333333333333333 0.3333333333333333 0.3333333333333333 0.3333333333333333 0.3333333333333333 0.3333333333333333 0.3333333333333333 0.3333333333333333 0.3333333333333333 0.3333333333333333 0.3333333333333333 0.3333333333333333 0.3333333333333333 0.3333333333333333 0.3333333333333333 0.3333333333333333 0.3333333333333333 0.3333333333333333 0.3333333333333333 0.3333333333333333 0.3333333333333333 0.3333333333333333 0.3333333333333333 0.3333333333333333 0.3333333333333333 0.3333333333333333 0.3333333333333333 0.3333333333333333 0.3333333333333333 0.3333333333333333 0.3333333333333333 0.3333333333333333 0.3333333333333333 0.3333333333333333 0.3333333333333333 0.3333333333333333 0.3333333333333333 0.3333333333333333 0.3333333333333333 0.3333333333333333 0.3333333333333333 0.3333333333333333 0.3333333333333333 0.3333333333333333 0.3333333333333333 0.3333333333333333 0.2383177570093458 0.3317757009345794 0.4299065420560748 0.15 0.28 0.5700000000000001 0.1672597864768683 0.2135231316725978 0.6192170818505338 0.1092077087794433 0.2419700214132763 0.6488222698072805 0.1111111111111111 0.4444444444444444 0.4444444444444444 0.06666666666666667 0.06666666666666667 0.8666666666666667 0.2 0.2 0.6000000000000001 0.04761904761904762 0.3333333333333333 0.619047619047619 0.2916666666666666 0.4166666666666666 0.2916666666666666 0.2142857142857143 0.1428571428571428 0.6428571428571428 0.119047619047619 0.09523809523809523 0.7857142857142857 0.1896551724137931 0.08620689655172414 0.7241379310344828 0.3333333333333333 0.3333333333333333 0.3333333333333333 0.3333333333333333 0.3333333333333333 0.3333333333333333 0.3333333333333333 0.3333333333333333 0.3333333333333333 0.3333333333333333 0.3333333333333333 0.3333333333333333 0.1111111111111111 0.4444444444444444 0.4444444444444444 0.1111111111111111 0.7777777777777777 0.1111111111111111 0.05555555555555556 0.888888888888889 0.05555555555555556 0.1666666666666667 0.1666666666666667 0.6666666666666666 0.3333333333333333 0.3333333333333333 0.3333333333333333 0.3333333333333333 0.3333333333333333 0.3333333333333333 0.3333333333333333 0.3333333333333333 0.3333333333333333 0.3333333333333333 0.3333333333333333 0.3333333333333333 0.25 0.375 0.375 0.04166666666666666 0.1666666666666667 0.7916666666666666 0.1875 0.125 0.6875 0.07407407407407407 0.2592592592592592 0.6666666666666666</probabilities>
		</cpt>
		<cpt id="Distance">
			<state id="State1" />
			<state id="State2" />
			<state id="State3" />
			<state id="State4" />
			<state id="State5" />
			<parents>Householdsize MaritalStatus age_alter education_alter</parents>
			<probabilities>0.2694174757281553 0.3252427184466019 0.1941747572815534 0.145631067961165 0.06553398058252427 0.1904761904761905 0.3461538461538461 0.2289377289377289 0.173992673992674 0.06043956043956044 0.3422459893048128 0.2780748663101604 0.2085561497326203 0.1336898395721925 0.0374331550802139 0.1598915989159892 0.3495934959349594 0.3224932249322493 0.1084010840108401 0.05962059620596206 0.3468085106382979 0.3042553191489362 0.174468085106383 0.1382978723404255 0.03617021276595745 0.2036474164133739 0.3252279635258359 0.2310030395136778 0.182370820668693 0.05775075987841945 0.3633879781420765 0.2486338797814208 0.1557377049180328 0.1639344262295082 0.06830601092896176 0.1937984496124031 0.2325581395348837 0.2713178294573643 0.2713178294573643 0.0310077519379845 0.2 0.2 0.2 0.2 0.2 0.2 0.2 0.2 0.2 0.2 0.2 0.2 0.2 0.2 0.2 0.2 0.2 0.2 0.2 0.2 0.2 0.2 0.2 0.2 0.2 0.2 0.2 0.2 0.2 0.2 0.2 0.2 0.2 0.2 0.2 0.2 0.2 0.2 0.2 0.2 0.2 0.2 0.2 0.2 0.2 0.2 0.2 0.2 0.2 0.2 0.2 0.2 0.2 0.2 0.2 0.2 0.2 0.2 0.2 0.2 0.2 0.2 0.2 0.2 0.2 0.2 0.2 0.2 0.2 0.2 0.2 0.2 0.2 0.2 0.2 0.2 0.2 0.2 0.2 0.2 0.2 0.2 0.2 0.2 0.2 0.2 0.2 0.2 0.2 0.2 0.2 0.2 0.2 0.2 0.2 0.2 0.2 0.2 0.2 0.2 0.2 0.2 0.2 0.2 0.2 0.2 0.2 0.2 0.2 0.2 0.2 0.2 0.2 0.2 0.2 0.2 0.2 0.2 0.2 0.2 0.2 0.2 0.2 0.2 0.2 0.2 0.2 0.2 0.2 0.2 0.2 0.2 0.2 0.2 0.2 0.2 0.2 0.2 0.2 0.2 0.3666666666666666 0.2 0.03333333333333333 0.3666666666666666 0.03333333333333333 0.2 0.2 0.2 0.2 0.2 0.6000000000000001 0.1 0.1 0.1 0.1 0.2 0.2 0.2 0.2 0.2 0.3023872679045093 0.3063660477453581 0.2095490716180371 0.1644562334217506 0.01724137931034483 0.1375 0.3067307692307693 0.2836538461538461 0.2269230769230769 0.0451923076923077 0.3333333333333333 0.3348348348348348 0.1891891891891892 0.1261261261261261 0.01651651651651652 0.1944869831546708 0.2603369065849924 0.3047473200612558 0.1929555895865238 0.04747320061255743 0.2591463414634146 0.282520325203252 0.2621951219512195 0.1758130081300813 0.02032520325203252 0.1751412429378531 0.3192090395480226 0.2514124293785311 0.2076271186440678 0.04661016949152542 0.2912513842746401 0.274640088593577 0.221483942414175 0.1882613510520487 0.02436323366555924 0.1928783382789317 0.2908011869436202 0.2492581602373887 0.1869436201780416 0.08011869436201781 0.2608695652173913 0.3695652173913043 0.2173913043478261 0.04347826086956522 0.108695652173913 0.148936170212766 0.2553191489361702 0.1702127659574468 0.2340425531914894 0.1914893617021277 0.3571428571428571 0.3214285714285714 0.25 0.03571428571428571 0.03571428571428571 0.06451612903225806 0.2580645161290323 0.4193548387096774 0.1612903225806452 0.09677419354838709 0.3548387096774194 0.3870967741935484 0.09677419354838709 0.03225806451612903 0.1290322580645161 0.05263157894736842 0.1578947368421053 0.1578947368421053 0.2105263157894737 0.4210526315789473 0.1578947368421053 0.4210526315789473 0.2105263157894737 0.05263157894736842 0.1578947368421053 0.025 0.275 0.65 0.025 0.025 0.2597938144329897 0.3525773195876288 0.2391752577319587 0.1463917525773195 0.002061855670103092 0.1264367816091954 0.2413793103448276 0.3218390804597701 0.1954022988505747 0.1149425287356322 0.2985074626865671 0.208955223880597 0.3134328358208955 0.1492537313432836 0.02985074626865672 0.2419354838709677 0.2903225806451613 0.1935483870967742 0.2580645161290323 0.01612903225806452 0.2937062937062937 0.3846153846153846 0.1888111888111888 0.1048951048951049 0.02797202797202797 0.2115384615384616 0.3076923076923077 0.2692307692307693 0.1730769230769231 0.03846153846153846 0.2517985611510791 0.223021582733813 0.2517985611510791 0.1798561151079137 0.09352517985611511 0.3513513513513514 0.1891891891891892 0.1891891891891892 0.2432432432432433 0.02702702702702703 0.1 0.6000000000000001 0.1 0.1 0.1 0.7999999999999998 0.04999999999999999 0.04999999999999999 0.04999999999999999 0.04999999999999999 0.06666666666666665 0.7333333333333333 0.06666666666666665 0.06666666666666665 0.06666666666666665 0.2 0.2 0.2 0.2 0.2 0.03999999999999999 0.4399999999999999 0.2399999999999999 0.2399999999999999 0.03999999999999999 0.2 0.2 0.2 0.2 0.2 0.2999999999999999 0.5499999999999999 0.04999999999999999 0.04999999999999999 0.04999999999999999 0.2 0.2 0.2 0.2 0.2 0.2407407407407407 0.3888888888888888 0.1388888888888889 0.2222222222222222 0.009259259259259259 0.09565217391304348 0.4086956521739131 0.2347826086956522 0.1826086956521739 0.0782608695652174 0.3153846153846154 0.1615384615384615 0.2384615384615385 0.2769230769230769 0.007692307692307693 0.1222222222222222 0.2888888888888889 0.4 0.1777777777777778 0.01111111111111111 0.4526315789473684 0.005263157894736842 0.1894736842105263 0.3473684210526315 0.005263157894736842 0.2758620689655172 0.03448275862068965 0.4482758620689655 0.1724137931034483 0.06896551724137931 0.1777777777777778 0.1777777777777778 0.1222222222222222 0.5111111111111111 0.01111111111111111 0.4133333333333333 0.08 0.08 0.4133333333333333 0.01333333333333333 0.5301587301587302 0.2285714285714286 0.1333333333333333 0.09523809523809523 0.0126984126984127 0.1862068965517241 0.3724137931034482 0.2468965517241379 0.1710344827586207 0.02344827586206896 0.296127562642369 0.3052391799544419 0.2437357630979499 0.132118451025057 0.02277904328018223 0.2254901960784314 0.3366013071895425 0.2777777777777778 0.1290849673202615 0.03104575163398693 0.3241379310344827 0.2862068965517242 0.196551724137931 0.1724137931034483 0.02068965517241379 0.2758620689655172 0.3060344827586207 0.2327586206896552 0.1422413793103448 0.04310344827586207 0.175 0.325 0.2625 0.1916666666666667 0.04583333333333333 0.1956521739130435 0.3043478260869565 0.1847826086956522 0.2717391304347826 0.04347826086956522 0.5177777777777778 0.28 0.08222222222222222 0.09333333333333334 0.02666666666666666 0.2862129144851658 0.3403141361256545 0.2321116928446771 0.1082024432809773 0.03315881326352531 0.3870967741935484 0.3172043010752689 0.1935483870967742 0.09408602150537636 0.008064516129032258 0.2658536585365854 0.3195121951219512 0.2658536585365854 0.1317073170731707 0.01707317073170732 0.3808353808353808 0.3194103194103194 0.171990171990172 0.1253071253071253 0.002457002457002457 0.2794117647058824 0.2524509803921569 0.2156862745098039 0.2181372549019608 0.03431372549019608 0.2138364779874214 0.2893081761006289 0.2735849056603774 0.2012578616352201 0.0220125786163522 0.3 0.17 0.24 0.22 0.07000000000000001</probabilities>
		</cpt>
		<cpt id="Visit">
			<state id="never" />
			<state id="very_high" />
			<state id="high" />
			<state id="low" />
			<state id="very_low" />
			<parents>Age_ego Age_diff Duration Distance</parents>
			<probabilities>0.3125 0.0625 0.1875 0.0625 0.375 0.275 0.025 0.4 0.275 0.025 0.02222222222222222 0.02222222222222222 0.02222222222222222 0.4666666666666667 0.4666666666666667 0.06 0.01 0.01 0.5599999999999999 0.36 0.1 0.1 0.1 0.1 0.6 0.2695652173913043 0.008695652173913044 0.1391304347826087 0.4 0.1826086956521739 0.1047619047619048 0.009523809523809525 0.3904761904761904 0.2476190476190476 0.2476190476190476 0.01333333333333333 0.08 0.1466666666666667 0.2133333333333333 0.5466666666666666 0.01818181818181818 0.01818181818181818 0.01818181818181818 0.4727272727272728 0.4727272727272728 0.2 0.2 0.2 0.2 0.2 0.25 0.1071428571428571 0.375 0.1785714285714285 0.08928571428571427 0.06 0.01 0.22 0.39 0.32 0.08163265306122448 0.01020408163265306 0.07142857142857142 0.3265306122448979 0.5102040816326531 0.05526315789473684 0.002631578947368421 0.002631578947368421 0.3578947368421052 0.5815789473684211 0.08333333333333333 0.04166666666666666 0.04166666666666666 0.2083333333333333 0.625 0.3137254901960784 0.0196078431372549 0.196078431372549 0.1568627450980392 0.3137254901960784 0.1481481481481481 0.1111111111111111 0.2592592592592592 0.3148148148148148 0.1666666666666667 0.376271186440678 0.003389830508474577 0.1050847457627119 0.3254237288135593 0.1898305084745762 0.1555555555555556 0.007407407407407408 0.08148148148148149 0.6 0.1555555555555556 0.7428571428571429 0.02857142857142857 0.02857142857142857 0.02857142857142857 0.1714285714285714 0.3529411764705882 0.05882352941176471 0.1176470588235294 0.1764705882352941 0.2941176470588235 0.1728813559322034 0.003389830508474577 0.3423728813559322 0.2915254237288136 0.1898305084745762 0.1025641025641026 0.05128205128205128 0.1794871794871795 0.4102564102564102 0.2564102564102564 0.05 0.008333333333333333 0.09166666666666667 0.5499999999999999 0.3 0.03333333333333333 0.03333333333333333 0.03333333333333333 0.03333333333333333 0.8666666666666667 0.2116788321167883 0.291970802919708 0.2627737226277372 0.1532846715328467 0.08029197080291971 0.1134751773049645 0.03546099290780141 0.326241134751773 0.2411347517730496 0.2836879432624113 0.1283582089552239 0.001492537313432836 0.1656716417910448 0.2626865671641791 0.4417910447761194 0.2311111111111111 0.001481481481481482 0.03851851851851852 0.2681481481481482 0.4607407407407408 0.1103448275862069 0.04137931034482759 0.006896551724137931 0.1103448275862069 0.7310344827586207 0.3161764705882353 0.07352941176470588 0.07352941176470588 0.2132352941176471 0.3235294117647059 0.3235294117647059 0.009803921568627451 0.1372549019607843 0.2549019607843137 0.2745098039215687 0.5807017543859649 0.001754385964912281 0.03684210526315789 0.1245614035087719 0.2561403508771929 0.5666666666666667 0.03333333333333333 0.03333333333333333 0.1333333333333333 0.2333333333333333 0.04000000000000001 0.04000000000000001 0.04000000000000001 0.04000000000000001 0.8400000000000001 0.4902439024390244 0.002439024390243902 0.124390243902439 0.1121951219512195 0.2707317073170731 0.2197802197802198 0.01098901098901099 0.1648351648351649 0.3186813186813187 0.2857142857142858 0.1643835616438356 0.0136986301369863 0.0684931506849315 0.1780821917808219 0.5753424657534246 0.1066666666666667 0.006666666666666667 0.006666666666666667 0.04 0.84 0.15 0.025 0.15 0.15 0.525 0.3404255319148936 0.2127659574468085 0.1914893617021277 0.1702127659574468 0.0851063829787234 0.06582278481012659 0.002531645569620253 0.2683544303797468 0.3189873417721519 0.3443037974683544 0.1436619718309859 0.002816901408450704 0.03098591549295775 0.1859154929577465 0.6366197183098592 0.226865671641791 0.002985074626865672 0.04776119402985075 0.1074626865671642 0.6149253731343284 0.01176470588235294 0.01176470588235294 0.07058823529411765 0.07058823529411765 0.8352941176470587 0.2583333333333334 0.1555555555555556 0.1583333333333333 0.2 0.2277777777777778 0.3190661478599222 0.01945525291828794 0.1595330739299611 0.2801556420233463 0.2217898832684825 0.3814814814814815 0.01481481481481482 0.0962962962962963 0.162962962962963 0.3444444444444444 0.3798076923076923 0.009615384615384616 0.07211538461538462 0.2115384615384616 0.3269230769230769 0.2372093023255814 0.004651162790697674 0.02790697674418605 0.09767441860465116 0.6325581395348837 0.2967479674796748 0.1707317073170732 0.1422764227642277 0.2235772357723577 0.1666666666666667 0.1369047619047619 0.008928571428571428 0.2261904761904762 0.3422619047619048 0.2857142857142857 0.1570680628272251 0.01570680628272252 0.08900523560209425 0.3089005235602094 0.4293193717277487 0.1450381679389313 0.02290076335877863 0.08396946564885496 0.282442748091603 0.4656488549618321 0.2421052631578947 0.005263157894736842 0.03157894736842105 0.05789473684210526 0.6631578947368421 0.2066666666666667 0.2 0.26 0.2 0.1333333333333333 0.2350427350427351 0.02136752136752137 0.1666666666666667 0.2991452991452992 0.2777777777777778 0.2016806722689076 0.008403361344537815 0.06302521008403361 0.2605042016806722 0.4663865546218487 0.1844660194174757 0.004854368932038835 0.02427184466019417 0.1650485436893204 0.6213592233009708 0.125 0.02083333333333333 0.04166666666666666 0.04166666666666666 0.7708333333333333 0.2 0.2 0.2 0.2 0.2 0.2 0.2 0.2 0.2 0.2 0.2 0.2 0.2 0.2 0.2 0.2 0.2 0.2 0.2 0.2 0.2 0.2 0.2 0.2 0.2 0.2 0.2 0.2 0.2 0.2 0.2 0.2 0.2 0.2 0.2 0.2 0.2 0.2 0.2 0.2 0.2 0.2 0.2 0.2 0.2 0.2 0.2 0.2 0.2 0.2 0.2 0.2 0.2 0.2 0.2 0.2 0.2 0.2 0.2 0.2 0.2 0.2 0.2 0.2 0.2 0.2 0.2 0.2 0.2 0.2 0.2 0.2 0.2 0.2 0.2 0.2 0.2 0.2 0.2 0.2 0.2 0.2 0.2 0.2 0.2 0.2 0.2 0.2 0.2 0.2 0.2 0.2 0.2 0.2 0.2 0.2 0.2 0.2 0.2 0.2 0.2 0.2 0.2 0.2 0.2 0.2 0.2 0.2 0.2 0.2 0.2 0.2 0.2 0.2 0.2 0.2 0.2 0.2 0.2 0.2 0.2 0.2 0.2 0.2 0.2 0.2 0.2 0.2 0.2 0.2 0.2 0.2 0.2 0.2 0.2 0.2 0.2 0.2 0.2 0.2 0.2 0.2 0.2 0.2 0.2 0.2 0.2 0.2 0.2 0.2 0.2 0.2 0.2 0.2 0.2 0.2 0.2 0.2 0.2 0.2 0.2 0.2 0.2 0.2 0.2 0.2 0.2 0.2 0.2 0.2 0.2 0.2 0.2 0.2 0.2 0.2 0.2 0.2 0.2 0.2 0.2 0.2 0.2 0.2 0.2 0.2 0.2 0.2 0.2 0.2 0.2 0.2 0.2 0.2 0.2 0.2 0.2 0.2 0.2 0.2 0.2 0.2 0.2 0.2 0.2 0.2 0.2 0.2 0.2 0.2 0.2 0.2 0.2 0.2 0.2 0.2 0.2 0.2 0.2 0.2 0.2 0.2 0.2 0.2 0.2 0.2 0.2 0.2 0.2 0.2 0.2 0.2 0.2 0.2 0.2 0.2 0.2 0.2 0.2 0.2 0.2 0.2 0.2 0.2 0.2 0.2 0.2 0.2 0.2 0.2 0.2 0.2 0.2 0.2 0.2 0.2 0.2 0.2 0.2 0.2 0.2 0.2 0.2 0.2 0.2 0.2 0.2 0.2 0.2 0.2 0.2 0.2 0.2 0.2 0.2 0.2 0.2 0.2 0.2 0.2 0.2 0.2 0.2 0.2 0.2 0.2 0.2 0.2 0.2 0.2 0.2 0.2 0.2 0.2 0.2 0.2 0.2 0.2 0.2 0.2 0.1764705882352941 0.05882352941176471 0.2352941176470588 0.2647058823529412 0.2647058823529412 0.4769230769230769 0.01538461538461539 0.3230769230769231 0.09230769230769231 0.09230769230769231 0.3200000000000001 0.02 0.02 0.52 0.12 0.05 0.05 0.05 0.3 0.55 0.2 0.2 0.2 0.2 0.2 0.1822222222222222 0.004444444444444444 0.2044444444444444 0.1377777777777778 0.4711111111111111 0.1481481481481481 0.1111111111111111 0.1481481481481481 0.2592592592592592 0.3333333333333333 0.009090909090909092 0.009090909090909092 0.1909090909090909 0.2363636363636364 0.5545454545454546 0.025 0.025 0.025 0.525 0.4 0.2 0.2 0.2 0.2 0.2 0.02857142857142857 0.1571428571428571 0.5142857142857142 0.1142857142857143 0.1857142857142857 0.07142857142857144 0.02747252747252748 0.4450549450549451 0.2747252747252747 0.1813186813186813 0.06029411764705882 0.001470588235294118 0.06764705882352941 0.3911764705882353 0.4794117647058824 0.1333333333333333 0.01111111111111111 0.06666666666666667 0.2666666666666667 0.5222222222222223 0.1826086956521739 0.008695652173913044 0.008695652173913044 0.05217391304347826 0.7478260869565216 0.4320987654320987 0.01234567901234568 0.1728395061728395 0.08641975308641975 0.2962962962962963 0.4814814814814815 0.03703703703703703 0.1481481481481481 0.1481481481481481 0.1851851851851852 0.4195121951219512 0.004878048780487806 0.02926829268292683 0.2 0.3463414634146341 0.4 0.01538461538461539 0.01538461538461539 0.09230769230769231 0.4769230769230769 0.6000000000000001 0.1 0.1 0.1 0.1 0.2764227642276423 0.03252032520325204 0.0975609756097561 0.2195121951219512 0.3739837398373984 0.1764705882352941 0.03529411764705882 0.2 0.2235294117647059 0.3647058823529412 0.3433962264150943 0.003773584905660377 0.07924528301886792 0.1735849056603773 0.4 0.248 0.008 0.008 0.208 0.528 0.06666666666666667 0.4 0.06666666666666667 0.06666666666666667 0.4 0.09183673469387754 0.04081632653061224 0.2551020408163265 0.2244897959183673 0.3877551020408163 0.1407407407407407 0.01481481481481482 0.162962962962963 0.2666666666666667 0.4148148148148149 0.1458333333333333 0.01041666666666667 0.1145833333333333 0.1979166666666667 0.53125 0.1791666666666666 0.002083333333333333 0.002083333333333333 0.1791666666666666 0.6375 0.128 0.008 0.008 0.08800000000000001 0.768 0.3609467455621302 0.04733727810650887 0.136094674556213 0.09467455621301775 0.3609467455621302 0.3353658536585366 0.01829268292682927 0.1463414634146342 0.2439024390243902 0.2560975609756098 0.4092592592592593 0.001851851851851852 0.08518518518518517 0.1314814814814815 0.3722222222222222 0.3 0.005882352941176471 0.1235294117647059 0.1235294117647059 0.4470588235294117 0.5333333333333332 0.2 0.2 0.03333333333333333 0.03333333333333333 0.2326732673267327 0.0297029702970297 0.09900990099009901 0.2475247524752475 0.3910891089108911 0.184331797235023 0.01382488479262673 0.2027649769585254 0.2258064516129032 0.3732718894009217 0.2592592592592592 0.01851851851851852 0.08024691358024691 0.1728395061728395 0.4691358024691358 0.1777777777777778 0.003174603174603175 0.003174603174603175 0.1619047619047619 0.653968253968254 0.075 0.0125 0.0125 0.1375 0.7625 0.104 0.08 0.184 0.264 0.368 0.06857142857142856 0.0007142857142857143 0.1328571428571429 0.3542857142857143 0.4435714285714286 0.1166666666666667 0.008333333333333333 0.0625 0.2333333333333333 0.5791666666666666 0.1875862068965517 0.001379310344827586 0.001379310344827586 0.09793103448275861 0.7117241379310345 0.2486486486486486 0.005405405405405406 0.005405405405405406 0.03243243243243243 0.7081081081081081 0.3020833333333333 0.25 0.078125 0.2083333333333333 0.1614583333333333 0.3322314049586776 0.001652892561983471 0.2165289256198347 0.2743801652892562 0.1752066115702479 0.4414634146341463 0.002439024390243902 0.07560975609756097 0.07560975609756097 0.4048780487804878 0.2 0.009523809523809525 0.05714285714285713 0.1523809523809524 0.5809523809523809 0.3142857142857143 0.02857142857142857 0.02857142857142857 0.02857142857142857 0.6 0.3106796116504854 0.2233009708737864 0.09223300970873785 0.1359223300970874 0.2378640776699029 0.1018181818181818 0.001818181818181818 0.2381818181818182 0.32 0.3381818181818182 0.3041095890410959 0.00273972602739726 0.03013698630136986 0.2219178082191781 0.4410958904109589 0.1358490566037736 0.003773584905660377 0.003773584905660377 0.07924528301886792 0.7773584905660378 0.15 0.025 0.025 0.025 0.775 0.3125 0.3125 0.0625 0.1041666666666667 0.2083333333333333 0.1051546391752577 0.002061855670103093 0.156701030927835 0.331958762886598 0.4041237113402062 0.07222222222222222 0.002777777777777778 0.08611111111111111 0.2111111111111111 0.6277777777777778 0.2263157894736842 0.002631578947368421 0.002631578947368421 0.09473684210526316 0.6736842105263158 0.06666666666666667 0.01111111111111111 0.01111111111111111 0.06666666666666667 0.8444444444444443 0.2 0.2 0.2 0.2 0.2 0.2 0.2 0.2 0.2 0.2 0.2 0.2 0.2 0.2 0.2 0.2 0.2 0.2 0.2 0.2 0.2 0.2 0.2 0.2 0.2 0.2 0.2 0.2 0.2 0.2 0.2 0.2 0.2 0.2 0.2 0.2 0.2 0.2 0.2 0.2 0.2 0.2 0.2 0.2 0.2 0.2 0.2 0.2 0.2 0.2 0.2 0.2 0.2 0.2 0.2 0.2 0.2 0.2 0.2 0.2 0.2 0.2 0.2 0.2 0.2 0.2 0.2 0.2 0.2 0.2 0.2 0.2 0.2 0.2 0.2 0.2 0.2 0.2 0.2 0.2 0.2 0.2 0.2 0.2 0.2 0.2 0.2 0.2 0.2 0.2 0.2 0.2 0.2 0.2 0.2 0.2 0.2 0.2 0.2 0.2 0.2 0.2 0.2 0.2 0.2 0.2 0.2 0.2 0.2 0.2 0.2 0.2 0.2 0.2 0.2 0.2 0.2 0.2 0.2 0.2 0.2 0.2 0.2 0.2 0.2 0.2 0.2 0.2 0.2 0.2 0.2 0.2 0.2 0.2 0.2 0.2 0.2 0.2 0.2 0.2 0.2 0.2 0.2 0.2 0.2 0.2 0.2 0.2 0.2 0.2 0.2 0.2 0.2 0.2 0.2 0.2 0.2 0.2 0.2 0.2 0.2 0.2 0.2 0.2 0.2 0.2 0.2 0.2 0.2 0.2 0.2 0.2 0.2 0.2 0.2 0.2 0.2 0.2 0.2 0.2 0.2 0.2 0.2 0.2 0.2 0.2 0.2 0.2 0.2 0.2 0.2 0.2 0.2 0.2 0.2 0.2 0.2 0.2 0.2 0.2 0.2 0.2 0.2 0.2 0.2 0.2 0.2 0.2 0.2 0.2 0.2 0.2 0.2 0.2 0.2 0.2 0.2 0.2 0.2 0.2 0.2 0.2 0.2 0.2 0.2 0.2 0.2 0.2 0.2 0.2 0.2 0.2 0.2 0.2 0.2 0.2 0.2 0.2 0.2 0.2 0.2 0.2 0.2 0.2 0.2 0.2 0.2 0.2 0.2 0.2 0.2 0.2 0.2 0.2 0.2 0.2 0.2 0.2 0.2 0.2 0.2 0.2 0.2 0.2 0.2 0.2 0.2 0.2 0.2 0.2 0.2 0.2 0.2 0.2 0.2 0.2 0.2 0.2 0.2 0.2 0.2 0.2 0.2 0.2 0.2 0.2 0.2 0.2 0.2 0.2 0.2 0.2 0.2 0.2 0.2 0.2 0.2 0.2 0.2 0.2 0.2181818181818182 0.006060606060606061 0.2484848484848485 0.2484848484848485 0.2787878787878788 0.3333333333333333 0.04761904761904762 0.04761904761904762 0.3333333333333333 0.2380952380952381 0.1090909090909091 0.01818181818181818 0.2 0.290909090909091 0.3818181818181818 0.4 0.025 0.025 0.275 0.275 0.1 0.1 0.1 0.1 0.6 0.2857142857142858 0.03896103896103896 0.2337662337662338 0.1818181818181818 0.2597402597402598 0.07096774193548387 0.006451612903225806 0.2 0.3612903225806451 0.3612903225806451 0.1222222222222222 0.06666666666666667 0.01111111111111111 0.2333333333333333 0.5666666666666665 0.06315789473684209 0.01052631578947368 0.1157894736842105 0.2736842105263158 0.5368421052631578 0.2444444444444445 0.02222222222222222 0.02222222222222222 0.02222222222222222 0.6888888888888889 0.1219512195121951 0.06707317073170732 0.2378048780487805 0.2073170731707317 0.3658536585365854 0.04402515723270441 0.01257861635220126 0.270440251572327 0.3081761006289309 0.3647798742138365 0.1321428571428571 0.001190476190476191 0.08452380952380951 0.280952380952381 0.5011904761904762 0.1254237288135593 0.001129943502824859 0.0463276836158192 0.176271186440678 0.6508474576271187 0.2 0.03870967741935483 0.006451612903225806 0.03870967741935483 0.7161290322580645 0.2465753424657534 0.0410958904109589 0.136986301369863 0.273972602739726 0.3013698630136986 0.2142857142857143 0.0119047619047619 0.119047619047619 0.2023809523809524 0.4523809523809523 0.337037037037037 0.003703703703703704 0.02222222222222222 0.262962962962963 0.3740740740740741 0.5071428571428572 0.007142857142857144 0.007142857142857144 0.07857142857142858 0.4 0.4 0.025 0.025 0.025 0.525 0.2153846153846154 0.01538461538461539 0.2307692307692308 0.1692307692307692 0.3692307692307693 0.2046875 0.0015625 0.1265625 0.2515625 0.415625 0.2606060606060606 0.003030303030303031 0.04848484848484849 0.1848484848484848 0.503030303030303 0.09696969696969698 0.006060606060606061 0.03636363636363636 0.1878787878787879 0.6727272727272727 0.3555555555555556 0.02222222222222222 0.02222222222222222 0.02222222222222222 0.5777777777777777 0.08239700374531836 0.0599250936329588 0.1947565543071161 0.2808988764044944 0.3820224719101123 0.105 0.0075 0.09 0.325 0.4725 0.1518151815181518 0.0033003300330033 0.0627062706270627 0.2046204620462046 0.5775577557755776 0.1523465703971119 0.0007220216606498196 0.004332129963898917 0.09458483754512635 0.748014440433213 0.2044444444444444 0.004444444444444444 0.004444444444444444 0.1155555555555556 0.6711111111111111 0.2428571428571429 0.02857142857142857 0.2 0.2 0.3285714285714286 0.231578947368421 0.003508771929824561 0.1263157894736842 0.2140350877192982 0.4245614035087719 0.4399999999999999 0.02181818181818182 0.003636363636363636 0.3127272727272727 0.2218181818181818 0.65 0.007142857142857144 0.007142857142857144 0.04285714285714286 0.2928571428571429 0.275 0.025 0.275 0.025 0.4 0.1785714285714285 0.008928571428571428 0.1785714285714285 0.2946428571428572 0.3392857142857142 0.2291666666666667 0.01041666666666667 0.15625 0.21875 0.3854166666666666 0.3365079365079365 0.003174603174603175 0.01904761904761905 0.146031746031746 0.4952380952380952 0.3 0.008333333333333333 0.09166666666666667 0.05 0.5499999999999999 0.3666666666666666 0.03333333333333333 0.03333333333333333 0.03333333333333333 0.5333333333333332 0.165 0.0025 0.24 0.2275 0.365 0.1219512195121951 0.008130081300813009 0.1707317073170732 0.3495934959349594 0.3495934959349594 0.2 0.02 0.08 0.26 0.44 0.2 0.002083333333333333 0.02291666666666667 0.1895833333333333 0.5854166666666667 0.2363636363636364 0.009090909090909092 0.009090909090909092 0.009090909090909092 0.7363636363636363 0.2125 0.0125 0.2125 0.1 0.4625 0.367816091954023 0.02298850574712644 0.1494252873563218 0.2068965517241379 0.2528735632183908 0.2867924528301887 0.003773584905660377 0.09811320754716982 0.3433962264150943 0.2679245283018868 0.33 0.005000000000000001 0.08000000000000002 0.205 0.38 0.5538461538461539 0.01538461538461539 0.01538461538461539 0.01538461538461539 0.4 0.2823529411764706 0.08235294117647059 0.3294117647058823 0.1058823529411765 0.2 0.1944444444444444 0.02777777777777778 0.2916666666666666 0.2361111111111111 0.25 0.2275862068965517 0.003448275862068965 0.1586206896551724 0.3137931034482758 0.296551724137931 0.1209302325581395 0.004651162790697674 0.07441860465116279 0.4697674418604651 0.3302325581395348 0.2666666666666667 0.01666666666666667 0.09999999999999999 0.01666666666666667 0.6 0.2710280373831775 0.2523364485981308 0.1682242990654206 0.1308411214953271 0.1775700934579439 0.09448818897637795 0.03149606299212598 0.3385826771653543 0.2677165354330708 0.2677165354330708 0.09484536082474226 0.002061855670103093 0.1257731958762887 0.2701030927835051 0.5072164948453608 0.2275862068965517 0.003448275862068965 0.05517241379310345 0.2793103448275862 0.4344827586206896 0.01176470588235294 0.01176470588235294 0.01176470588235294 0.01176470588235294 0.9529411764705882 0.2 0.2 0.2 0.2 0.2 0.2 0.2 0.2 0.2 0.2 0.2 0.2 0.2 0.2 0.2 0.2 0.2 0.2 0.2 0.2 0.2 0.2 0.2 0.2 0.2 0.2 0.2 0.2 0.2 0.2 0.2 0.2 0.2 0.2 0.2 0.2 0.2 0.2 0.2 0.2 0.2 0.2 0.2 0.2 0.2 0.2 0.2 0.2 0.2 0.2 0.2 0.2 0.2 0.2 0.2 0.2 0.2 0.2 0.2 0.2 0.2 0.2 0.2 0.2 0.2 0.2 0.2 0.2 0.2 0.2 0.2 0.2 0.2 0.2 0.2 0.2 0.2 0.2 0.2 0.2 0.2 0.2 0.2 0.2 0.2 0.2 0.2 0.2 0.2 0.2 0.2 0.2 0.2 0.2 0.2 0.2 0.2 0.2 0.2 0.2 0.2 0.2 0.2 0.2 0.2 0.2 0.2 0.2 0.2 0.2 0.2 0.2 0.2 0.2 0.2 0.2 0.2 0.2 0.2 0.2 0.2 0.2 0.2 0.2 0.2 0.2 0.2 0.2 0.2 0.2 0.2 0.2 0.2 0.2 0.2 0.2 0.2 0.2 0.2 0.2 0.2 0.2 0.2 0.2 0.2 0.2 0.2 0.2 0.2 0.2 0.2 0.2 0.2 0.2 0.2 0.2 0.2 0.2 0.2 0.2 0.2 0.2 0.2 0.2 0.2 0.2 0.2 0.2 0.2 0.2 0.2 0.2 0.2 0.2 0.2 0.2 0.2 0.2 0.2 0.2 0.2 0.2 0.2 0.2 0.2 0.2 0.2 0.2 0.2 0.2 0.2 0.2 0.2 0.2 0.2 0.2 0.2 0.2 0.2 0.2 0.2 0.2 0.2 0.2 0.2 0.2 0.2 0.2 0.2 0.2 0.2 0.2 0.2 0.2 0.2 0.2 0.2 0.2 0.2 0.2 0.2 0.2 0.2 0.2 0.2 0.2 0.2 0.2 0.2 0.2 0.2 0.2 0.2 0.2 0.2 0.2 0.2 0.2 0.2 0.2 0.2 0.2 0.2 0.2 0.2 0.2 0.2 0.2 0.2 0.2 0.2 0.2 0.2 0.2 0.2 0.2 0.2 0.2 0.2 0.2 0.2 0.2 0.2 0.2 0.2 0.2 0.2 0.2 0.2 0.2 0.2 0.2 0.2 0.2 0.2 0.2 0.2 0.2 0.2 0.2 0.2 0.2 0.2 0.2 0.2 0.2 0.2 0.2 0.2 0.2 0.2 0.2 0.2 0.2 0.2 0.2 0.2 0.2 0.2 0.2 0.1135135135135135 0.005405405405405406 0.1675675675675676 0.2216216216216216 0.4918918918918919 0.2333333333333333 0.01111111111111111 0.2888888888888889 0.2333333333333333 0.2333333333333333 0.3142857142857143 0.02857142857142857 0.02857142857142857 0.3142857142857143 0.3142857142857143 0.2133333333333333 0.01333333333333333 0.08 0.08 0.6133333333333333 0.05 0.05 0.05 0.05 0.8 0.1857142857142857 0.05714285714285714 0.2857142857142857 0.1285714285714286 0.3428571428571429 0.337037037037037 0.003703703703703704 0.2444444444444444 0.262962962962963 0.1518518518518518 0.3875 0.0125 0.075 0.1375 0.3875 0.1571428571428571 0.01428571428571429 0.0857142857142857 0.01428571428571429 0.7285714285714284 0.05 0.05 0.05 0.55 0.3 0.1411764705882353 0.09411764705882353 0.2 0.3529411764705882 0.2117647058823529 0.09357798165137615 0.001834862385321101 0.09357798165137615 0.2862385321100918 0.5247706422018349 0.1239669421487603 0.008264462809917356 0.04132231404958678 0.2561983471074381 0.5702479338842975 0.05961538461538462 0.001923076923076923 0.04038461538461539 0.09807692307692308 0.8 0.1878787878787879 0.006060606060606061 0.006060606060606061 0.006060606060606061 0.7939393939393939 0.14 0.006666666666666667 0.3733333333333333 0.07333333333333333 0.4066666666666666 0.208 0.008 0.208 0.328 0.248 0.290909090909091 0.01818181818181818 0.1090909090909091 0.290909090909091 0.290909090909091 0.4727272727272728 0.01818181818181818 0.01818181818181818 0.01818181818181818 0.4727272727272728 0.2 0.2 0.2 0.2 0.2 0.2391304347826087 0.04347826086956522 0.1956521739130435 0.1956521739130435 0.3260869565217391 0.2363636363636364 0.009090909090909092 0.4636363636363636 0.1454545454545455 0.1454545454545455 0.1391304347826087 0.008695652173913044 0.1391304347826087 0.2260869565217391 0.4869565217391304 0.2 0.03333333333333333 0.2 0.5333333333333333 0.03333333333333333 0.2 0.2 0.2 0.2 0.2 0.2641509433962264 0.05660377358490566 0.2264150943396226 0.3018867924528302 0.1509433962264151 0.109375 0.015625 0.09375 0.28125 0.5 0.2432432432432433 0.01351351351351351 0.04054054054054054 0.2297297297297297 0.472972972972973 0.20625 0.003125 0.08125 0.05 0.659375 0.1777777777777778 0.01111111111111111 0.01111111111111111 0.01111111111111111 0.7888888888888888 0.51 0.01 0.3100000000000001 0.06000000000000001 0.11 0.22 0.02 0.3200000000000001 0.22 0.22 0.65 0.025 0.025 0.025 0.275 0.290909090909091 0.01818181818181818 0.01818181818181818 0.01818181818181818 0.6545454545454545 0.7333333333333333 0.06666666666666665 0.06666666666666665 0.06666666666666665 0.06666666666666665 0.2904761904761904 0.004761904761904762 0.219047619047619 0.1476190476190476 0.3380952380952381 0.2333333333333333 0.01111111111111111 0.2888888888888889 0.1777777777777778 0.2888888888888889 0.15 0.025 0.025 0.15 0.65 0.4571428571428571 0.02857142857142857 0.02857142857142857 0.02857142857142857 0.4571428571428571 0.2 0.2 0.2 0.2 0.2 0.1515151515151515 0.06060606060606061 0.2727272727272727 0.2424242424242424 0.2727272727272727 0.09302325581395349 0.02325581395348837 0.3023255813953488 0.3720930232558139 0.2093023255813953 0.1576923076923077 0.003846153846153846 0.08076923076923077 0.4076923076923077 0.35 0.3227272727272727 0.004545454545454546 0.004545454545454546 0.2545454545454545 0.4136363636363636 0.1714285714285714 0.02857142857142857 0.02857142857142857 0.02857142857142857 0.7428571428571429 0.4066666666666667 0.006666666666666668 0.24 0.1066666666666667 0.24 0.2625 0.075 0.5125 0.0125 0.1375 0.2461538461538462 0.01538461538461539 0.3230769230769231 0.1692307692307692 0.2461538461538462 0.4428571428571428 0.01428571428571429 0.01428571428571429 0.4428571428571428 0.0857142857142857 0.24 0.04000000000000001 0.04000000000000001 0.04000000000000001 0.6400000000000001 0.1857142857142857 0.007142857142857143 0.3285714285714285 0.1857142857142857 0.2928571428571428 0.02631578947368421 0.02631578947368421 0.4473684210526315 0.4210526315789473 0.07894736842105263 0.08148148148148149 0.007407407407407408 0.08148148148148149 0.4148148148148147 0.4148148148148147 0.05454545454545454 0.009090909090909092 0.1 0.1909090909090909 0.6454545454545454 0.2 0.2 0.2 0.2 0.2 0.1764705882352941 0.1176470588235294 0.2352941176470588 0.1176470588235294 0.3529411764705882 0.02941176470588235 0.05882352941176471 0.2352941176470588 0.5294117647058824 0.1470588235294118 0.1405405405405405 0.005405405405405406 0.1135135135135135 0.2486486486486486 0.4918918918918919 0.3517241379310345 0.006896551724137933 0.006896551724137933 0.2482758620689656 0.3862068965517242 0.8363636363636365 0.01818181818181819 0.01818181818181819 0.01818181818181819 0.1090909090909091</probabilities>
		</cpt>
		<cpt id="Hosting">
			<state id="never" />
			<state id="very_high" />
			<state id="high" />
			<state id="low" />
			<state id="very_low" />
			<parents>Householdsize MaritalStatus Duration Distance</parents>
			<probabilities>0.4691780821917808 0.02054794520547945 0.1780821917808219 0.1267123287671233 0.2054794520547945 0.4462151394422311 0.01593625498007968 0.099601593625498 0.1633466135458167 0.2749003984063745 0.5246913580246914 0.006172839506172839 0.06790123456790123 0.1358024691358025 0.2654320987654321 0.568503937007874 0.001574803149606299 0.01732283464566929 0.1196850393700787 0.2929133858267717 0.4896551724137932 0.04137931034482759 0.006896551724137933 0.07586206896551727 0.3862068965517242 0.3697478991596638 0.04201680672268907 0.1848739495798319 0.1932773109243697 0.2100840336134454 0.3015873015873016 0.0119047619047619 0.1587301587301587 0.2380952380952381 0.2896825396825397 0.425531914893617 0.007092198581560284 0.05673758865248227 0.1773049645390071 0.3333333333333333 0.263768115942029 0.002898550724637681 0.0318840579710145 0.1188405797101449 0.582608695652174 0.3153846153846154 0.007692307692307693 0.007692307692307693 0.04615384615384616 0.6230769230769231 0.2615384615384616 0.08076923076923077 0.2384615384615385 0.1923076923076923 0.2269230769230769 0.285377358490566 0.01179245283018868 0.1132075471698113 0.25 0.3396226415094339 0.2922636103151862 0.008595988538681949 0.06303724928366762 0.1776504297994269 0.4584527220630372 0.3647058823529412 0.0007352941176470588 0.004411764705882353 0.1073529411764706 0.5227941176470587 0.3055555555555555 0.009259259259259259 0.01851851851851852 0.02777777777777778 0.6388888888888888 0.2 0.2 0.2 0.2 0.2 0.2 0.2 0.2 0.2 0.2 0.2 0.2 0.2 0.2 0.2 0.2 0.2 0.2 0.2 0.2 0.2 0.2 0.2 0.2 0.2 0.2 0.2 0.2 0.2 0.2 0.2 0.2 0.2 0.2 0.2 0.2 0.2 0.2 0.2 0.2 0.2 0.2 0.2 0.2 0.2 0.2 0.2 0.2 0.2 0.2 0.2 0.2 0.2 0.2 0.2 0.2 0.2 0.2 0.2 0.2 0.2 0.2 0.2 0.2 0.2 0.2 0.2 0.2 0.2 0.2 0.2 0.2 0.2 0.2 0.2 0.2 0.2 0.2 0.2 0.2 0.2 0.2 0.2 0.2 0.2 0.2 0.2 0.2 0.2 0.2 0.2 0.2 0.2 0.2 0.2 0.2 0.2 0.2 0.2 0.2 0.2 0.2 0.2 0.2 0.2 0.2 0.2 0.2 0.2 0.2 0.2 0.2 0.2 0.2 0.2 0.2 0.2 0.2 0.2 0.2 0.2 0.2 0.2 0.2 0.2 0.2 0.2 0.2 0.2 0.2 0.2 0.2 0.2 0.2 0.2 0.2 0.2 0.2 0.2 0.2 0.2 0.2 0.2 0.2 0.2 0.2 0.2 0.2 0.2 0.2 0.2 0.2 0.2 0.2 0.2 0.2 0.2 0.2 0.2 0.2 0.2 0.2 0.2 0.2 0.2 0.2 0.2 0.2 0.2 0.2 0.2 0.2 0.2 0.2 0.2 0.2 0.2 0.2 0.2 0.2 0.2 0.2 0.2 0.2 0.2 0.2 0.2 0.2 0.2 0.2 0.2 0.2 0.2 0.2 0.2 0.2 0.2 0.2 0.2 0.2 0.2 0.2 0.2 0.2 0.2 0.2 0.2 0.2 0.2 0.2 0.2 0.2 0.2 0.2 0.2 0.2 0.2 0.2 0.2 0.2 0.2 0.2 0.2 0.2 0.2 0.2 0.2 0.2 0.2 0.2 0.2 0.2 0.2 0.2 0.2 0.2 0.2 0.2 0.2 0.2 0.2 0.2 0.2 0.2 0.2 0.2 0.2 0.2 0.2 0.2 0.1 0.1 0.1 0.1 0.6 0.2 0.2 0.2 0.2 0.2 0.2 0.2 0.2 0.2 0.2 0.2 0.2 0.2 0.2 0.2 0.2 0.2 0.2 0.2 0.2 0.06666666666666667 0.06666666666666667 0.4 0.06666666666666667 0.4 0.1 0.1 0.1 0.6 0.1 0.2 0.2 0.2 0.2 0.2 0.06666666666666665 0.06666666666666665 0.06666666666666665 0.7333333333333333 0.06666666666666665 0.2 0.2 0.2 0.2 0.2 0.4051724137931034 0.05603448275862069 0.1508620689655172 0.1551724137931035 0.2327586206896552 0.3942558746736293 0.02088772845953003 0.1383812010443864 0.216710182767624 0.2297650130548303 0.4910179640718563 0.008982035928143714 0.04790419161676647 0.1227544910179641 0.3293413173652695 0.5057142857142858 0.0009523809523809525 0.02 0.0961904761904762 0.3771428571428572 0.5692307692307692 0.005128205128205128 0.005128205128205128 0.05641025641025641 0.3641025641025641 0.3636363636363636 0.03232323232323232 0.1575757575757576 0.1616161616161616 0.2848484848484849 0.3097014925373134 0.01305970149253731 0.1828358208955224 0.208955223880597 0.2854477611940299 0.2861538461538461 0.006153846153846154 0.09230769230769231 0.1815384615384615 0.4338461538461538 0.25 0.004545454545454545 0.03181818181818181 0.1681818181818182 0.5454545454545454 0.205 0.005000000000000001 0.08000000000000002 0.105 0.605 0.2542735042735043 0.07264957264957266 0.2072649572649573 0.1987179487179487 0.2670940170940171 0.2116704805491991 0.01372997711670481 0.1384439359267735 0.2288329519450801 0.4073226544622426 0.2777115613825983 0.003575685339690107 0.07032181168057211 0.1775923718712753 0.4707985697258641 0.3010071942446043 0.0002877697841726619 0.02474820143884892 0.09525179856115108 0.578705035971223 0.4251968503937008 0.01574803149606299 0.007874015748031496 0.02362204724409449 0.5275590551181102 0.3461538461538461 0.03846153846153846 0.03846153846153846 0.1923076923076923 0.3846153846153846 0.1333333333333334 0.008333333333333335 0.3416666666666667 0.3416666666666667 0.175 0.01666666666666667 0.01666666666666667 0.01666666666666667 0.2666666666666667 0.6833333333333332 0.05 0.05 0.05 0.3 0.55 0.05 0.3 0.05 0.05 0.55 0.28 0.01333333333333333 0.1466666666666667 0.5466666666666666 0.01333333333333333 0.1826086956521739 0.008695652173913044 0.2695652173913043 0.1826086956521739 0.3565217391304347 0.1826086956521739 0.008695652173913044 0.05217391304347826 0.2260869565217391 0.5304347826086956 0.06666666666666667 0.06666666666666667 0.06666666666666667 0.06666666666666667 0.7333333333333334 0.8399999999999999 0.03999999999999999 0.03999999999999999 0.03999999999999999 0.03999999999999999 0.1714285714285714 0.02857142857142857 0.4571428571428571 0.3142857142857143 0.02857142857142857 0.1555555555555556 0.007407407407407408 0.2296296296296296 0.3407407407407407 0.2666666666666667 0.15 0.05 0.1 0.3 0.4 0.5333333333333334 0.009523809523809526 0.009523809523809526 0.2476190476190477 0.2000000000000001 0.7481481481481482 0.007407407407407409 0.007407407407407409 0.007407407407407409 0.2296296296296297 0.25 0.04166666666666666 0.2083333333333333 0.08333333333333333 0.4166666666666666 0.2555555555555555 0.005555555555555556 0.1444444444444444 0.1722222222222222 0.4222222222222222 0.5680000000000001 0.008000000000000002 0.208 0.128 0.08800000000000002 0.4555555555555556 0.01111111111111111 0.1222222222222223 0.1222222222222223 0.288888888888889 0.05 0.05 0.05 0.05 0.8 0.4 0.06 0.2 0.1 0.24 0.2439024390243902 0.02439024390243903 0.2439024390243902 0.1951219512195122 0.2926829268292683 0.2967741935483871 0.006451612903225808 0.07096774193548389 0.2 0.4258064516129033 0.2461538461538462 0.01538461538461539 0.01538461538461539 0.2461538461538462 0.4769230769230769 0.05 0.05 0.05 0.05 0.8 0.3853211009174312 0.08256880733944955 0.1559633027522936 0.1743119266055046 0.2018348623853211 0.2352941176470588 0.02941176470588235 0.1691176470588235 0.1838235294117647 0.3823529411764706 0.290625 0.0015625 0.0484375 0.15 0.509375 0.325 0.002083333333333333 0.03333333333333333 0.05416666666666667 0.5854166666666667 0.04 0.006666666666666667 0.006666666666666667 0.04 0.9066666666666666 0.2 0.2 0.2 0.2 0.2 0.2 0.2 0.2 0.2 0.2 0.6000000000000001 0.1 0.1 0.1 0.1 0.2 0.2 0.2 0.2 0.2 0.2 0.2 0.2 0.2 0.2 0.6000000000000001 0.1 0.1 0.1 0.1 0.2 0.2 0.2 0.2 0.2 0.2 0.2 0.2 0.2 0.2 0.2 0.2 0.2 0.2 0.2 0.2 0.2 0.2 0.2 0.2 0.7999999999999998 0.04999999999999999 0.04999999999999999 0.04999999999999999 0.04999999999999999 0.775 0.025 0.15 0.025 0.025 0.2 0.2 0.2 0.2 0.2 0.1 0.1 0.6 0.1 0.1 0.2 0.2 0.2 0.2 0.2 0.3846153846153846 0.07692307692307693 0.2307692307692308 0.07692307692307693 0.2307692307692308 0.396551724137931 0.01724137931034483 0.3275862068965517 0.2241379310344828 0.03448275862068965 0.68 0.01333333333333334 0.01333333333333334 0.1466666666666667 0.1466666666666667 0.5857142857142859 0.01428571428571429 0.1571428571428572 0.08571428571428574 0.1571428571428572 0.8666666666666665 0.03333333333333333 0.03333333333333333 0.03333333333333333 0.03333333333333333 0.2733333333333334 0.006666666666666668 0.04000000000000001 0.14 0.54 0.175 0.008333333333333333 0.3 0.2166666666666667 0.3 0.4375 0.0625 0.0625 0.0625 0.375 0.8500000000000002 0.01666666666666667 0.01666666666666667 0.1 0.01666666666666667 0.6000000000000001 0.1 0.1 0.1 0.1 0.3799999999999999 0.3299999999999999 0.155 0.004999999999999999 0.13 0.4434782608695653 0.008695652173913045 0.1826086956521739 0.2260869565217392 0.1391304347826087 0.5959183673469387 0.004081632653061224 0.02448979591836735 0.1877551020408163 0.1877551020408163 0.6492307692307692 0.003076923076923076 0.003076923076923076 0.04923076923076922 0.2953846153846153 0.4571428571428571 0.02857142857142857 0.02857142857142857 0.02857142857142857 0.4571428571428571 0.2925531914893617 0.199468085106383 0.1117021276595745 0.1329787234042553 0.2632978723404255 0.4166666666666666 0.02777777777777778 0.1296296296296296 0.2160493827160494 0.2098765432098765 0.481767955801105 0.001104972375690608 0.0287292817679558 0.1502762430939227 0.338121546961326 0.2380952380952381 0.04761904761904762 0.1111111111111111 0.1746031746031746 0.4285714285714285 0.7428571428571429 0.02857142857142857 0.02857142857142857 0.02857142857142857 0.1714285714285714 0.3573264781491002 0.1105398457583548 0.07712082262210797 0.1799485861182519 0.2750642673521851 0.15 0.03333333333333333 0.15 0.3066666666666667 0.36 0.3144104803493449 0.008733624454148471 0.06550218340611354 0.1790393013100437 0.4323144104803493 0.2013422818791946 0.01342281879194631 0.03355704697986577 0.1342281879194631 0.6174496644295302 0.4315789473684211 0.01052631578947369 0.01052631578947369 0.01052631578947369 0.536842105263158 0.2578947368421052 0.07894736842105263 0.1473684210526316 0.2052631578947368 0.3105263157894737 0.2051282051282051 0.01794871794871795 0.141025641025641 0.282051282051282 0.3538461538461539 0.1739130434782609 0.006211180124223602 0.05279503105590062 0.1956521739130435 0.5714285714285714 0.247148288973384 0.003802281368821293 0.01520912547528517 0.1178707224334601 0.6159695817490495 0.3580645161290322 0.003225806451612903 0.05161290322580645 0.01935483870967742 0.567741935483871 0.5 0.03773584905660377 0.08018867924528301 0.1226415094339623 0.2594339622641509 0.5 0.01879699248120301 0.1052631578947368 0.1240601503759398 0.2518796992481203 0.6890243902439025 0.006097560975609756 0.0426829268292683 0.07317073170731708 0.1890243902439024 0.5176470588235293 0.002941176470588235 0.04705882352941176 0.09117647058823528 0.3411764705882352 0.3263157894736842 0.01052631578947368 0.06315789473684209 0.01052631578947368 0.5894736842105263 0.3988439306358381 0.1213872832369942 0.1069364161849711 0.1473988439306358 0.2254335260115607 0.3497757847533632 0.0179372197309417 0.1838565022421525 0.1748878923766816 0.273542600896861 0.3484848484848485 0.02272727272727273 0.08333333333333334 0.1287878787878788 0.4166666666666667 0.1945945945945946 0.005405405405405406 0.1135135135135135 0.3027027027027027 0.3837837837837838 0.4315789473684211 0.01052631578947369 0.01052631578947369 0.01052631578947369 0.536842105263158 0.3137254901960785 0.1372549019607843 0.130718954248366 0.1895424836601307 0.2287581699346405 0.1914893617021277 0.007092198581560284 0.1536643026004728 0.2955082742316785 0.3522458628841608 0.2685185185185185 0.00308641975308642 0.05864197530864197 0.1759259259259259 0.4938271604938271 0.3003154574132492 0.0006309148264984228 0.00694006309148265 0.1047318611987382 0.5873817034700315 0.4914285714285714 0.005714285714285714 0.005714285714285714 0.06285714285714286 0.4342857142857143</probabilities>
		</cpt>
		<cpt id="Dining">
			<state id="never" />
			<state id="very_high" />
			<state id="high" />
			<state id="low" />
			<state id="very_low" />
			<parents>Age_ego Income Age_diff age_alter</parents>
