<?xml version="1.0" encoding="UTF-8"?>
<!-- This network was created in GeNIe Academic, which can be used for academic teaching and research purposes only -->
<smile version="1.0" id="model1" numsamples="10000" discsamples="10000">
	<nodes>
		<cpt id="Gender">
			<state id="State1" />
			<state id="State2" />
			<probabilities>0.4937402190923318 0.5062597809076682</probabilities>
		</cpt>
		<cpt id="Age">
			<state id="State1" />
			<state id="State2" />
			<state id="State3" />
			<state id="State4" />
			<probabilities>0.3020344287949922 0.2910798122065728 0.2942097026604069 0.1126760563380282</probabilities>
		</cpt>
		<cpt id="Householdsize">
			<state id="State1" />
			<state id="State2" />
			<state id="State3" />
			<probabilities>0.2151799687010955 0.4154929577464789 0.3693270735524257</probabilities>
		</cpt>
		<cpt id="MaritalStatus">
			<state id="State1" />
			<state id="State2" />
			<state id="State3" />
			<state id="State4" />
			<probabilities>0.215962441314554 0.377151799687011 0.1846635367762128 0.2222222222222222</probabilities>
		</cpt>
		<cpt id="Education">
			<state id="State1" />
			<state id="State2" />
			<probabilities>0.6173708920187794 0.3826291079812207</probabilities>
		</cpt>
		<cpt id="Income">
			<state id="State1" />
			<state id="State2" />
			<state id="State3" />
			<state id="State4" />
			<state id="State5" />
			<probabilities>0.1158059467918623 0.2245696400625978 0.2582159624413146 0.269170579029734 0.1322378716744914</probabilities>
		</cpt>
		<cpt id="Grandparents">
			<state id="State1" />
			<state id="State2" />
			<parents>Age Householdsize MaritalStatus</parents>
			<probabilities>0.5 0.5 0.75 0.25 0.5 0.5 0.5 0.5 0.5 0.5 0.4724409448818898 0.5275590551181102 0.5 0.5 0.5 0.5 0.5 0.5 0.3181818181818182 0.6818181818181819 0.3571428571428571 0.6428571428571428 0.3103448275862069 0.6896551724137931 0.8765432098765431 0.1234567901234568 0.5 0.5 0.5 0.5 0.5 0.5 0.5 0.5 0.8500000000000001 0.15 0.5 0.5 0.75 0.25 0.5 0.5 0.75 0.25 0.5575221238938053 0.4424778761061947 0.691358024691358 0.308641975308642 0.9418604651162791 0.05813953488372093 0.5 0.5 0.5 0.5 0.5 0.5 0.75 0.25 0.8805031446540881 0.119496855345912 0.8333333333333333 0.1666666666666667 0.9473684210526315 0.05263157894736842 0.75 0.25 0.8333333333333333 0.1666666666666667 0.6666666666666666 0.3333333333333333 0.8333333333333333 0.1666666666666667 0.8787878787878788 0.1212121212121212 0.5 0.5 0.5 0.5 0.5 0.5 0.5 0.5 0.9325842696629213 0.06741573033707865 0.8333333333333333 0.1666666666666667 0.9583333333333333 0.04166666666666666 0.5 0.5 0.75 0.25 0.5 0.5 0.875 0.125</probabilities>
		</cpt>
		<cpt id="Bar">
			<state id="State1" />
			<state id="State2" />
			<state id="State3" />
			<state id="State4" />
			<parents>Age Grandparents</parents>
			<probabilities>0.3291925465838509 0.04968944099378882 0.1180124223602484 0.5031055900621118 0.3555555555555556 0.08 0.1377777777777778 0.4266666666666666 0.1412639405204461 0.09293680297397769 0.1561338289962825 0.6096654275092936 0.1262135922330097 0.1262135922330097 0.1844660194174757 0.5631067961165048 0.05988023952095808 0.0658682634730539 0.1047904191616767 0.7694610778443114 0.1666666666666667 0.09523809523809523 0.07142857142857142 0.6666666666666666 0.02255639097744361 0.08270676691729323 0.03007518796992481 0.8646616541353382 0.09090909090909091 0.09090909090909091 0.09090909090909091 0.7272727272727273</probabilities>
		</cpt>
		<cpt id="Friends">
			<state id="State1" />
			<state id="State2" />
			<state id="State3" />
			<state id="State4" />
			<parents>Bar</parents>
			<probabilities>0.2 0.2651162790697674 0.2046511627906977 0.3302325581395349 0.4019607843137255 0.3235294117647059 0.1666666666666667 0.107843137254902 0.4480519480519481 0.3506493506493507 0.1233766233766234 0.07792207792207792 0.436183395291202 0.2998760842627013 0.1288723667905824 0.1350681536555143</probabilities>
		</cpt>
		<cpt id="Paidwork">
			<state id="s1_below_8" />
			<state id="s2_8_36" />
			<state id="s3_36_up" />
			<probabilities>0.3302034428794992 0.3082942097026604 0.3615023474178404</probabilities>
		</cpt>
		<cpt id="Colleagues">
			<state id="State1" />
			<state id="State2" />
			<state id="State3" />
			<parents>Bar Paidwork</parents>
			<probabilities>0.6046511627906976 0.1395348837209302 0.2558139534883721 0.234375 0.34375 0.421875 0.1851851851851852 0.3703703703703703 0.4444444444444444 0.5333333333333333 0.3666666666666666 0.1 0.125 0.5 0.375 0.34375 0.3125 0.34375 0.7906976744186046 0.1395348837209302 0.06976744186046512 0.3148148148148148 0.2222222222222222 0.4629629629629629 0.1754385964912281 0.4210526315789473 0.4035087719298245 0.8202614379084967 0.08169934640522876 0.09803921568627451 0.385593220338983 0.3389830508474576 0.2754237288135593 0.2754716981132075 0.3773584905660378 0.3471698113207547</probabilities>
		</cpt>
		<cpt id="Neighbors">
			<state id="State1" />
			<state id="State2" />
			<state id="State3" />
			<parents>MaritalStatus</parents>
			<probabilities>0.5 0.3369565217391304 0.1630434782608696 0.3485477178423236 0.4170124481327801 0.2344398340248963 0.3601694915254237 0.326271186440678 0.3135593220338983 0.3133802816901409 0.4366197183098592 0.25</probabilities>
		</cpt>
		<cpt id="Parents">
			<state id="State1" />
			<state id="State2" />
			<state id="State3" />
			<state id="State4" />
			<parents>Age Householdsize MaritalStatus</parents>
			<probabilities>0.01351351351351351 0.2837837837837838 0.4594594594594595 0.2432432432432433 0.125 0.125 0.125 0.625 0.25 0.25 0.25 0.25 0.25 0.25 0.25 0.25 0.25 0.25 0.25 0.25 0.08661417322834646 0.1259842519685039 0.2125984251968504 0.5748031496062992 0.25 0.05 0.45 0.25 0.08333333333333333 0.75 0.08333333333333333 0.08333333333333333 0.25 0.25 0.25 0.25 0.09090909090909091 0.04545454545454546 0.6818181818181819 0.1818181818181818 0.08163265306122448 0.09183673469387754 0.2142857142857143 0.6122448979591836 0.06896551724137931 0.06896551724137931 0.4655172413793103 0.396551724137931 0.2222222222222222 0.308641975308642 0.4444444444444444 0.02469135802469136 0.25 0.25 0.25 0.25 0.25 0.25 0.25 0.25 0.25 0.25 0.25 0.25 0.25 0.25 0.25 0.25 0.1375 0.275 0.3 0.2875 0.125 0.25 0.5 0.125 0.375 0.125 0.375 0.125 0.25 0.25 0.25 0.25 0.125 0.125 0.625 0.125 0.1238938053097345 0.1415929203539823 0.2743362831858407 0.4601769911504425 0.1851851851851852 0.2345679012345679 0.2345679012345679 0.345679012345679 0.5890804597701149 0.2902298850574713 0.117816091954023 0.002873563218390805 0.25 0.25 0.25 0.25 0.25 0.25 0.25 0.25 0.25 0.25 0.25 0.25 0.125 0.625 0.125 0.125 0.5974842767295597 0.270440251572327 0.07547169811320756 0.05660377358490566 0.75 0.08333333333333333 0.08333333333333333 0.08333333333333333 0.5526315789473684 0.2631578947368421 0.07894736842105263 0.1052631578947368 0.625 0.125 0.125 0.125 0.4166666666666666 0.08333333333333333 0.4166666666666666 0.08333333333333333 0.1111111111111111 0.5555555555555556 0.2222222222222222 0.1111111111111111 0.5 0.3076923076923077 0.1025641025641026 0.08974358974358974 0.8602941176470588 0.125 0.007352941176470588 0.007352941176470588 0.25 0.25 0.25 0.25 0.25 0.25 0.25 0.25 0.25 0.25 0.25 0.25 0.25 0.25 0.25 0.25 0.8805555555555555 0.08055555555555556 0.03611111111111111 0.002777777777777778 0.75 0.08333333333333333 0.08333333333333333 0.08333333333333333 0.7708333333333333 0.1875 0.02083333333333333 0.02083333333333333 0.25 0.25 0.25 0.25 0.625 0.125 0.125 0.125 0.25 0.25 0.25 0.25 0.8055555555555555 0.1388888888888889 0.02777777777777778 0.02777777777777778</probabilities>
		</cpt>
		<cpt id="Siblings">
			<state id="State1" />
			<state id="State2" />
			<state id="State3" />
			<state id="State4" />
			<parents>Householdsize MaritalStatus</parents>
			<probabilities>0.7262773722627737 0.2043795620437956 0.04014598540145985 0.0291970802919708 0.125 0.625 0.125 0.125 0.25 0.25 0.25 0.25 0.25 0.25 0.25 0.25 0.625 0.125 0.125 0.125 0.5956043956043956 0.232967032967033 0.0989010989010989 0.07252747252747253 0.7794117647058824 0.07352941176470588 0.1323529411764706 0.01470588235294118 0.559322033898305 0.2033898305084746 0.1016949152542373 0.1355932203389831 0.625 0.125 0.125 0.125 0.8240740740740741 0.1574074074074074 0.009259259259259259 0.009259259259259259 0.5409090909090909 0.2818181818181818 0.1136363636363636 0.06363636363636363 0.5866666666666667 0.2488888888888889 0.08888888888888889 0.07555555555555556</probabilities>
		</cpt>
		<cpt id="Children">
			<state id="State1" />
			<state id="State2" />
			<parents>Age Householdsize MaritalStatus</parents>
			<probabilities>0.9324324324324325 0.06756756756756757 0.75 0.25 0.5 0.5 0.5 0.5 0.5 0.5 0.984251968503937 0.01574803149606299 0.25 0.75 0.8333333333333333 0.1666666666666667 0.5 0.5 0.9782608695652174 0.02173913043478261 0.3673469387755102 0.6326530612244897 0.9137931034482758 0.08620689655172414 0.8148148148148148 0.1851851851851852 0.5 0.5 0.5 0.5 0.5 0.5 0.5 0.5 0.7250000000000001 0.275 0.125 0.875 0.05555555555555555 0.9444444444444444 0.5 0.5 0.25 0.75 0.2831858407079646 0.7168141592920354 0.2716049382716049 0.728395061728395 0.5 0.5 0.5 0.5 0.5 0.5 0.5 0.5 0.75 0.25 0.3144654088050315 0.6855345911949686 0.1666666666666667 0.8333333333333333 0.07894736842105263 0.9210526315789473 0.25 0.75 0.5 0.5 0.2222222222222222 0.7777777777777777 0.1153846153846154 0.8846153846153846 0.3333333333333334 0.6666666666666667 0.5 0.5 0.5 0.5 0.5 0.5 0.5 0.5 0.1797752808988764 0.8202247191011236 0.1666666666666667 0.8333333333333333 0.04166666666666666 0.9583333333333333 0.5 0.5 0.75 0.25 0.5 0.5 0.375 0.625</probabilities>
		</cpt>
		<cpt id="Otherfamilymembers">
			<state id="State1" />
			<state id="State2" />
			<state id="State3" />
			<state id="State4" />
			<parents>Bar</parents>
			<probabilities>0.3720930232558139 0.1674418604651163 0.1116279069767442 0.3488372093023256 0.4313725490196079 0.2254901960784314 0.1372549019607843 0.2058823529411765 0.551948051948052 0.1233766233766234 0.1168831168831169 0.2077922077922078 0.5848822800495663 0.1598513011152417 0.07806691449814127 0.1771995043370508</probabilities>
		</cpt>
		<cpt id="Visit">
			<state id="State1" />
			<state id="State2" />
			<state id="State3" />
			<state id="State4" />
			<state id="State5" />
			<parents>Householdsize MaritalStatus</parents>
			<probabilities>0.302919708029197 0.4671532846715328 0.1094890510948905 0.06934306569343066 0.05109489051094891 0.1 0.6000000000000001 0.1 0.1 0.1 0.2 0.2 0.2 0.2 0.2 0.2 0.2 0.2 0.2 0.2 0.1 0.6000000000000001 0.1 0.1 0.1 0.2989010989010989 0.4989010989010989 0.1076923076923077 0.06813186813186813 0.02637362637362637 0.3058823529411765 0.4823529411764707 0.1294117647058824 0.07058823529411766 0.01176470588235294 0.2711864406779661 0.5254237288135594 0.1186440677966102 0.03389830508474576 0.05084745762711865 0.1 0.1 0.6 0.1 0.1 0.6000000000000001 0.3037037037037037 0.04444444444444445 0.007407407407407409 0.04444444444444445 0.4545454545454545 0.3272727272727273 0.06818181818181818 0.09545454545454544 0.05454545454545454 0.4266666666666666 0.3644444444444445 0.08444444444444445 0.05777777777777778 0.06666666666666667</probabilities>
		</cpt>
		<cpt id="Hosting">
			<state id="State1" />
			<state id="State2" />
			<state id="State3" />
			<state id="State4" />
			<state id="State5" />
			<parents>Householdsize</parents>
			<probabilities>0.2072727272727273 0.3927272727272727 0.1745454545454546 0.08727272727272728 0.1381818181818182 0.2504708097928437 0.4444444444444444 0.1450094161958569 0.0847457627118644 0.07532956685499058 0.3644067796610169 0.3347457627118644 0.1080508474576271 0.06567796610169492 0.1271186440677966</probabilities>
		</cpt>
		<cpt id="Dining">
			<state id="State1" />
			<state id="State2" />
			<state id="State3" />
			<state id="State4" />
			<state id="State5" />
			<parents>Colleagues</parents>
			<probabilities>0.1036906854130053 0.2003514938488576 0.1810193321616872 0.1845342706502636 0.3304042179261863 0.2106741573033708 0.3089887640449438 0.1573033707865168 0.1151685393258427 0.2078651685393259 0.2011331444759207 0.2804532577903683 0.1813031161473088 0.1218130311614731 0.2152974504249292</probabilities>
		</cpt>
		<cpt id="Cinema">
			<state id="State1" />
			<state id="State2" />
			<state id="State3" />
			<state id="State4" />
			<parents>Grandparents Otherfamilymembers</parents>
			<probabilities>0.09003831417624521 0.1053639846743295 0.1628352490421456 0.6417624521072797 0.1233766233766234 0.1168831168831169 0.1428571428571429 0.6168831168831169 0.1428571428571428 0.1666666666666667 0.1666666666666667 0.5238095238095237 0.1751824817518248 0.145985401459854 0.1751824817518248 0.5036496350364963 0.220125786163522 0.1006289308176101 0.1257861635220126 0.5534591194968553 0.1509433962264151 0.3207547169811321 0.07547169811320754 0.4528301886792453 0.2571428571428571 0.2 0.2 0.3428571428571429 0.1865671641791045 0.1343283582089552 0.1791044776119403 0.5</probabilities>
		</cpt>
		<cpt id="Recreation">
			<state id="State1" />
			<state id="State2" />
			<state id="State3" />
			<state id="State4" />
			<state id="State5" />
			<parents>Education</parents>
			<probabilities>0.1254752851711027 0.1115335868187579 0.08998732572877059 0.1153358681875792 0.5576679340937896 0.2147239263803681 0.1390593047034765 0.08179959100204499 0.1186094069529652 0.4458077709611452</probabilities>
		</cpt>
		<cpt id="Vacation">
			<state id="State1" />
			<state id="State2" />
			<state id="State3" />
			<state id="State4" />
			<parents>Grandparents</parents>
			<probabilities>0.04013377926421405 0.1560758082497213 0.2430323299888517 0.5607580824972129 0.1128608923884514 0.1601049868766404 0.2572178477690289 0.4698162729658792</probabilities>
		</cpt>
		<cpt id="Shopping">
			<state id="State1" />
			<state id="State2" />
			<state id="State3" />
			<state id="State4" />
			<state id="State5" />
			<parents>Gender</parents>
			<probabilities>0.1426307448494453 0.1458003169572108 0.07765451664025357 0.1014263074484945 0.5324881141045958 0.1591962905718702 0.2210200927357032 0.1360123647604328 0.1267387944358578 0.357032457496136</probabilities>
		</cpt>
	</nodes>
	<extensions>
		<genie version="1.0" app="GeNIe 5.0.4722.0 ACADEMIC" name="model1">
			<node id="Gender">
				<name>Gender</name>
				<interior color="e5f6f7" />
				<outline color="000080" />
				<font color="000000" name="Arial" size="8" />
				<position>423 222 475 254</position>
				<barchart active="true" width="128" height="64" />
			</node>
			<node id="Age">
				<name>Age</name>
				<interior color="e5f6f7" />
				<outline color="000080" />
				<font color="000000" name="Arial" size="8" />
				<position>946 487 986 512</position>
				<barchart active="true" width="128" height="90" />
			</node>
			<node id="Householdsize">
				<name>Householdsize</name>
				<interior color="e5f6f7" />
				<outline color="000080" />
				<font color="000000" name="Arial" size="8" />
				<position>483 451 567 503</position>
				<barchart active="true" width="128" height="72" />
			</node>
			<node id="MaritalStatus">
				<name>MaritalStatus</name>
				<interior color="e5f6f7" />
				<outline color="000080" />
				<font color="000000" name="Arial" size="8" />
				<position>731 473 806 519</position>
				<barchart active="true" width="128" height="90" />
			</node>
			<node id="Education">
				<name>Education</name>
				<interior color="e5f6f7" />
				<outline color="000080" />
				<font color="000000" name="Arial" size="8" />
				<position>348 322 410 360</position>
				<barchart active="true" width="128" height="64" />
			</node>
			<node id="Income">
				<name>Income</name>
				<interior color="e5f6f7" />
				<outline color="000080" />
				<font color="000000" name="Arial" size="8" />
				<position>94 406 146 438</position>
				<barchart active="true" width="128" height="108" />
			</node>
			<node id="Friends">
				<name>Friends</name>
				<interior color="e5f6f7" />
				<outline color="000080" />
				<font color="000000" name="Arial" size="8" />
				<position>854 81 906 113</position>
				<barchart active="true" width="128" height="90" />
			</node>
			<node id="Colleagues">
				<name>Colleagues</name>
				<interior color="e5f6f7" />
				<outline color="000080" />
				<font color="000000" name="Arial" size="8" />
				<position>896 317 964 359</position>
				<barchart active="true" width="128" height="72" />
			</node>
			<node id="Neighbors">
				<name>Neighbors</name>
				<interior color="e5f6f7" />
				<outline color="000080" />
				<font color="000000" name="Arial" size="8" />
				<position>630 628 694 668</position>
				<barchart active="true" width="128" height="72" />
			</node>
			<node id="Grandparents">
				<name>Grandparents</name>
				<interior color="e5f6f7" />
				<outline color="000080" />
				<font color="000000" name="Arial" size="8" />
				<position>498 321 578 371</position>
				<barchart active="true" width="128" height="64" />
			</node>
			<node id="Parents">
				<name>Parents</name>
				<interior color="e5f6f7" />
				<outline color="000080" />
				<font color="000000" name="Arial" size="8" />
				<position>690 342 744 375</position>
				<barchart active="true" width="128" height="90" />
			</node>
			<node id="Siblings">
				<name>Siblings</name>
				<interior color="e5f6f7" />
				<outline color="000080" />
				<font color="000000" name="Arial" size="8" />
				<position>449 609 501 641</position>
				<barchart active="true" width="128" height="90" />
			</node>
			<node id="Children">
				<name>Children</name>
				<interior color="e5f6f7" />
				<outline color="000080" />
				<font color="000000" name="Arial" size="8" />
				<position>829 625 885 660</position>
				<barchart active="true" width="128" height="64" />
			</node>
			<node id="Otherfamilymembers">
				<name>Otherfamilymembers</name>
				<interior color="e5f6f7" />
				<outline color="000080" />
				<font color="000000" name="Arial" size="8" />
				<position>669 46 781 116</position>
				<barchart active="true" width="128" height="90" />
			</node>
			<node id="Visit">
				<name>Visit</name>
				<interior color="e5f6f7" />
				<outline color="000080" />
				<font color="000000" name="Arial" size="8" />
				<position>258 599 299 624</position>
				<barchart active="true" width="128" height="108" />
			</node>
			<node id="Hosting">
				<name>Hosting</name>
				<interior color="e5f6f7" />
				<outline color="000080" />
				<font color="000000" name="Arial" size="8" />
				<position>299 453 351 485</position>
				<barchart active="true" width="128" height="108" />
			</node>
			<node id="Dining">
				<name>Dining</name>
				<interior color="e5f6f7" />
				<outline color="000080" />
				<font color="000000" name="Arial" size="8" />
				<position>1028 183 1076 213</position>
				<barchart active="true" width="128" height="108" />
			</node>
			<node id="Bar">
				<name>Bar</name>
				<interior color="e5f6f7" />
				<outline color="000080" />
				<font color="000000" name="Arial" size="8" />
				<position>729 245 767 268</position>
				<barchart active="true" width="128" height="90" />
			</node>
			<node id="Cinema">
				<name>Cinema</name>
				<interior color="e5f6f7" />
				<outline color="000080" />
				<font color="000000" name="Arial" size="8" />
				<position>585 183 637 215</position>
				<barchart active="true" width="128" height="90" />
			</node>
			<node id="Recreation">
				<name>Recreation</name>
				<interior color="e5f6f7" />
				<outline color="000080" />
				<font color="000000" name="Arial" size="8" />
				<position>237 205 303 246</position>
				<barchart active="true" width="128" height="108" />
			</node>
			<node id="Vacation">
				<name>Vacation</name>
				<interior color="e5f6f7" />
				<outline color="000080" />
				<font color="000000" name="Arial" size="8" />
				<position>503 65 560 100</position>
				<barchart active="true" width="128" height="90" />
			</node>
			<node id="Shopping">
				<name>Shopping</name>
				<interior color="e5f6f7" />
				<outline color="000080" />
				<font color="000000" name="Arial" size="8" />
				<position>345 72 404 108</position>
				<barchart active="true" width="128" height="108" />
			</node>
			<node id="Paidwork">
				<name>Paidwork</name>
				<interior color="e5f6f7" />
				<outline color="000080" />
				<font color="000000" name="Arial" size="8" />
				<position>1066 318 1125 354</position>
				<barchart active="true" width="128" height="72" />
			</node>
			<textbox>
				<caption>Input file: model1.csv\nData rows: 1278\nElapsed time: 2.123s\n\nLearning algorithm: Bayesian Search\nAlgorithm parameters:\nIterations: 100\nMax parent count: 8\nSample size: 200\nLink probability: 0.1\nPrior link probability: 0.001\nSeed: 10\nMax search time: 0\nBackground knowledge was provided:\n  forbidden arcs: 266\n\nBest score in iteration 63: -33522.7\nEM Log Likelihood: -32470.1</caption>
				<font color="000000" name="Arial" size="8" />
				<position>11 32 196 284</position>
			</textbox>
		</genie>
	</extensions>
</smile>
