<?xml version="1.0" encoding="UTF-8"?>
<!-- This network was created in GeNIe Academic, which can be used for academic teaching and research purposes only -->
<smile version="1.0" id="model1" numsamples="10000" discsamples="10000">
	<nodes>
		<cpt id="Gender">
			<state id="male" />
			<state id="female" />
			<probabilities>0.4937402190923318 0.5062597809076682</probabilities>
		</cpt>
		<cpt id="Age">
			<state id="between_18_35" />
			<state id="between_36_50" />
			<state id="between_51_65" />
			<state id="over_65" />
			<probabilities>0.3020344287949922 0.2910798122065728 0.2942097026604069 0.1126760563380282</probabilities>
		</cpt>
		<cpt id="Householdsize">
			<state id="s1_1" />
			<state id="s2_2" />
			<state id="s3_3_up" />
			<probabilities>0.2151799687010955 0.4154929577464789 0.3693270735524257</probabilities>
		</cpt>
		<cpt id="MaritalStatus">
			<state id="single" />
			<state id="c_no_child" />
			<state id="c_child_below_12" />
			<state id="c_child_above_12" />
			<probabilities>0.215962441314554 0.377151799687011 0.1846635367762128 0.2222222222222222</probabilities>
		</cpt>
		<cpt id="Education">
			<state id="low_middle" />
			<state id="high" />
			<probabilities>0.6173708920187794 0.3826291079812207</probabilities>
		</cpt>
		<cpt id="Income">
			<state id="State1" />
			<state id="State2" />
			<state id="State3" />
			<state id="State4" />
			<state id="State5" />
			<probabilities>0.1158059467918623 0.2245696400625978 0.2582159624413146 0.269170579029734 0.1322378716744914</probabilities>
		</cpt>
		<cpt id="Bar">
			<state id="more_than_12" />
			<state id="between_4_12" />
			<state id="between_1_3" />
			<state id="never_or_less_than_once" />
			<parents>Gender Age</parents>
			<probabilities>0.4132653061224489 0.0510204081632653 0.08673469387755102 0.4489795918367346 0.2298850574712644 0.06896551724137931 0.1494252873563218 0.5517241379310345 0.1016949152542373 0.0903954802259887 0.0903954802259887 0.7175141242937854 0.03571428571428571 0.07142857142857142 0.04761904761904762 0.8452380952380952 0.2736842105263158 0.08421052631578947 0.1736842105263158 0.468421052631579 0.05555555555555556 0.1313131313131313 0.1767676767676768 0.6363636363636365 0.04522613065326633 0.05025125628140704 0.1105527638190955 0.7939698492462312 0.01666666666666667 0.1 0.01666666666666667 0.8666666666666667</probabilities>
		</cpt>
		<cpt id="Friends">
			<state id="between_0_2" />
			<state id="between_3_5" />
			<state id="between_6_8" />
			<state id="more_than_8" />
			<parents>Bar</parents>
			<probabilities>0.2 0.2651162790697674 0.2046511627906977 0.3302325581395349 0.4019607843137255 0.3235294117647059 0.1666666666666667 0.107843137254902 0.4480519480519481 0.3506493506493507 0.1233766233766234 0.07792207792207792 0.436183395291202 0.2998760842627013 0.1288723667905824 0.1350681536555143</probabilities>
		</cpt>
		<cpt id="Paidwork">
			<state id="s1_below_8" />
			<state id="s2_8_36" />
			<state id="s3_36_up" />
			<probabilities>0.3302034428794992 0.3082942097026604 0.3615023474178404</probabilities>
		</cpt>
		<cpt id="Colleagues">
			<state id="between_0_1" />
			<state id="between_2_4" />
			<state id="more_than_4" />
			<parents>Bar Paidwork</parents>
			<probabilities>0.6046511627906976 0.1395348837209302 0.2558139534883721 0.234375 0.34375 0.421875 0.1851851851851852 0.3703703703703703 0.4444444444444444 0.5333333333333333 0.3666666666666666 0.1 0.125 0.5 0.375 0.34375 0.3125 0.34375 0.7906976744186046 0.1395348837209302 0.06976744186046512 0.3148148148148148 0.2222222222222222 0.4629629629629629 0.1754385964912281 0.4210526315789473 0.4035087719298245 0.8202614379084967 0.08169934640522876 0.09803921568627451 0.385593220338983 0.3389830508474576 0.2754237288135593 0.2754716981132075 0.3773584905660378 0.3471698113207547</probabilities>
		</cpt>
		<cpt id="Neighbors">
			<state id="between_0_1" />
			<state id="between_2_4" />
			<state id="more_than_4" />
			<parents>MaritalStatus</parents>
			<probabilities>0.5 0.3369565217391304 0.1630434782608696 0.3485477178423236 0.4170124481327801 0.2344398340248963 0.3601694915254237 0.326271186440678 0.3135593220338983 0.3133802816901409 0.4366197183098592 0.25</probabilities>
		</cpt>
		<cpt id="Grandparents">
			<state id="s1_0" />
			<state id="s2_1_up" />
			<parents>Age MaritalStatus</parents>
			<probabilities>0.5 0.5 0.4533333333333334 0.5466666666666667 0.3627450980392157 0.6372549019607843 0.3166666666666667 0.6833333333333333 0.8765432098765431 0.1234567901234568 0.8518518518518519 0.1481481481481481 0.5537190082644629 0.4462809917355372 0.696629213483146 0.3033707865168539 0.9431818181818182 0.05681818181818182 0.8819875776397514 0.1180124223602484 0.7272727272727273 0.2727272727272727 0.8706896551724138 0.1293103448275862 0.8787878787878788 0.1212121212121212 0.9333333333333333 0.06666666666666667 0.8333333333333333 0.1666666666666667 0.9473684210526315 0.05263157894736842</probabilities>
		</cpt>
		<cpt id="Parents">
			<state id="State1" />
			<state id="State2" />
			<state id="State3" />
			<state id="State4" />
			<parents>Age Householdsize</parents>
			<probabilities>0.01333333333333333 0.28 0.4533333333333334 0.2533333333333334 0.09022556390977443 0.1353383458646616 0.2180451127819549 0.556390977443609 0.07865168539325842 0.07865168539325842 0.3539325842696629 0.4887640449438202 0.2222222222222222 0.308641975308642 0.4444444444444444 0.02469135802469136 0.15625 0.2604166666666666 0.3229166666666666 0.2604166666666666 0.1487179487179487 0.1794871794871795 0.2615384615384616 0.4102564102564102 0.5890804597701149 0.2902298850574713 0.117816091954023 0.002873563218390805 0.59 0.27 0.075 0.065 0.4666666666666667 0.3222222222222222 0.1222222222222222 0.08888888888888889 0.8602941176470588 0.125 0.007352941176470588 0.007352941176470588 0.8762135922330097 0.08980582524271843 0.03155339805825243 0.002427184466019417 0.8250000000000001 0.125 0.025 0.025</probabilities>
		</cpt>
		<cpt id="Siblings">
			<state id="between_0_2" />
			<state id="between_3_5" />
			<state id="between_6_8" />
			<state id="more_than_8" />
			<probabilities>0.6189358372456965 0.2331768388106416 0.08528951486697965 0.06259780907668232</probabilities>
		</cpt>
		<cpt id="Children">
			<state id="s1_0" />
			<state id="s2_1_up" />
			<parents>Age MaritalStatus</parents>
			<probabilities>0.9324324324324325 0.06756756756756757 0.9866666666666667 0.01333333333333333 0.3627450980392157 0.6372549019607843 0.9166666666666666 0.08333333333333333 0.8148148148148148 0.1851851851851852 0.7160493827160493 0.2839506172839506 0.2727272727272727 0.7272727272727273 0.247191011235955 0.7528089887640449 0.5 0.5 0.3167701863354037 0.6832298136645962 0.1818181818181818 0.8181818181818182 0.103448275862069 0.896551724137931 0.3333333333333334 0.6666666666666667 0.1888888888888889 0.8111111111111111 0.1666666666666667 0.8333333333333333 0.1578947368421053 0.8421052631578947</probabilities>
		</cpt>
		<cpt id="Otherfamilymembers">
			<state id="between_0_2" />
			<state id="between_3_5" />
			<state id="between_6_8" />
			<state id="more_than_8" />
			<parents>Age</parents>
			<probabilities>0.422279792746114 0.1321243523316062 0.1062176165803109 0.339378238341969 0.5188172043010754 0.1801075268817204 0.09408602150537636 0.206989247311828 0.6196808510638298 0.1622340425531915 0.09308510638297872 0.125 0.6388888888888888 0.1944444444444444 0.05555555555555555 0.1111111111111111</probabilities>
		</cpt>
		<cpt id="Visit">
			<state id="more_than_365" />
			<state id="between_48_365" />
			<state id="between_12_47" />
			<state id="between_1_11" />
			<state id="never_or_less_than_once" />
			<parents>Grandparents</parents>
			<probabilities>0.2976588628762541 0.4548494983277592 0.1181716833890747 0.08249721293199554 0.04682274247491638 0.4855643044619423 0.3937007874015748 0.04724409448818898 0.03412073490813648 0.03937007874015748</probabilities>
		</cpt>
		<cpt id="Hosting">
			<state id="more_than_365" />
			<state id="between_48_365" />
			<state id="between_12_47" />
			<state id="between_1_11" />
			<state id="never_or_less_than_once" />
			<parents>Householdsize</parents>
			<probabilities>0.2072727272727273 0.3927272727272727 0.1745454545454546 0.08727272727272728 0.1381818181818182 0.2504708097928437 0.4444444444444444 0.1450094161958569 0.0847457627118644 0.07532956685499058 0.3644067796610169 0.3347457627118644 0.1080508474576271 0.06567796610169492 0.1271186440677966</probabilities>
		</cpt>
		<cpt id="Dining">
			<state id="more_than_48" />
			<state id="between_12_48" />
			<state id="between_4_11" />
			<state id="between_1_3" />
			<state id="never_or_less_than_once" />
			<parents>Colleagues</parents>
			<probabilities>0.1036906854130053 0.2003514938488576 0.1810193321616872 0.1845342706502636 0.3304042179261863 0.2106741573033708 0.3089887640449438 0.1573033707865168 0.1151685393258427 0.2078651685393259 0.2011331444759207 0.2804532577903683 0.1813031161473088 0.1218130311614731 0.2152974504249292</probabilities>
		</cpt>
		<cpt id="Cinema">
			<state id="more_than_12" />
			<state id="between_4_12" />
			<state id="between_1_3" />
			<state id="never_or_less_than_once" />
			<parents>Grandparents</parents>
			<probabilities>0.1137123745819398 0.1192865105908584 0.1616499442586399 0.6053511705685619 0.2020997375328084 0.1522309711286089 0.1443569553805774 0.5013123359580053</probabilities>
		</cpt>
		<cpt id="Recreation">
			<state id="more_than_48" />
			<state id="between_12_48" />
			<state id="between_4_11" />
			<state id="between_1_3" />
			<state id="never_or_less_than_once" />
			<parents>Education</parents>
			<probabilities>0.1254752851711027 0.1115335868187579 0.08998732572877059 0.1153358681875792 0.5576679340937896 0.2147239263803681 0.1390593047034765 0.08179959100204499 0.1186094069529652 0.4458077709611452</probabilities>
		</cpt>
		<cpt id="Vacation">
			<state id="more_than_12" />
			<state id="between_4_12" />
			<state id="between_1_3" />
			<state id="never_or_less_than_once" />
			<parents>Grandparents</parents>
			<probabilities>0.04013377926421405 0.1560758082497213 0.2430323299888517 0.5607580824972129 0.1128608923884514 0.1601049868766404 0.2572178477690289 0.4698162729658792</probabilities>
		</cpt>
		<cpt id="Shopping">
			<state id="more_than_48" />
			<state id="between_12_48" />
			<state id="between_4_11" />
			<state id="between_1_3" />
			<state id="never_or_less_than_once" />
			<parents>Gender</parents>
			<probabilities>0.1426307448494453 0.1458003169572108 0.07765451664025357 0.1014263074484945 0.5324881141045958 0.1591962905718702 0.2210200927357032 0.1360123647604328 0.1267387944358578 0.357032457496136</probabilities>
		</cpt>
	</nodes>
	<extensions>
		<genie version="1.0" app="GeNIe 5.0.4722.0 ACADEMIC" name="model1">
			<node id="Gender">
				<name>Gender</name>
				<interior color="ffffff" />
				<outline color="000080" />
				<font color="000000" name="Arial" size="8" />
				<position>624 194 676 226</position>
				<barchart active="true" width="128" height="64" />
			</node>
			<node id="Age">
				<name>Age</name>
				<interior color="ffffff" />
				<outline color="000080" />
				<font color="000000" name="Arial" size="8" />
				<position>764 397 804 422</position>
				<barchart active="true" width="128" height="90" />
			</node>
			<node id="Householdsize">
				<name>Householdsize</name>
				<interior color="ffffff" />
				<outline color="000080" />
				<font color="000000" name="Arial" size="8" />
				<position>559 490 643 542</position>
				<barchart active="true" width="128" height="72" />
			</node>
			<node id="MaritalStatus">
				<name>MaritalStatus</name>
				<interior color="ffffff" />
				<outline color="000080" />
				<font color="000000" name="Arial" size="8" />
				<position>368 467 443 513</position>
				<barchart active="true" width="128" height="90" />
			</node>
			<node id="Education">
				<name>Education</name>
				<interior color="ffffff" />
				<outline color="000080" />
				<font color="000000" name="Arial" size="8" />
				<position>348 329 410 367</position>
				<barchart active="true" width="128" height="64" />
			</node>
			<node id="Income">
				<name>Income</name>
				<interior color="ffffff" />
				<outline color="000080" />
				<font color="000000" name="Arial" size="8" />
				<position>201 312 253 344</position>
				<barchart active="true" width="128" height="108" />
			</node>
			<node id="Friends">
				<name>Friends</name>
				<interior color="ffffca" />
				<outline color="000080" />
				<font color="000000" name="Arial" size="8" />
				<position>777 75 829 107</position>
				<barchart active="true" width="128" height="90" />
			</node>
			<node id="Colleagues">
				<name>Colleagues</name>
				<interior color="ffffca" />
				<outline color="000080" />
				<font color="000000" name="Arial" size="8" />
				<position>897 165 965 207</position>
				<barchart active="true" width="128" height="72" />
			</node>
			<node id="Neighbors">
				<name>Neighbors</name>
				<interior color="ffffca" />
				<outline color="000080" />
				<font color="000000" name="Arial" size="8" />
				<position>276 579 340 619</position>
				<barchart active="true" width="128" height="72" />
			</node>
			<node id="Grandparents">
				<name>Grandparents</name>
				<interior color="ffffca" />
				<outline color="000080" />
				<font color="000000" name="Arial" size="8" />
				<position>498 292 578 342</position>
				<barchart active="true" width="128" height="64" />
			</node>
			<node id="Parents">
				<name>Parents</name>
				<interior color="ffffca" />
				<outline color="000080" />
				<font color="000000" name="Arial" size="8" />
				<position>764 552 818 585</position>
				<barchart active="true" width="128" height="90" />
			</node>
			<node id="Siblings">
				<name>Siblings</name>
				<interior color="ffffca" />
				<outline color="000080" />
				<font color="000000" name="Arial" size="8" />
				<position>967 381 1019 413</position>
				<barchart active="true" width="128" height="90" />
			</node>
			<node id="Children">
				<name>Children</name>
				<interior color="ffffca" />
				<outline color="000080" />
				<font color="000000" name="Arial" size="8" />
				<position>557 398 613 433</position>
				<barchart active="true" width="128" height="64" />
			</node>
			<node id="Otherfamilymembers">
				<name>Otherfamilymembers</name>
				<interior color="ffffca" />
				<outline color="000080" />
				<font color="000000" name="Arial" size="8" />
				<position>913 512 1025 582</position>
				<barchart active="true" width="128" height="90" />
			</node>
			<node id="Visit">
				<name>Visit</name>
				<interior color="e5f6f7" />
				<outline color="000080" />
				<font color="000000" name="Arial" size="8" />
				<position>475 182 516 207</position>
				<barchart active="true" width="128" height="108" />
			</node>
			<node id="Hosting">
				<name>Hosting</name>
				<interior color="e5f6f7" />
				<outline color="000080" />
				<font color="000000" name="Arial" size="8" />
				<position>510 626 562 658</position>
				<barchart active="true" width="128" height="108" />
			</node>
			<node id="Dining">
				<name>Dining</name>
				<interior color="e5f6f7" />
				<outline color="000080" />
				<font color="000000" name="Arial" size="8" />
				<position>1088 161 1136 191</position>
				<barchart active="true" width="144" height="108" />
			</node>
			<node id="Bar">
				<name>Bar</name>
				<interior color="e5f6f7" />
				<outline color="000080" />
				<font color="000000" name="Arial" size="8" />
				<position>787 280 825 303</position>
				<barchart active="true" width="128" height="90" />
			</node>
			<node id="Cinema">
				<name>Cinema</name>
				<interior color="e5f6f7" />
				<outline color="000080" />
				<font color="000000" name="Arial" size="8" />
				<position>344 74 396 106</position>
				<barchart active="true" width="128" height="90" />
			</node>
			<node id="Recreation">
				<name>Recreation</name>
				<interior color="e5f6f7" />
				<outline color="000080" />
				<font color="000000" name="Arial" size="8" />
				<position>202 462 268 503</position>
				<barchart active="true" width="128" height="108" />
			</node>
			<node id="Vacation">
				<name>Vacation</name>
				<interior color="e5f6f7" />
				<outline color="000080" />
				<font color="000000" name="Arial" size="8" />
				<position>296 193 353 228</position>
				<barchart active="true" width="117" height="90" />
			</node>
			<node id="Shopping">
				<name>Shopping</name>
				<interior color="e5f6f7" />
				<outline color="000080" />
				<font color="000000" name="Arial" size="8" />
				<position>617 81 676 117</position>
				<barchart active="true" width="128" height="108" />
			</node>
			<node id="Paidwork">
				<name>Paidwork</name>
				<interior color="ffffff" />
				<outline color="000080" />
				<font color="000000" name="Arial" size="8" />
				<position>945 272 1004 308</position>
				<barchart active="true" width="162" height="72" />
			</node>
			<textbox>
				<caption>Input file: model1.csv\nData rows: 1278\nElapsed time: 1.702s\n\nLearning algorithm: Bayesian Search\nAlgorithm parameters:\nIterations: 100\nMax parent count: 8\nSample size: 100\nLink probability: 0.1\nPrior link probability: 0.001\nSeed: 10\nMax search time: 0\nBackground knowledge was provided:\n  forbidden arcs: 266\n\nBest score in iteration 75: -33319.7\nEM Log Likelihood: -32527.6</caption>
				<font color="000000" name="Arial" size="8" />
				<position>15 8 200 260</position>
			</textbox>
		</genie>
	</extensions>
</smile>
